{"learner":{"attributes":{"scikit_learn":"{\"_estimator_type\": \"regressor\"}"},"feature_names":["temperature","humidity","pressure","hour","day_of_week","month","is_weekend","hour_sin","hour_cos","day_sin","day_cos","pm25_lag_1h","pm10_lag_1h","o3_lag_1h","no2_lag_1h","so2_lag_1h","co_lag_1h","aqi_lag_1h"],"feature_types":["float","float","float","int","int","int","int","float","float","float","float","float","float","float","float","float","float","float"],"gradient_booster":{"model":{"gbtree_model_param":{"num_parallel_tree":"1","num_trees":"150"},"iteration_indptr":[0,1,2,3,4,5,6,7,8,9,10,11,12,13,14,15,16,17,18,19,20,21,22,23,24,25,26,27,28,29,30,31,32,33,34,35,36,37,38,39,40,41,42,43,44,45,46,47,48,49,50,51,52,53,54,55,56,57,58,59,60,61,62,63,64,65,66,67,68,69,70,71,72,73,74,75,76,77,78,79,80,81,82,83,84,85,86,87,88,89,90,91,92,93,94,95,96,97,98,99,100,101,102,103,104,105,106,107,108,109,110,111,112,113,114,115,116,117,118,119,120,121,122,123,124,125,126,127,128,129,130,131,132,133,134,135,136,137,138,139,140,141,142,143,144,145,146,147,148,149,150],"tree_info":[0,0,0,0,0,0,0,0,0,0,0,0,0,0,0,0,0,0,0,0,0,0,0,0,0,0,0,0,0,0,0,0,0,0,0,0,0,0,0,0,0,0,0,0,0,0,0,0,0,0,0,0,0,0,0,0,0,0,0,0,0,0,0,0,0,0,0,0,0,0,0,0,0,0,0,0,0,0,0,0,0,0,0,0,0,0,0,0,0,0,0,0,0,0,0,0,0,0,0,0,0,0,0,0,0,0,0,0,0,0,0,0,0,0,0,0,0,0,0,0,0,0,0,0,0,0,0,0,0,0,0,0,0,0,0,0,0,0,0,0,0,0,0,0,0,0,0,0,0,0],"trees":[{"base_weights":[-3.9245856E-7,-1.3944934E1,2.3165354E1,-2.2259472E1,-3.9150193E0,1.5038675E1,4.132695E1,-2.736108E1,-1.8060781E1,-1.0709229E1,-9.632658E-1,9.4499035E0,1.9534374E1,3.344229E1,5.8948456E1,-7.4412374E0,-2.8108484E1,-1.839561E1,5.23134E-1,-8.299098E0,-1.3397563E0,2.331767E-1,-5.1070294E0,7.6062255E0,1.8847422E1,2.1180447E1,1.0687708E1,3.4655235E1,1.084701E0,5.257249E0,6.17512E-1,8.0313396E-1,-1.3291546E0,-2.8639236E1,-9.75299E-1,-1.1029485E1,-1.9053535E1,-8.993318E0,-1.1912374E0,1.0494841E0,-9.601375E0,-6.504721E0,2.8087626E0,8.554908E0,-9.347083E-1,7.4101436E-1,1.9730144E0,2.531087E0,1.9365305E1,1.4270515E1,-9.4123745E-1,1.4047009E0,2.8495173E0,-2.3077664E0,-5.96866E-1,-1.35042715E1,-3.1529897E-1,-1.9816029E1,-1.1429485E1,-5.9281793E0,-1.0537114E1,-3.96866E-1,1.37512E-1,-3.4252112E0,2.9591668E0,-8.9529896E-1,-3.42488E-1,-1.3731995E-1,-8.19354E0,4.03134E-1,3.855667E-1,9.3555975E0,-2.1912374E0,-4.2248797E-1,2.04701E-1,1.0731958E1,1.6044325E0,2.4313399E-1,1.2144604E0,4.3134E-2,-1.2915467E-1,-2.76866E-1,-1.1681099E0,-1.5948977E0,-4.36866E-1,-9.6331733E-1,-2.36866E-1,-5.810951E-1,-1.15298994E-1,-2.0915467E-1,-9.091237E-1,2.10016E-1,-5.6560826E-1,7.050537E-2,8.347891E-1,-1.7529899E-1,3.23134E-1,-6.970368E-1,-3.6865998E-2,8.3134E-2,-3.6865998E-2,8.5405904E-1,4.6867743E-1,3.0845337E-2,-3.96866E-1,1.0290145E0,3.1340027E-3],"categories":[],"categories_nodes":[],"categories_segments":[],"categories_sizes":[],"default_left":[0,0,0,0,0,0,0,0,0,0,0,0,0,0,0,0,0,0,0,0,0,0,0,0,0,0,0,0,0,0,0,0,0,0,0,0,0,0,0,0,0,0,0,0,0,0,0,0,0,0,0,0,0,0,0,0,0,0,0,0,0,0,0,0,0,0,0,0,0,0,0,0,0,0,0,0,0,0,0,0,0,0,0,0,0,0,0,0,0,0,0,0,0,0,0,0,0,0,0,0,0,0,0,0,0,0,0],"id":0,"left_children":[1,3,5,7,9,11,13,15,17,19,21,23,25,27,29,31,33,35,-1,37,-1,39,41,43,45,47,49,51,-1,-1,-1,-1,-1,53,-1,55,57,59,61,63,65,67,69,71,73,-1,-1,-1,75,77,79,-1,-1,-1,-1,81,-1,83,85,87,89,-1,-1,91,93,-1,-1,95,97,-1,99,101,103,-1,-1,105,-1,-1,-1,-1,-1,-1,-1,-1,-1,-1,-1,-1,-1,-1,-1,-1,-1,-1,-1,-1,-1,-1,-1,-1,-1,-1,-1,-1,-1,-1,-1],"loss_changes":[1.5732016E5,2.526466E4,2.6388102E4,3.0615703E3,2.7773057E3,3.031459E3,5.809242E3,8.776719E2,8.945488E2,4.721875E2,4.870528E2,8.7887646E2,7.929883E2,5.189375E2,5.0396055E3,8.082002E2,2.4221875E2,2.405625E2,0E0,1.4718823E2,0E0,6.282338E2,2.6167456E2,4.212307E2,2.7319702E2,4.8832227E2,5.550674E2,6.796875E-1,0E0,0E0,0E0,0E0,0E0,7.969922E1,0E0,1.2219556E2,2.6183008E2,7.47605E1,5.2407238E1,6.253937E2,2.84021E0,2.0318927E2,1.9675966E1,4.162998E2,1.04617035E2,0E0,0E0,0E0,9.457617E1,5.6095337E1,4.8568926E0,0E0,0E0,0E0,0E0,2.6598022E1,0E0,2.053711E1,1.6173828E1,6.1439545E1,8.821692E1,0E0,0E0,5.0372858E2,7.830055E2,0E0,0E0,5.1741676E1,5.6232788E1,0E0,2.1385038E0,1.3597437E2,3.0459467E1,0E0,0E0,1.3619617E2,0E0,0E0,0E0,0E0,0E0,0E0,0E0,0E0,0E0,0E0,0E0,0E0,0E0,0E0,0E0,0E0,0E0,0E0,0E0,0E0,0E0,0E0,0E0,0E0,0E0,0E0,0E0,0E0,0E0,0E0,0E0],"parents":[2147483647,0,0,1,1,2,2,3,3,4,4,5,5,6,6,7,7,8,8,9,9,10,10,11,11,12,12,13,13,14,14,15,15,16,16,17,17,19,19,21,21,22,22,23,23,24,24,25,25,26,26,27,27,33,33,35,35,36,36,37,37,38,38,39,39,40,40,41,41,42,42,43,43,44,44,48,48,49,49,50,50,55,55,57,57,58,58,59,59,60,60,63,63,64,64,67,67,68,68,70,70,71,71,72,72,75,75],"right_children":[2,4,6,8,10,12,14,16,18,20,22,24,26,28,30,32,34,36,-1,38,-1,40,42,44,46,48,50,52,-1,-1,-1,-1,-1,54,-1,56,58,60,62,64,66,68,70,72,74,-1,-1,-1,76,78,80,-1,-1,-1,-1,82,-1,84,86,88,90,-1,-1,92,94,-1,-1,96,98,-1,100,102,104,-1,-1,106,-1,-1,-1,-1,-1,-1,-1,-1,-1,-1,-1,-1,-1,-1,-1,-1,-1,-1,-1,-1,-1,-1,-1,-1,-1,-1,-1,-1,-1,-1,-1],"split_conditions":[5.9E1,4.1E1,8.4E1,2.9E1,4.4E1,6.7E1,1.04E2,6E-4,9.9999076E-1,2E-3,8.311706E-1,5.86E-2,8.660254E-1,5.3E1,9.659258E-1,2.21E1,5.91E-2,-4.0148798E-1,5.23134E-1,1.7E-3,-1.3397563E0,3.8E1,7.0710677E-1,2.68E-2,6E1,-1.159346E-1,2.33E1,-9.587178E-1,1.084701E0,5.257249E0,6.17512E-1,8.0313396E-1,-1.3291546E0,3E-3,-9.75299E-1,1.62E-2,9.7110003E-1,1.8E1,2.03E1,7E1,1.018E3,8E-4,5.7E1,9.966589E-1,2E0,7.4101436E-1,1.9730144E0,2.531087E0,2.1E1,-2.344914E-1,2.36E1,1.4047009E0,2.8495173E0,-2.3077664E0,-5.96866E-1,7E1,-3.1529897E-1,1.0233E3,1.0212E3,1.56E-2,-9.599327E-1,-3.96866E-1,1.37512E-1,3.8E-1,4.94E-2,-8.9529896E-1,-3.42488E-1,1.0174E3,1.0198E3,4.03134E-1,2.11E1,1.2246469E-16,2.08E1,-4.2248797E-1,2.04701E-1,7.2E1,1.6044325E0,2.4313399E-1,1.2144604E0,4.3134E-2,-1.2915467E-1,-2.76866E-1,-1.1681099E0,-1.5948977E0,-4.36866E-1,-9.6331733E-1,-2.36866E-1,-5.810951E-1,-1.15298994E-1,-2.0915467E-1,-9.091237E-1,2.10016E-1,-5.6560826E-1,7.050537E-2,8.347891E-1,-1.7529899E-1,3.23134E-1,-6.970368E-1,-3.6865998E-2,8.3134E-2,-3.6865998E-2,8.5405904E-1,4.6867743E-1,3.0845337E-2,-3.96866E-1,1.0290145E0,3.1340027E-3],"split_indices":[12,12,12,12,12,12,12,15,9,15,9,13,7,11,7,0,13,9,0,15,0,11,8,14,1,10,0,9,0,0,0,0,0,15,0,14,10,11,0,1,2,15,1,9,4,0,0,0,11,10,0,0,0,0,0,1,0,2,2,14,10,0,0,16,13,0,0,2,2,0,0,7,0,0,0,1,0,0,0,0,0,0,0,0,0,0,0,0,0,0,0,0,0,0,0,0,0,0,0,0,0,0,0,0,0,0,0],"split_type":[0,0,0,0,0,0,0,0,0,0,0,0,0,0,0,0,0,0,0,0,0,0,0,0,0,0,0,0,0,0,0,0,0,0,0,0,0,0,0,0,0,0,0,0,0,0,0,0,0,0,0,0,0,0,0,0,0,0,0,0,0,0,0,0,0,0,0,0,0,0,0,0,0,0,0,0,0,0,0,0,0,0,0,0,0,0,0,0,0,0,0,0,0,0,0,0,0,0,0,0,0,0,0,0,0,0,0],"sum_hessian":[4.85E2,3.03E2,1.82E2,1.65E2,1.38E2,1.27E2,5.5E1,7.2E1,9.3E1,4.1E1,9.7E1,5.8E1,6.9E1,4E1,1.5E1,3E0,6.9E1,9.2E1,1E0,3.1E1,1E1,7.6E1,2.1E1,5E1,8E0,5.7E1,1.2E1,3.7E1,3E0,1.3E1,2E0,1E0,2E0,6.6E1,3E0,9E0,8.3E1,2.8E1,3E0,7.1E1,5E0,1.8E1,3E0,4.5E1,5E0,4E0,4E0,6E0,5.1E1,9E0,3E0,3E0,3.4E1,6.5E1,1E0,6E0,3E0,7.4E1,9E0,1.1E1,1.7E1,1E0,2E0,2.1E1,5E1,3E0,2E0,4E0,1.4E1,1E0,2E0,4.2E1,3E0,2E0,3E0,5E0,4.6E1,1E0,8E0,1E0,2E0,1E0,5E0,7.3E1,1E0,8E0,1E0,8E0,3E0,2E0,1.5E1,8E0,1.3E1,4E1,1E1,3E0,1E0,1.3E1,1E0,1E0,1E0,2.9E1,1.3E1,2E0,1E0,4E0,1E0],"tree_param":{"num_deleted":"0","num_feature":"18","num_nodes":"107","size_leaf_vector":"1"}},{"base_weights":[1.6650682E-2,-1.2872477E1,2.1428005E1,-2.0039276E1,-2.994729E0,1.3913647E1,3.822104E1,-2.523255E1,-1.6201313E1,-8.64675E0,-6.276469E-1,8.752437E0,1.8065042E1,3.0897127E1,5.459975E1,-6.9774437E0,-2.5915234E1,-1.6480503E1,5.022087E-1,-4.9469457E0,-1.0598847E1,-4.030039E-2,-9.039563E0,7.0122175E0,1.7641188E1,3.1818905E0,1.7173996E1,3.1444714E1,3.5974592E-1,6.083388E1,5.8457804E-1,7.710086E-1,-1.2582663E0,-2.639145E1,-9.16781E-1,-1.7509947E1,-1.1626967E1,-1.5042784E0,-7.074915E0,-1.118753E1,1.17633514E-1,-2.862557E0,1.6537863E0,-8.415811E-1,-3.24222E-1,7.8913145E0,-8.962288E-1,6.935896E-1,2.3084269E1,1.8522968E1,9.938198E0,2.5575278E0,4.3974593E-1,3.001407E0,5.5695004E0,-2.1259422E0,-5.729913E-1,-1.7994488E1,-7.742856E-1,-1.247982E0,-1.265381E1,1.6787598E-1,-3.3650596E0,-6.386788E-1,7.7459714E-3,-1.2148206E1,-4.2395636E-1,-8.159113E0,-1.1227492E0,-3.4394133E-1,9.675964E0,8.637913E0,-2.1074438E0,-3.9995524E-1,1.9241898E-1,2.0263202E0,5.642134E-1,1.0045426E1,1.9144934E1,1.3274635E1,-8.8744354E-1,-2.6579133E-1,-1.451506E0,-2.2739135E-1,7.7633515E-2,-1.0436268E0,-2.24254E-1,-3.1387267E-1,-4.526657E-2,-1.0000424E0,-2.3225403E-1,-2.4327648E-1,-1.0013624E0,-6.554841E-1,-1.5369415E-2,-5.307406E-1,1.5090291E-1,6.632324E-2,9.239865E-1,7.292024E-1,1.3658035E-1,2.9200235E-2,-3.8099137E-1,9.631575E-1,3.0085754E-3,1.8573775E0,1.3493212E0,2.3340866E-1,1.128099E0,4.140869E-2,-1.22266434E-1],"categories":[],"categories_nodes":[],"categories_segments":[],"categories_sizes":[],"default_left":[0,0,0,0,0,0,0,0,0,0,0,0,0,0,0,0,0,0,0,0,0,0,0,0,0,0,0,0,0,0,0,0,0,0,0,0,0,0,0,0,0,0,0,0,0,0,0,0,0,0,0,0,0,0,0,0,0,0,0,0,0,0,0,0,0,0,0,0,0,0,0,0,0,0,0,0,0,0,0,0,0,0,0,0,0,0,0,0,0,0,0,0,0,0,0,0,0,0,0,0,0,0,0,0,0,0,0,0,0,0,0],"id":1,"left_children":[1,3,5,7,9,11,13,15,17,19,21,23,25,27,29,31,33,35,-1,37,39,41,43,45,47,-1,49,51,-1,53,-1,-1,-1,55,-1,57,59,61,63,65,-1,67,69,-1,-1,71,73,-1,75,77,79,-1,-1,-1,-1,-1,-1,81,-1,83,85,-1,87,-1,-1,89,-1,91,93,95,97,99,101,-1,-1,-1,-1,103,105,107,109,-1,-1,-1,-1,-1,-1,-1,-1,-1,-1,-1,-1,-1,-1,-1,-1,-1,-1,-1,-1,-1,-1,-1,-1,-1,-1,-1,-1,-1,-1],"loss_changes":[1.3439903E5,2.1460707E4,2.2560773E4,3.0991562E3,1.7204377E3,2.5844434E3,5.0305703E3,7.289375E2,7.5614844E2,2.2201855E2,4.5418103E2,7.8893066E2,6.709629E2,4.513125E2,4.2727188E3,7.331692E2,1.794375E2,3.1104492E2,0E0,9.92457E1,1.8696924E2,4.206939E2,1.6544495E0,3.6163892E2,2.3934692E2,0E0,4.8941602E2,3.6853906E2,0E0,2.5570312E2,0E0,0E0,0E0,4.5210938E1,0E0,1.4079492E2,2.0801733E2,5.3988632E1,5.9417236E1,6.572168E1,0E0,2.9493402E2,8.84765E2,0E0,0E0,3.6159668E2,9.330452E1,0E0,1.2961426E0,1.0822656E2,4.813285E2,0E0,0E0,0E0,0E0,0E0,0E0,1.0843164E2,0E0,1.3369434E1,3.671045E1,0E0,5.594734E0,0E0,0E0,2.559668E1,0E0,1.4037231E2,1.6951395E2,6.438119E2,1.7278223E2,1.26628174E2,2.799516E1,0E0,0E0,0E0,0E0,1.19283325E2,9.088086E1,4.4469482E1,4.3929954E0,0E0,0E0,0E0,0E0,0E0,0E0,0E0,0E0,0E0,0E0,0E0,0E0,0E0,0E0,0E0,0E0,0E0,0E0,0E0,0E0,0E0,0E0,0E0,0E0,0E0,0E0,0E0,0E0,0E0,0E0],"parents":[2147483647,0,0,1,1,2,2,3,3,4,4,5,5,6,6,7,7,8,8,9,9,10,10,11,11,12,12,13,13,14,14,15,15,16,16,17,17,19,19,20,20,21,21,22,22,23,23,24,24,26,26,27,27,29,29,33,33,35,35,36,36,37,37,38,38,39,39,41,41,42,42,45,45,46,46,48,48,49,49,50,50,57,57,59,59,60,60,62,62,65,65,67,67,68,68,69,69,70,70,71,71,72,72,77,77,78,78,79,79,80,80],"right_children":[2,4,6,8,10,12,14,16,18,20,22,24,26,28,30,32,34,36,-1,38,40,42,44,46,48,-1,50,52,-1,54,-1,-1,-1,56,-1,58,60,62,64,66,-1,68,70,-1,-1,72,74,-1,76,78,80,-1,-1,-1,-1,-1,-1,82,-1,84,86,-1,88,-1,-1,90,-1,92,94,96,98,100,102,-1,-1,-1,-1,104,106,108,110,-1,-1,-1,-1,-1,-1,-1,-1,-1,-1,-1,-1,-1,-1,-1,-1,-1,-1,-1,-1,-1,-1,-1,-1,-1,-1,-1,-1,-1,-1],"split_conditions":[5.9E1,4.2E1,8.4E1,2.9E1,4.5E1,6.7E1,1.04E2,6E-4,9.9999076E-1,-2.5881904E-1,3.8E1,5.86E-2,-5.197438E-1,8.5E-1,9.659258E-1,2.21E1,5.91E-2,4E1,5.022087E-1,1.1E-3,9.9421793E-1,7E1,1.018E3,2.68E-2,6E1,3.1818905E0,8.660254E-1,8.8E1,3.5974592E-1,4.5E1,5.8457804E-1,7.710086E-1,-1.2582663E0,3E-3,-9.16781E-1,9.7110003E-1,3E0,2.14E1,-1.159346E-1,5E0,1.17633514E-1,4.8E1,4.94E-2,-8.415811E-1,-3.24222E-1,9.966589E-1,2E0,6.935896E-1,6.7E1,2.1E1,2.33E1,2.5575278E0,4.3974593E-1,3.001407E0,5.5695004E0,-2.1259422E0,-5.729913E-1,-9.721182E-1,-7.742856E-1,1.96E1,5.1E-1,1.6787598E-1,2.36E1,-6.386788E-1,7.7459714E-3,1.0212E3,-4.2395636E-1,6E1,2.05E1,2.4E1,3E0,6.1E-1,2.08E1,-3.9995524E-1,1.9241898E-1,2.0263202E0,5.642134E-1,7.2E1,1.3E1,-2.344914E-1,2.36E1,-2.6579133E-1,-1.451506E0,-2.2739135E-1,7.7633515E-2,-1.0436268E0,-2.24254E-1,-3.1387267E-1,-4.526657E-2,-1.0000424E0,-2.3225403E-1,-2.4327648E-1,-1.0013624E0,-6.554841E-1,-1.5369415E-2,-5.307406E-1,1.5090291E-1,6.632324E-2,9.239865E-1,7.292024E-1,1.3658035E-1,2.9200235E-2,-3.8099137E-1,9.631575E-1,3.0085754E-3,1.8573775E0,1.3493212E0,2.3340866E-1,1.128099E0,4.140869E-2,-1.22266434E-1],"split_indices":[12,12,12,12,12,12,12,15,9,8,11,13,10,16,7,0,13,12,0,15,9,1,2,14,1,0,7,1,0,11,0,0,0,15,0,10,5,0,10,4,0,12,13,0,0,9,4,0,1,11,0,0,0,0,0,0,0,9,0,0,16,0,0,0,0,2,0,1,0,11,5,16,0,0,0,0,0,1,3,10,0,0,0,0,0,0,0,0,0,0,0,0,0,0,0,0,0,0,0,0,0,0,0,0,0,0,0,0,0,0,0],"split_type":[0,0,0,0,0,0,0,0,0,0,0,0,0,0,0,0,0,0,0,0,0,0,0,0,0,0,0,0,0,0,0,0,0,0,0,0,0,0,0,0,0,0,0,0,0,0,0,0,0,0,0,0,0,0,0,0,0,0,0,0,0,0,0,0,0,0,0,0,0,0,0,0,0,0,0,0,0,0,0,0,0,0,0,0,0,0,0,0,0,0,0,0,0,0,0,0,0,0,0,0,0,0,0,0,0,0,0,0,0,0,0],"sum_hessian":[4.85E2,3.03E2,1.82E2,1.75E2,1.28E2,1.27E2,5.5E1,7.2E1,1.03E2,3.7E1,9.1E1,5.8E1,6.9E1,4E1,1.5E1,3E0,6.9E1,1.02E2,1E0,1.4E1,2.3E1,8.6E1,5E0,5E1,8E0,1E0,6.8E1,3.9E1,1E0,1.3E1,2E0,1E0,2E0,6.6E1,3E0,8.2E1,2E1,6E0,8E0,2.2E1,1E0,3.2E1,5.4E1,3E0,2E0,4.5E1,5E0,4E0,4E0,5.6E1,1.2E1,3.8E1,1E0,5E0,8E0,6.5E1,1E0,7.6E1,6E0,2E0,1.8E1,2E0,4E0,7E0,1E0,1.8E1,4E0,7E0,2.5E1,4.4E1,1E1,4.2E1,3E0,2E0,3E0,3E0,1E0,5E0,5.1E1,9E0,3E0,1E0,7.5E1,1E0,1E0,1.7E1,1E0,3E0,1E0,1.7E1,1E0,4E0,3E0,2E0,2.3E1,1.1E1,3.3E1,2E0,8E0,3.9E1,3E0,2E0,1E0,4E0,1E0,1.5E1,3.6E1,1E0,8E0,1E0,2E0],"tree_param":{"num_deleted":"0","num_feature":"18","num_nodes":"111","size_leaf_vector":"1"}},{"base_weights":[4.0826757E-2,-1.1577594E1,2.0389242E1,-1.8478804E1,-2.494701E0,1.33379965E1,3.538679E1,-2.327015E1,-1.4937967E1,-8.017138E0,-3.2789168E-1,8.588894E0,1.6743204E1,2.8507233E1,5.080399E1,-6.5410624E0,-2.3893667E1,-1.5200016E1,4.8212036E-1,-4.606003E0,-9.815049E0,2.0355713E-1,-8.510699E0,6.8152604E0,1.7713676E1,3.0546148E0,1.5879114E1,2.9004066E1,3.4535614E-1,5.6579376E1,5.5340046E-1,7.401683E-1,-1.1911588E0,-2.5920229E1,-1.8929413E1,-1.6139168E1,-1.0764318E1,-1.4112598E0,-6.579025E0,-1.0364538E1,1.1292816E-1,1.242317E0,-3.9075243E0,-7.910863E-1,-3.0693012E-1,7.6270933E0,-1.367189E0,2.2574997E-1,1.9437952E1,1.641489E1,3.0690203E0,2.9477148E1,4.2215607E-1,2.8013127E0,5.173447E0,-5.500717E-1,-2.6184761E1,-3.871336E-1,-1.5992304E0,-1.657723E1,-7.211918E-1,-1.2507969E1,-4.320528E0,1.5892252E-1,-3.1676826E0,-5.9397125E-1,7.4360655E-3,-1.1241207E1,-3.9682305E-1,4.801872E0,-2.308779E-1,-5.31717E0,2.7079391E0,9.55492E-1,8.9341135E0,-3.7862426E-1,1.963324E-1,1.9047408E0,8.165724E-1,1.7075079E1,6.9671664E0,-1.1574565E-1,6.646617E-1,1.4669974E0,3.0946863E1,-5.7951766E-1,-2.1155753E0,-7.88968E-1,-1.3686284E0,-4.4121826E-1,-1.0957944E0,-5.8047295E-1,8.267944E-2,-2.9504028E-1,-4.3455962E-2,-1.0271053E0,-5.9517145E-1,7.1045697E-1,2.9523507E-1,7.7165656E-2,-7.964183E-1,5.352783E-4,-5.673878E-1,3.8762343E-1,3.0431213E-2,3.3209676E-1,-4.6035522E-1,7.656868E-1,1.2838547E-1,1.4027954E0,7.9497325E-1,6.52947E-1,3.975235E-2,6.668521E-1,2.511438E0],"categories":[],"categories_nodes":[],"categories_segments":[],"categories_sizes":[],"default_left":[0,0,0,0,0,0,0,0,0,0,0,0,0,0,0,0,0,0,0,0,0,0,0,0,0,0,0,0,0,0,0,0,0,0,0,0,0,0,0,0,0,0,0,0,0,0,0,0,0,0,0,0,0,0,0,0,0,0,0,0,0,0,0,0,0,0,0,0,0,0,0,0,0,0,0,0,0,0,0,0,0,0,0,0,0,0,0,0,0,0,0,0,0,0,0,0,0,0,0,0,0,0,0,0,0,0,0,0,0,0,0,0,0,0,0],"id":2,"left_children":[1,3,5,7,9,11,13,15,17,19,21,23,25,27,29,31,33,35,-1,37,39,41,43,45,47,-1,49,51,-1,53,-1,-1,-1,55,57,59,61,63,65,67,-1,69,71,-1,-1,73,75,-1,77,79,81,83,-1,-1,-1,-1,85,-1,-1,87,-1,89,91,-1,93,-1,-1,95,-1,97,99,101,103,105,107,-1,-1,-1,-1,109,111,-1,-1,-1,113,-1,-1,-1,-1,-1,-1,-1,-1,-1,-1,-1,-1,-1,-1,-1,-1,-1,-1,-1,-1,-1,-1,-1,-1,-1,-1,-1,-1,-1,-1],"loss_changes":[1.1513445E5,1.9385621E4,1.8246016E4,2.638293E3,1.6127902E3,1.8291387E3,4.4912734E3,6.0516406E2,6.629492E2,1.8784302E2,4.279093E2,7.3702954E2,6.904844E2,3.6754688E2,3.663996E3,6.6515125E2,2.1357031E2,2.5534961E2,0E0,8.526477E1,1.6268481E2,4.0200406E2,7.030945E-1,3.159956E2,1.5056934E2,0E0,4.2319336E2,2.934453E2,0E0,1.7738672E2,0E0,0E0,0E0,5.673633E1,2.6204688E2,1.0958984E2,1.8190894E2,4.8068413E1,5.146747E1,5.3208252E1,0E0,3.944025E2,1.9158224E2,0E0,0E0,3.577002E2,7.5920876E1,0E0,3.9429688E1,2.926953E2,1.0665909E2,7.102734E1,0E0,0E0,0E0,0E0,3.490625E1,0E0,0E0,1.0564844E2,0E0,5.753711E1,1.0179559E2,0E0,4.824543E0,0E0,0E0,1.9878662E1,0E0,6.6960175E1,6.373504E2,1.5126028E2,1.805608E1,1.9543227E2,1.480393E2,0E0,0E0,0E0,0E0,2.5984375E1,4.2323364E1,0E0,0E0,0E0,7.119336E1,0E0,0E0,0E0,0E0,0E0,0E0,0E0,0E0,0E0,0E0,0E0,0E0,0E0,0E0,0E0,0E0,0E0,0E0,0E0,0E0,0E0,0E0,0E0,0E0,0E0,0E0,0E0,0E0,0E0,0E0],"parents":[2147483647,0,0,1,1,2,2,3,3,4,4,5,5,6,6,7,7,8,8,9,9,10,10,11,11,12,12,13,13,14,14,15,15,16,16,17,17,19,19,20,20,21,21,22,22,23,23,24,24,26,26,27,27,29,29,33,33,34,34,35,35,36,36,37,37,38,38,39,39,41,41,42,42,45,45,46,46,48,48,49,49,50,50,51,51,56,56,59,59,61,61,62,62,64,64,67,67,69,69,70,70,71,71,72,72,73,73,74,74,79,79,80,80,84,84],"right_children":[2,4,6,8,10,12,14,16,18,20,22,24,26,28,30,32,34,36,-1,38,40,42,44,46,48,-1,50,52,-1,54,-1,-1,-1,56,58,60,62,64,66,68,-1,70,72,-1,-1,74,76,-1,78,80,82,84,-1,-1,-1,-1,86,-1,-1,88,-1,90,92,-1,94,-1,-1,96,-1,98,100,102,104,106,108,-1,-1,-1,-1,110,112,-1,-1,-1,114,-1,-1,-1,-1,-1,-1,-1,-1,-1,-1,-1,-1,-1,-1,-1,-1,-1,-1,-1,-1,-1,-1,-1,-1,-1,-1,-1,-1,-1,-1],"split_conditions":[6E1,4.2E1,8.4E1,2.9E1,4.5E1,6.7E1,1.04E2,6E-4,9.9999076E-1,-2.5881904E-1,3.8E1,5.77E-2,-5.197438E-1,8.5E-1,9.659258E-1,2.21E1,7.9094565E-1,4E1,4.8212036E-1,1.1E-3,9.9421793E-1,8.311706E-1,1.018E3,2.68E-2,-2.0089056E-1,3.0546148E0,2.44E1,8.8E1,3.4535614E-1,4.5E1,5.5340046E-1,7.401683E-1,-1.1911588E0,1E0,8.498171E-1,9.7110003E-1,1.0201E3,2.14E1,-1.159346E-1,5E0,1.1292816E-1,3.8E-1,7.0710677E-1,-7.910863E-1,-3.0693012E-1,2.3E1,2E0,2.2574997E-1,6.5E1,9.659258E-1,1.0175E3,-9.3383723E-1,4.2215607E-1,2.8013127E0,5.173447E0,-5.500717E-1,2.3E-3,-3.871336E-1,-1.5992304E0,-4.0148798E-1,-7.211918E-1,-4.171936E-1,1.96E1,1.5892252E-1,2.36E1,-5.9397125E-1,7.4360655E-3,1.0183E3,-3.9682305E-1,5.6E-3,2.3E1,8E-4,5.7E1,2.29E1,6.1E-1,-3.7862426E-1,1.963324E-1,1.9047408E0,8.165724E-1,9.821256E-1,2.33E1,-1.1574565E-1,6.646617E-1,1.4669974E0,5.2E1,-5.7951766E-1,-2.1155753E0,-7.88968E-1,-1.3686284E0,-4.4121826E-1,-1.0957944E0,-5.8047295E-1,8.267944E-2,-2.9504028E-1,-4.3455962E-2,-1.0271053E0,-5.9517145E-1,7.1045697E-1,2.9523507E-1,7.7165656E-2,-7.964183E-1,5.352783E-4,-5.673878E-1,3.8762343E-1,3.0431213E-2,3.3209676E-1,-4.6035522E-1,7.656868E-1,1.2838547E-1,1.4027954E0,7.9497325E-1,6.52947E-1,3.975235E-2,6.668521E-1,2.511438E0],"split_indices":[12,12,12,12,12,12,12,15,9,8,11,13,10,16,7,0,9,12,0,15,9,9,2,14,10,0,0,1,0,11,0,0,0,3,9,10,2,0,10,4,0,16,8,0,0,11,4,0,12,7,2,9,0,0,0,0,14,0,0,9,0,9,0,0,0,0,0,2,0,14,0,15,1,0,16,0,0,0,0,10,0,0,0,0,1,0,0,0,0,0,0,0,0,0,0,0,0,0,0,0,0,0,0,0,0,0,0,0,0,0,0,0,0,0,0],"split_type":[0,0,0,0,0,0,0,0,0,0,0,0,0,0,0,0,0,0,0,0,0,0,0,0,0,0,0,0,0,0,0,0,0,0,0,0,0,0,0,0,0,0,0,0,0,0,0,0,0,0,0,0,0,0,0,0,0,0,0,0,0,0,0,0,0,0,0,0,0,0,0,0,0,0,0,0,0,0,0,0,0,0,0,0,0,0,0,0,0,0,0,0,0,0,0,0,0,0,0,0,0,0,0,0,0,0,0,0,0,0,0,0,0,0,0],"sum_hessian":[4.85E2,3.09E2,1.76E2,1.75E2,1.34E2,1.21E2,5.5E1,7.2E1,1.03E2,3.7E1,9.7E1,5.2E1,6.9E1,4E1,1.5E1,3E0,6.9E1,1.02E2,1E0,1.4E1,2.3E1,9.2E1,5E0,4.5E1,7E0,1E0,6.8E1,3.9E1,1E0,1.3E1,2E0,1E0,2E0,4.6E1,2.3E1,8.2E1,2E1,6E0,8E0,2.2E1,1E0,7.4E1,1.8E1,3E0,2E0,4.1E1,4E0,1E0,6E0,6.5E1,3E0,3.8E1,1E0,5E0,8E0,1E0,4.5E1,2E0,2.1E1,7.6E1,6E0,1.5E1,5E0,2E0,4E0,7E0,1E0,1.8E1,4E0,2.1E1,5.3E1,1.5E1,3E0,7E0,3.4E1,2E0,2E0,3E0,3E0,6E1,5E0,2E0,1E0,6E0,3.2E1,1E0,4.4E1,7E0,6.9E1,3E0,1.2E1,3E0,2E0,3E0,1E0,1.1E1,7E0,3E0,1.8E1,4.8E1,5E0,4E0,1.1E1,1E0,2E0,5E0,2E0,3.1E1,3E0,5.5E1,5E0,4E0,1E0,1E0,3.1E1],"tree_param":{"num_deleted":"0","num_feature":"18","num_nodes":"115","size_leaf_vector":"1"}},{"base_weights":[5.85874E-2,-1.0695731E1,1.8893503E1,-1.7057966E1,-2.322034E0,1.2353127E1,3.2804794E1,-2.1196861E1,-1.3547449E1,-7.4460897E0,-3.1146097E-1,7.9683976E0,1.549652E1,2.6358675E1,4.727268E1,-6.1305256E0,-2.1710918E1,-1.3806401E1,4.6283552E-1,-4.2885966E0,-9.109269E0,1.887516E-1,-6.4102757E-1,6.2827253E0,1.6664965E1,2.9324303E0,1.4658632E1,2.7070974E1,6.650045E-1,5.2622654E1,5.2388567E-1,7.105615E-1,-1.1276304E0,-1.6470404E1,-2.3053314E1,-1.2751017E1,-1.7729977E1,-1.3240128E0,-6.117873E0,-9.623162E0,1.084111E-1,5.92203E-1,-7.1488744E-1,7.312772E0,4.7590828E-1,2.1671997E-1,1.8271675E1,1.58024235E1,8.515961E0,2.7516745E1,4.0526977E-1,2.767658E0,4.945471E0,-1.3485538E0,-3.805226E-1,-2.3831928E1,-9.8666656E-1,-8.438335E0,-1.3697338E1,-1.9262524E0,-1.0748963E0,1.5044658E-1,-2.9819672E0,-5.5239326E-1,7.138672E-3,-1.0119146E1,-2.354841E-1,9.9751717E-1,3.933808E-2,8.630204E-1,8.696686E0,-3.67341E0,5.543579E0,1.7904565E0,7.6757795E-1,8.233825E0,1.637183E1,1.138624E1,-7.887287E-1,2.783749E1,6.259648E-1,-1.9218515E0,-5.5554837E-1,-1.1137743E0,-3.9945745E-1,-8.630035E-1,-1.2053239E0,-2.7733788E-1,-4.1717682E-2,-8.300926E-1,-1.9915695E-1,-1.3523118E-1,2.705734E-1,4.5748726E-1,-2.5552318E-1,1.8376426E-1,7.423606E-1,-5.619291E-1,3.8917616E-1,5.517177E-1,5.9396055E-2,8.117366E-1,-5.322357E-2,1.6165555E0,1.1416737E0,1.979544E-1,9.681204E-1,3.816223E-2,-1.0957255E-1,6.401781E-1,2.2532947E0],"categories":[],"categories_nodes":[],"categories_segments":[],"categories_sizes":[],"default_left":[0,0,0,0,0,0,0,0,0,0,0,0,0,0,0,0,0,0,0,0,0,0,0,0,0,0,0,0,0,0,0,0,0,0,0,0,0,0,0,0,0,0,0,0,0,0,0,0,0,0,0,0,0,0,0,0,0,0,0,0,0,0,0,0,0,0,0,0,0,0,0,0,0,0,0,0,0,0,0,0,0,0,0,0,0,0,0,0,0,0,0,0,0,0,0,0,0,0,0,0,0,0,0,0,0,0,0,0,0,0,0],"id":3,"left_children":[1,3,5,7,9,11,13,15,17,19,21,23,25,27,29,31,33,35,-1,37,39,41,-1,43,45,-1,47,49,-1,51,-1,-1,-1,53,55,57,59,61,63,65,-1,67,-1,69,71,-1,73,75,77,79,-1,-1,-1,-1,-1,81,-1,83,85,-1,-1,-1,87,-1,-1,89,-1,-1,91,93,95,97,99,-1,-1,101,103,105,107,109,-1,-1,-1,-1,-1,-1,-1,-1,-1,-1,-1,-1,-1,-1,-1,-1,-1,-1,-1,-1,-1,-1,-1,-1,-1,-1,-1,-1,-1,-1,-1],"loss_changes":[9.8644625E4,1.6475777E4,1.5699117E4,2.2700508E3,1.3884897E3,1.5580352E3,3.9766094E3,4.787539E2,5.7049414E2,1.6049023E2,3.7904068E2,6.722554E2,7.036953E2,3.019961E2,3.1413633E3,6.034864E2,1.5495312E2,1.7558984E2,0E0,7.324548E1,1.421029E2,3.4766513E2,0E0,2.716593E2,1.2988745E2,0E0,3.5021582E2,2.4316211E2,0E0,1.8214062E2,0E0,0E0,0E0,5.8442383E0,1.9018164E2,2.1091211E2,1.6711865E2,4.279934E1,4.4583496E1,4.6412354E1,0E0,5.9047156E2,0E0,3.4060474E2,1.8858289E2,0E0,3.4840088E1,1.108457E2,3.561725E2,2.2197266E1,0E0,0E0,0E0,0E0,0E0,4.3183594E0,0E0,2.5165576E2,9.2453125E1,0E0,0E0,0E0,4.1559105E0,0E0,0E0,1.5348145E1,0E0,0E0,5.0876733E2,1.7586014E2,9.803955E1,1.7721364E2,2.0861343E1,0E0,0E0,1.088884E2,1.3060352E2,3.3798706E1,3.5946193E0,1.5839844E1,0E0,0E0,0E0,0E0,0E0,0E0,0E0,0E0,0E0,0E0,0E0,0E0,0E0,0E0,0E0,0E0,0E0,0E0,0E0,0E0,0E0,0E0,0E0,0E0,0E0,0E0,0E0,0E0,0E0,0E0,0E0],"parents":[2147483647,0,0,1,1,2,2,3,3,4,4,5,5,6,6,7,7,8,8,9,9,10,10,11,11,12,12,13,13,14,14,15,15,16,16,17,17,19,19,20,20,21,21,23,23,24,24,26,26,27,27,29,29,33,33,34,34,35,35,36,36,37,37,38,38,39,39,41,41,43,43,44,44,46,46,47,47,48,48,49,49,55,55,57,57,58,58,62,62,65,65,68,68,69,69,70,70,71,71,72,72,75,75,76,76,77,77,78,78,79,79],"right_children":[2,4,6,8,10,12,14,16,18,20,22,24,26,28,30,32,34,36,-1,38,40,42,-1,44,46,-1,48,50,-1,52,-1,-1,-1,54,56,58,60,62,64,66,-1,68,-1,70,72,-1,74,76,78,80,-1,-1,-1,-1,-1,82,-1,84,86,-1,-1,-1,88,-1,-1,90,-1,-1,92,94,96,98,100,-1,-1,102,104,106,108,110,-1,-1,-1,-1,-1,-1,-1,-1,-1,-1,-1,-1,-1,-1,-1,-1,-1,-1,-1,-1,-1,-1,-1,-1,-1,-1,-1,-1,-1,-1,-1],"split_conditions":[6E1,4.2E1,8.4E1,3E1,4.5E1,6.7E1,1.04E2,6E-4,9.9999076E-1,-2.5881904E-1,3.8E1,5.77E-2,-5.197438E-1,2.9E-3,9.659258E-1,2.21E1,1.83E-2,2.47E1,4.6283552E-1,1.1E-3,9.9421793E-1,2.4E-3,-6.4102757E-1,6E-1,-2.0089056E-1,2.9324303E0,8.660254E-1,8.8E1,6.650045E-1,4.6E1,5.2388567E-1,7.105615E-1,-1.1276304E0,1.2246469E-16,5.91E-2,4E0,1.0109E3,2.14E1,-1.159346E-1,2.54E1,1.084111E-1,4.6E1,-7.1488744E-1,2.3E1,6.616346E-1,2.1671997E-1,6.5E1,2.1E1,2.33E1,1.022E3,4.0526977E-1,2.767658E0,4.945471E0,-1.3485538E0,-3.805226E-1,2.7E-3,-9.8666656E-1,3.2E1,5.012418E-1,-1.9262524E0,-1.0748963E0,1.5044658E-1,2.36E1,-5.5239326E-1,7.138672E-3,1.0212E3,-2.354841E-1,9.9751717E-1,5.5E1,-2.5881904E-1,8.9E-3,1.021E3,2.26E1,1.7904565E0,7.6757795E-1,7.2E1,1.3E1,-2.344914E-1,2.36E1,5.2E1,6.259648E-1,-1.9218515E0,-5.5554837E-1,-1.1137743E0,-3.9945745E-1,-8.630035E-1,-1.2053239E0,-2.7733788E-1,-4.1717682E-2,-8.300926E-1,-1.9915695E-1,-1.3523118E-1,2.705734E-1,4.5748726E-1,-2.5552318E-1,1.8376426E-1,7.423606E-1,-5.619291E-1,3.8917616E-1,5.517177E-1,5.9396055E-2,8.117366E-1,-5.322357E-2,1.6165555E0,1.1416737E0,1.979544E-1,9.681204E-1,3.816223E-2,-1.0957255E-1,6.401781E-1,2.2532947E0],"split_indices":[12,12,12,12,12,12,12,15,9,8,11,13,10,15,7,0,13,0,0,15,9,15,0,16,10,0,7,1,0,11,0,0,0,7,13,3,2,0,10,0,0,12,0,11,9,0,12,11,0,2,0,0,0,0,0,15,0,12,9,0,0,0,0,0,0,2,0,0,12,8,14,2,0,0,0,1,3,10,0,1,0,0,0,0,0,0,0,0,0,0,0,0,0,0,0,0,0,0,0,0,0,0,0,0,0,0,0,0,0,0,0],"split_type":[0,0,0,0,0,0,0,0,0,0,0,0,0,0,0,0,0,0,0,0,0,0,0,0,0,0,0,0,0,0,0,0,0,0,0,0,0,0,0,0,0,0,0,0,0,0,0,0,0,0,0,0,0,0,0,0,0,0,0,0,0,0,0,0,0,0,0,0,0,0,0,0,0,0,0,0,0,0,0,0,0,0,0,0,0,0,0,0,0,0,0,0,0,0,0,0,0,0,0,0,0,0,0,0,0,0,0,0,0,0,0],"sum_hessian":[4.85E2,3.09E2,1.76E2,1.75E2,1.34E2,1.21E2,5.5E1,7.8E1,9.7E1,3.7E1,9.7E1,5.2E1,6.9E1,4E1,1.5E1,3E0,7.5E1,9.6E1,1E0,1.4E1,2.3E1,9.2E1,5E0,4.5E1,7E0,1E0,6.8E1,3.8E1,2E0,1.3E1,2E0,1E0,2E0,1.8E1,5.7E1,7.9E1,1.7E1,6E0,8E0,2.2E1,1E0,8.9E1,3E0,3.8E1,7E0,1E0,6E0,5.6E1,1.2E1,3.7E1,1E0,6E0,7E0,1.7E1,1E0,5.2E1,5E0,1.6E1,6.3E1,5E0,1.2E1,2E0,4E0,7E0,1E0,2E1,2E0,3E0,8.6E1,7E0,3.1E1,4E0,3E0,3E0,3E0,5E0,5.1E1,9E0,3E0,3.6E1,1E0,5.1E1,1E0,5E0,1.1E1,2.3E1,4E1,3E0,1E0,1.9E1,1E0,5.7E1,2.9E1,3E0,4E0,3E0,2.8E1,3E0,1E0,2E0,1E0,4E0,1E0,1.5E1,3.6E1,1E0,8E0,1E0,2E0,1E0,3.5E1],"tree_param":{"num_deleted":"0","num_feature":"18","num_nodes":"111","size_leaf_vector":"1"}},{"base_weights":[7.6304555E-2,-9.884664E0,1.7521637E1,-1.5759977E1,-2.1517766E0,1.1462296E1,3.040946E1,-1.9572126E1,-1.2526102E1,-6.899617E0,-2.8882E-1,7.412836E0,1.4364568E1,2.4361925E1,4.4005676E1,-5.7443495E0,-2.0042376E1,-1.27697525E1,4.4432205E-1,-3.9930995E0,-8.428707E0,3.9487365E-1,-5.2215304E0,5.8141613E0,1.5678613E1,2.815133E0,1.3552773E1,2.4780384E1,3.049417E-1,4.896378E1,4.9594525E-1,6.821391E-1,-1.06749E0,-1.219502E0,-2.1268774E1,-1.3597749E1,-9.125685E0,-1.2421799E0,-5.689026E0,-8.908298E0,1.040747E-1,8.089729E-1,-6.719943E-1,-7.7515116E0,-1.292549E-1,6.514302E0,-1.2298515E0,9.61021E0,1.807137E0,1.4010544E1,2.6113758E0,2.5166382E1,3.8905898E-1,2.5778756E0,4.5992875E0,-2.1972116E1,-9.208887E-1,-1.3997906E1,-6.0771805E-1,-1.068133E1,-3.4563491E0,1.4242268E-1,-2.807222E0,-5.1372564E-1,6.85318E-3,-6.2191443E0,-1.0855092E1,1.1720827E1,2.601286E-1,-8.3089375E-1,-2.5203075E0,2.4676126E-1,-3.2999408E0,8.192239E-1,7.629911E0,-3.284615E-1,1.644813E-1,2.0805115E-1,8.393597E-1,1.4568605E1,6.0018296E0,-1.0372864E-1,5.734131E-1,1.2486414E0,2.6431295E1,-4.794629E-1,-1.7731317E0,-1.979478E0,-1.0662271E0,-3.7223586E-1,-9.3716604E-1,-4.894425E-1,9.957417E-2,-2.606977E-1,-4.004898E-2,-1.3137145E-1,-5.1887596E-1,-9.9634796E-1,-3.6343923E-1,1.0628396E0,2.8107283E-1,-1.0955767E-1,2.856039E-1,-2.5637227E-1,-1.8690795E-2,-4.339981E-2,-3.5259306E-1,2.9847142E-1,-4.2217508E-1,7.762888E-1,4.105862E-1,1.2654248E0,9.1487485E-1,5.6152135E-1,3.663574E-2,6.145709E-1,2.1421714E0],"categories":[],"categories_nodes":[],"categories_segments":[],"categories_sizes":[],"default_left":[0,0,0,0,0,0,0,0,0,0,0,0,0,0,0,0,0,0,0,0,0,0,0,0,0,0,0,0,0,0,0,0,0,0,0,0,0,0,0,0,0,0,0,0,0,0,0,0,0,0,0,0,0,0,0,0,0,0,0,0,0,0,0,0,0,0,0,0,0,0,0,0,0,0,0,0,0,0,0,0,0,0,0,0,0,0,0,0,0,0,0,0,0,0,0,0,0,0,0,0,0,0,0,0,0,0,0,0,0,0,0,0,0,0,0,0,0],"id":4,"left_children":[1,3,5,7,9,11,13,15,17,19,21,23,25,27,29,31,33,35,-1,37,39,41,43,45,47,-1,49,51,-1,53,-1,-1,-1,-1,55,57,59,61,63,65,-1,67,-1,69,71,73,75,77,-1,79,81,83,-1,-1,-1,85,-1,87,-1,89,91,-1,93,-1,-1,95,97,99,101,-1,103,-1,105,107,109,-1,-1,-1,-1,111,113,-1,-1,-1,115,-1,-1,-1,-1,-1,-1,-1,-1,-1,-1,-1,-1,-1,-1,-1,-1,-1,-1,-1,-1,-1,-1,-1,-1,-1,-1,-1,-1,-1,-1,-1,-1],"loss_changes":[8.462659E4,1.4050359E4,1.3473668E4,1.9245703E3,1.1920852E3,1.3273398E3,3.532457E3,3.9856836E2,5.0263672E2,1.3522766E2,3.325632E2,6.091992E2,7.06458E2,2.581172E2,2.695621E3,5.475774E2,1.2304297E2,1.6858594E2,0E0,6.291356E1,1.23578735E2,3.2364246E2,1.5359839E2,2.3487427E2,1.1840344E2,0E0,3.0900977E2,1.851289E2,0E0,1.459414E2,0E0,0E0,0E0,0E0,1.4513086E2,7.8578125E1,1.4829053E2,3.8109627E1,3.862207E1,5.290088E1,0E0,5.0001947E2,0E0,8.408325E1,6.1128006E1,2.6059558E2,5.5690945E1,9.799744E0,0E0,2.0753906E2,8.051724E1,5.8990234E1,0E0,0E0,0E0,2.9789062E1,0E0,1.8144043E2,0E0,4.5153442E1,8.26908E1,0E0,3.5758095E0,0E0,0E0,4.003174E0,6.455615E1,4.6901245E0,4.4179047E2,0E0,5.5107803E0,0E0,6.7703667E0,1.6169452E2,1.3147119E2,0E0,0E0,0E0,0E0,5.7823242E1,3.0620682E1,0E0,0E0,0E0,8.277344E0,0E0,0E0,0E0,0E0,0E0,0E0,0E0,0E0,0E0,0E0,0E0,0E0,0E0,0E0,0E0,0E0,0E0,0E0,0E0,0E0,0E0,0E0,0E0,0E0,0E0,0E0,0E0,0E0,0E0,0E0,0E0,0E0],"parents":[2147483647,0,0,1,1,2,2,3,3,4,4,5,5,6,6,7,7,8,8,9,9,10,10,11,11,12,12,13,13,14,14,15,15,16,16,17,17,19,19,20,20,21,21,22,22,23,23,24,24,26,26,27,27,29,29,34,34,35,35,36,36,37,37,38,38,39,39,41,41,43,43,44,44,45,45,46,46,47,47,49,49,50,50,51,51,55,55,57,57,59,59,60,60,62,62,65,65,66,66,67,67,68,68,70,70,72,72,73,73,74,74,79,79,80,80,84,84],"right_children":[2,4,6,8,10,12,14,16,18,20,22,24,26,28,30,32,34,36,-1,38,40,42,44,46,48,-1,50,52,-1,54,-1,-1,-1,-1,56,58,60,62,64,66,-1,68,-1,70,72,74,76,78,-1,80,82,84,-1,-1,-1,86,-1,88,-1,90,92,-1,94,-1,-1,96,98,100,102,-1,104,-1,106,108,110,-1,-1,-1,-1,112,114,-1,-1,-1,116,-1,-1,-1,-1,-1,-1,-1,-1,-1,-1,-1,-1,-1,-1,-1,-1,-1,-1,-1,-1,-1,-1,-1,-1,-1,-1,-1,-1,-1,-1,-1,-1],"split_conditions":[6E1,4.2E1,8.4E1,3E1,4.5E1,6.7E1,1.04E2,6E-4,9.9999076E-1,-2.5881904E-1,3.5E1,5.77E-2,-5.197438E-1,8.5E-1,9.659258E-1,2.21E1,1.83E-2,4E1,4.4432205E-1,1.1E-3,9.9421793E-1,2.4E-3,2.5881904E-1,2.68E-2,6.51899E-1,2.815133E0,2.44E1,8.8E1,3.049417E-1,4.6E1,4.9594525E-1,6.821391E-1,-1.06749E0,-1.219502E0,5.91E-2,9.7110003E-1,1.0201E3,2.14E1,-1.159346E-1,1.4E-3,1.040747E-1,4.6E1,-6.719943E-1,1.018E3,2E0,2.3E1,2E0,-2.0089056E-1,1.807137E0,9.659258E-1,1.0175E3,-9.3383723E-1,3.8905898E-1,2.5778756E0,4.5992875E0,2.3E-3,-9.208887E-1,7E-4,-6.0771805E-1,-4.171936E-1,1.96E1,1.4242268E-1,2.36E1,-5.1372564E-1,6.85318E-3,1.0148E3,2.28E-2,7.5E1,5.5E1,-8.3089375E-1,9.7E1,2.4676126E-1,2.07E1,2.29E1,7.4E1,-3.284615E-1,1.644813E-1,2.0805115E-1,8.393597E-1,4.2E1,2.33E1,-1.0372864E-1,5.734131E-1,1.2486414E0,5.2E1,-4.794629E-1,-1.7731317E0,-1.979478E0,-1.0662271E0,-3.7223586E-1,-9.3716604E-1,-4.894425E-1,9.957417E-2,-2.606977E-1,-4.004898E-2,-1.3137145E-1,-5.1887596E-1,-9.9634796E-1,-3.6343923E-1,1.0628396E0,2.8107283E-1,-1.0955767E-1,2.856039E-1,-2.5637227E-1,-1.8690795E-2,-4.339981E-2,-3.5259306E-1,2.9847142E-1,-4.2217508E-1,7.762888E-1,4.105862E-1,1.2654248E0,9.1487485E-1,5.6152135E-1,3.663574E-2,6.145709E-1,2.1421714E0],"split_indices":[12,12,12,12,12,12,12,15,9,8,11,13,10,16,7,0,13,12,0,15,9,15,8,14,10,0,0,1,0,11,0,0,0,0,13,10,2,0,10,15,0,12,0,2,4,11,4,10,0,7,2,9,0,0,0,14,0,15,0,9,0,0,0,0,0,2,14,1,12,0,1,0,0,0,1,0,0,0,0,11,0,0,0,0,1,0,0,0,0,0,0,0,0,0,0,0,0,0,0,0,0,0,0,0,0,0,0,0,0,0,0,0,0,0,0,0,0],"split_type":[0,0,0,0,0,0,0,0,0,0,0,0,0,0,0,0,0,0,0,0,0,0,0,0,0,0,0,0,0,0,0,0,0,0,0,0,0,0,0,0,0,0,0,0,0,0,0,0,0,0,0,0,0,0,0,0,0,0,0,0,0,0,0,0,0,0,0,0,0,0,0,0,0,0,0,0,0,0,0,0,0,0,0,0,0,0,0,0,0,0,0,0,0,0,0,0,0,0,0,0,0,0,0,0,0,0,0,0,0,0,0,0,0,0,0,0,0],"sum_hessian":[4.85E2,3.09E2,1.76E2,1.75E2,1.34E2,1.21E2,5.5E1,7.8E1,9.7E1,3.7E1,9.7E1,5.2E1,6.9E1,4E1,1.5E1,3E0,7.5E1,9.6E1,1E0,1.4E1,2.3E1,8.6E1,1.1E1,4.5E1,7E0,1E0,6.8E1,3.9E1,1E0,1.3E1,2E0,1E0,2E0,1.8E1,5.7E1,7.6E1,2E1,6E0,8E0,2.2E1,1E0,8.3E1,3E0,7E0,4E0,4.1E1,4E0,5E0,2E0,6.5E1,3E0,3.8E1,1E0,6E0,7E0,5.2E1,5E0,7E1,6E0,1.5E1,5E0,2E0,4E0,7E0,1E0,1.1E1,1.1E1,3E0,8E1,4E0,3E0,2E0,2E0,7E0,3.4E1,2E0,2E0,1E0,4E0,6E1,5E0,2E0,1E0,6E0,3.2E1,1E0,5.1E1,2E0,6.8E1,3E0,1.2E1,3E0,2E0,3E0,1E0,1E0,1E1,8E0,3E0,2E0,1E0,5.4E1,2.6E1,2E0,1E0,1E0,1E0,5E0,2E0,1.7E1,1.7E1,4E1,2E1,4E0,1E0,1E0,3.1E1],"tree_param":{"num_deleted":"0","num_feature":"18","num_nodes":"117","size_leaf_vector":"1"}},{"base_weights":[8.9797564E-2,-9.134746E0,1.624527E1,-1.4554217E1,-2.001696E0,1.0625779E1,2.819764E1,-1.8066841E1,-1.15741E1,-6.4153104E0,-2.698692E-1,7.9320183E0,1.4477055E1,2.2527588E1,4.0964794E1,-5.3811398E0,-1.8496788E1,-1.1803355E1,4.2654923E-1,-3.7179983E0,-7.8338256E0,3.7303108E-1,-4.908407E0,9.516849E0,2.8434637E0,2.7025278E0,1.3371094E1,2.2907812E1,2.9274398E-1,4.555933E1,4.6949482E-1,6.548535E-1,-1.0105572E0,-1.8377179E0,-1.6818125E1,-1.0825636E1,-1.5493035E1,-1.1654233E0,-5.2902236E0,-8.283027E0,9.991165E-2,7.623505E-1,-6.316747E-1,-7.269635E0,-1.4876099E-1,4.39089E0,1.0964443E1,6.5051913E0,-1.1026103E0,1.4411558E1,7.2611256E0,2.3255772E1,3.7349668E-1,2.4011073E0,4.2773376E0,-7.3336067E0,-1.7195267E1,-8.248007E0,-1.2129621E1,-1.7162979E0,-9.240141E-1,1.3482685E-1,-2.6427941E0,-4.7776484E-1,6.5789795E-3,-5.7758007E0,-1.0099999E1,1.1119139E1,2.4149242E-1,-7.777165E-1,-2.3874493E0,2.3360066E-1,-3.1679432E0,6.6894503E0,1.8307886E0,1.4593192E1,7.1745234E0,7.8142023E0,8.460986E-1,-6.0025835E-1,1.4354482E0,1.510037E1,5.255841E-1,-3.7338972E-1,9.335609E0,1.4537752E1,1.9520261E0,-7.447628E-1,-5.623291E-2,-1.0296112E0,-1.500046E0,-8.538296E-1,-3.7715092E-1,-1.2901889E0,-8.7111807E-1,-2.4505591E-1,-3.844696E-2,-1.2611663E-1,-4.8113954E-1,-9.254964E-1,-3.41633E-1,1.0061549E0,2.6982987E-1,-1.0095237E-1,2.636019E-1,-2.4269918E-1,-1.7943114E-2,-4.1663818E-2,-3.3848938E-1,5.899959E-1,1.03058316E-1,-2.4654115E-2,3.2374382E-1,1.2850554E0,3.463916E-1,2.3602226E-1,7.07059E-1,6.735676E-1,1.4305831E-1,1.1847351E-1,-1.694168E-2,3.0858627E-1,-3.109436E-1,1.3706288E0,8.890156E-1,8.802978E-1,-9.364731E-2,3.480946E-1,1.2408253E0],"categories":[],"categories_nodes":[],"categories_segments":[],"categories_sizes":[],"default_left":[0,0,0,0,0,0,0,0,0,0,0,0,0,0,0,0,0,0,0,0,0,0,0,0,0,0,0,0,0,0,0,0,0,0,0,0,0,0,0,0,0,0,0,0,0,0,0,0,0,0,0,0,0,0,0,0,0,0,0,0,0,0,0,0,0,0,0,0,0,0,0,0,0,0,0,0,0,0,0,0,0,0,0,0,0,0,0,0,0,0,0,0,0,0,0,0,0,0,0,0,0,0,0,0,0,0,0,0,0,0,0,0,0,0,0,0,0,0,0,0,0,0,0,0,0,0,0,0,0],"id":5,"left_children":[1,3,5,7,9,11,13,15,17,19,21,23,25,27,29,31,33,35,-1,37,39,41,43,45,47,-1,49,51,-1,53,-1,-1,-1,-1,55,57,59,61,63,65,-1,67,-1,69,71,73,75,77,79,81,83,85,-1,-1,-1,87,89,91,93,-1,-1,-1,95,-1,-1,97,99,101,103,-1,105,-1,107,109,111,113,115,117,119,-1,121,123,-1,-1,125,127,-1,-1,-1,-1,-1,-1,-1,-1,-1,-1,-1,-1,-1,-1,-1,-1,-1,-1,-1,-1,-1,-1,-1,-1,-1,-1,-1,-1,-1,-1,-1,-1,-1,-1,-1,-1,-1,-1,-1,-1,-1,-1,-1],"loss_changes":[7.2575445E4,1.195465E4,1.1588797E4,1.6332656E3,1.0301569E3,1.1508467E3,3.1310312E3,3.313457E2,4.4276172E2,1.16268555E2,2.940785E2,5.697119E2,5.9445703E2,2.1031445E2,2.3126328E3,4.9688336E2,1.8453711E2,1.8220312E2,0E0,5.4032974E1,1.08263916E2,2.8609586E2,1.3378189E2,3.6739404E2,2.8171222E2,0E0,2.0050195E2,1.4528516E2,0E0,1.16197266E2,0E0,0E0,0E0,0E0,8.493945E1,1.6884961E2,1.7524414E2,3.393539E1,3.345941E1,4.6442383E1,0E0,4.5044583E2,0E0,7.255252E1,5.5576294E1,7.013669E1,4.8666553E2,6.746655E1,1.7322195E2,1.16853516E2,2.6628204E2,3.442383E1,0E0,0E0,0E0,4.5863327E1,1.3538477E2,2.0674048E2,7.733887E1,0E0,0E0,0E0,3.0728798E0,0E0,0E0,2.5344849E0,5.3340088E1,2.7495422E0,3.7600232E2,0E0,4.911686E0,0E0,6.2395725E0,1.6417114E1,3.9166855E1,2.4727637E2,1.3556738E2,1.4128479E1,2.328287E0,0E0,1.18111336E2,1.01384766E2,0E0,0E0,1.5308508E2,1.8614502E0,0E0,0E0,0E0,0E0,0E0,0E0,0E0,0E0,0E0,0E0,0E0,0E0,0E0,0E0,0E0,0E0,0E0,0E0,0E0,0E0,0E0,0E0,0E0,0E0,0E0,0E0,0E0,0E0,0E0,0E0,0E0,0E0,0E0,0E0,0E0,0E0,0E0,0E0,0E0,0E0,0E0,0E0,0E0],"parents":[2147483647,0,0,1,1,2,2,3,3,4,4,5,5,6,6,7,7,8,8,9,9,10,10,11,11,12,12,13,13,14,14,15,15,16,16,17,17,19,19,20,20,21,21,22,22,23,23,24,24,26,26,27,27,29,29,34,34,35,35,36,36,37,37,38,38,39,39,41,41,43,43,44,44,45,45,46,46,47,47,48,48,49,49,50,50,51,51,55,55,56,56,57,57,58,58,62,62,65,65,66,66,67,67,68,68,70,70,72,72,73,73,74,74,75,75,76,76,77,77,78,78,80,80,81,81,84,84,85,85],"right_children":[2,4,6,8,10,12,14,16,18,20,22,24,26,28,30,32,34,36,-1,38,40,42,44,46,48,-1,50,52,-1,54,-1,-1,-1,-1,56,58,60,62,64,66,-1,68,-1,70,72,74,76,78,80,82,84,86,-1,-1,-1,88,90,92,94,-1,-1,-1,96,-1,-1,98,100,102,104,-1,106,-1,108,110,112,114,116,118,120,-1,122,124,-1,-1,126,128,-1,-1,-1,-1,-1,-1,-1,-1,-1,-1,-1,-1,-1,-1,-1,-1,-1,-1,-1,-1,-1,-1,-1,-1,-1,-1,-1,-1,-1,-1,-1,-1,-1,-1,-1,-1,-1,-1,-1,-1,-1,-1,-1],"split_conditions":[6E1,4.2E1,8.4E1,3E1,4.5E1,7E1,1.04E2,6E-4,9.9999076E-1,-2.5881904E-1,3.5E1,1.56E-2,-5.197438E-1,8.5E-1,9.659258E-1,2.21E1,1E0,2.47E1,4.2654923E-1,1.1E-3,9.9421793E-1,2.4E-3,2.5881904E-1,2.7609697E-1,1.8822671E-1,2.7025278E0,4.7E1,8.8E1,2.9274398E-1,4.6E1,4.6949482E-1,6.548535E-1,-1.0105572E0,-1.8377179E0,7E0,5.012418E-1,1.0109E3,2.14E1,-1.159346E-1,1.4E-3,9.991165E-2,4.6E1,-6.316747E-1,1.018E3,2E0,-2.5881904E-1,2.5881904E-1,8.1E1,2.06E-2,9.659258E-1,-8.660254E-1,-9.3383723E-1,3.7349668E-1,2.4011073E0,4.2773376E0,2.21E1,2.11E-2,1.0171E3,8.800122E-1,-1.7162979E0,-9.240141E-1,1.3482685E-1,2.36E1,-4.7776484E-1,6.5789795E-3,1.0148E3,2.28E-2,7.5E1,5.5E1,-7.777165E-1,9.7E1,2.3360066E-1,2.07E1,8.1E1,1.5E-3,4E1,3.7E1,2.14E1,1.94E1,-6.0025835E-1,2.74E-2,7.6E1,5.255841E-1,-3.7338972E-1,2.27E1,1.0202E3,1.9520261E0,-7.447628E-1,-5.623291E-2,-1.0296112E0,-1.500046E0,-8.538296E-1,-3.7715092E-1,-1.2901889E0,-8.7111807E-1,-2.4505591E-1,-3.844696E-2,-1.2611663E-1,-4.8113954E-1,-9.254964E-1,-3.41633E-1,1.0061549E0,2.6982987E-1,-1.0095237E-1,2.636019E-1,-2.4269918E-1,-1.7943114E-2,-4.1663818E-2,-3.3848938E-1,5.899959E-1,1.03058316E-1,-2.4654115E-2,3.2374382E-1,1.2850554E0,3.463916E-1,2.3602226E-1,7.07059E-1,6.735676E-1,1.4305831E-1,1.1847351E-1,-1.694168E-2,3.0858627E-1,-3.109436E-1,1.3706288E0,8.890156E-1,8.802978E-1,-9.364731E-2,3.480946E-1,1.2408253E0],"split_indices":[12,12,12,12,12,12,12,15,9,8,11,14,10,16,7,0,4,0,0,15,9,15,8,10,9,0,11,1,0,11,0,0,0,0,11,9,2,0,10,15,0,12,0,2,4,8,8,1,14,7,7,9,0,0,0,0,13,2,9,0,0,0,0,0,0,2,14,1,12,0,1,0,0,1,15,11,11,0,0,0,14,1,0,0,0,2,0,0,0,0,0,0,0,0,0,0,0,0,0,0,0,0,0,0,0,0,0,0,0,0,0,0,0,0,0,0,0,0,0,0,0,0,0,0,0,0,0,0,0],"split_type":[0,0,0,0,0,0,0,0,0,0,0,0,0,0,0,0,0,0,0,0,0,0,0,0,0,0,0,0,0,0,0,0,0,0,0,0,0,0,0,0,0,0,0,0,0,0,0,0,0,0,0,0,0,0,0,0,0,0,0,0,0,0,0,0,0,0,0,0,0,0,0,0,0,0,0,0,0,0,0,0,0,0,0,0,0,0,0,0,0,0,0,0,0,0,0,0,0,0,0,0,0,0,0,0,0,0,0,0,0,0,0,0,0,0,0,0,0,0,0,0,0,0,0,0,0,0,0,0,0],"sum_hessian":[4.85E2,3.09E2,1.76E2,1.75E2,1.34E2,1.21E2,5.5E1,7.8E1,9.7E1,3.7E1,9.7E1,7.3E1,4.8E1,4E1,1.5E1,3E0,7.5E1,9.6E1,1E0,1.4E1,2.3E1,8.6E1,1.1E1,5.5E1,1.8E1,1E0,4.7E1,3.9E1,1E0,1.3E1,2E0,1E0,2E0,1.7E1,5.8E1,7.9E1,1.7E1,6E0,8E0,2.2E1,1E0,8.3E1,3E0,7E0,4E0,1.3E1,4.2E1,9E0,9E0,3.9E1,8E0,3.8E1,1E0,6E0,7E0,3E0,5.5E1,2.9E1,5E1,5E0,1.2E1,2E0,4E0,7E0,1E0,1.1E1,1.1E1,3E0,8E1,4E0,3E0,2E0,2E0,6E0,7E0,2E1,2.2E1,7E0,2E0,2E0,7E0,3.5E1,4E0,1E0,7E0,6E0,3.2E1,2E0,1E0,1.7E1,3.8E1,1.6E1,1.3E1,9E0,4.1E1,3E0,1E0,1E0,1E1,8E0,3E0,2E0,1E0,5.4E1,2.6E1,2E0,1E0,1E0,1E0,5E0,1E0,4E0,3E0,1.7E1,3E0,7E0,1.5E1,6E0,1E0,1E0,1E0,5E0,2E0,2.1E1,1.4E1,6E0,1E0,1E0,5E0],"tree_param":{"num_deleted":"0","num_feature":"18","num_nodes":"129","size_leaf_vector":"1"}},{"base_weights":[9.7502224E-2,-8.448813E0,1.5065074E1,-1.3798266E1,-2.266344E0,9.8559065E0,2.6144598E1,-1.6929806E1,-1.1219536E1,-6.7731023E0,-4.245154E-1,1.362821E1,7.3102207E0,2.0827995E1,3.8134357E1,-5.0395756E0,-1.7367393E1,-1.1450253E1,4.094873E-1,-5.288761E0,-9.9363667E-1,4.2210788E-1,-3.599298E0,1.1544596E1,2.6289413E1,1.1180106E1,4.9004908E0,2.1173048E1,2.8103423E-1,4.2391617E1,4.4445515E-1,6.2865937E-1,-9.56661E-1,-1.9013618E1,-1.3419893E1,-6.5951395E0,-1.189193E1,-6.018807E0,-2.0725055E0,9.497808E-1,-6.507992E0,-4.646001E0,2.2723646E0,5.9685764E0,1.3053432E1,2.5302892E0,-1.6264038E-2,8.528634E0,1.7916147E1,6.2208376E0,-7.389103E-1,2.1486103E1,3.585568E-1,2.0981162E0,3.876657E0,-3.8416228E-1,-1.9218174E1,-1.2534034E0,-6.966148E0,-2.9601817E0,-9.0460247E-1,-1.5136081E1,-1.0641632E1,-6.33289E0,-2.5510855E0,1.2595926E-1,-3.550586E0,-2.2166915E0,2.233336E0,-6.086426E-1,-2.2975524E-1,2.8285676E-1,-5.97922E0,3.393274E-1,2.0209122E-1,7.232164E0,1.8828964E-1,1.3518447E1,3.1177124E-1,1.6471825E0,9.13442E0,1.5490324E0,3.6942366E-1,-1.0674788E0,7.324045E0,4.8113585E0,-3.8049338E0,8.5869384E-1,2.208398E1,-4.002826E-1,-1.5538292E0,-7.3620635E-1,-1.3698831E-2,-1.5534261E-2,-3.2221976E-1,-8.147898E-1,-1.5651138E0,-1.2553222E-1,-8.608585E-1,-1.5934265E-1,-5.299023E-1,-3.3765063E-1,9.8302305E-2,-3.4338257E-1,6.3157654E-3,2.8434944E-1,-3.5700932E-1,6.1626542E-2,5.610598E-1,-1.3403015E-1,3.2463163E-1,-5.4891276E-1,-1.4702766E-1,4.6415098E-2,-2.2164153E-2,2.236318E-1,6.480375E-1,1.1776306E-1,-9.51683E-2,1.1030564E0,2.1702759E-1,1.736174E-1,2.4044493E-2,7.48932E-1,1.9268158E-1,1.2151458E-1,-3.3281603E-1,6.607436E-1,1.9818846E-2,6.671661E-2,4.6873382E-1,3.0832472E-1,-4.5790204E-1,5.1190704E-1,1.7879443E0],"categories":[],"categories_nodes":[],"categories_segments":[],"categories_sizes":[],"default_left":[0,0,0,0,0,0,0,0,0,0,0,0,0,0,0,0,0,0,0,0,0,0,0,0,0,0,0,0,0,0,0,0,0,0,0,0,0,0,0,0,0,0,0,0,0,0,0,0,0,0,0,0,0,0,0,0,0,0,0,0,0,0,0,0,0,0,0,0,0,0,0,0,0,0,0,0,0,0,0,0,0,0,0,0,0,0,0,0,0,0,0,0,0,0,0,0,0,0,0,0,0,0,0,0,0,0,0,0,0,0,0,0,0,0,0,0,0,0,0,0,0,0,0,0,0,0,0,0,0,0,0,0,0,0,0],"id":6,"left_children":[1,3,5,7,9,11,13,15,17,19,21,23,25,27,29,31,33,35,-1,37,-1,39,41,43,45,47,49,51,-1,53,-1,-1,-1,55,57,59,61,63,65,67,69,71,73,75,77,-1,-1,79,81,83,85,87,-1,-1,-1,-1,89,-1,91,93,-1,95,97,99,101,-1,103,105,107,-1,-1,109,111,-1,113,115,117,119,-1,121,123,-1,-1,125,127,129,131,-1,133,-1,-1,-1,-1,-1,-1,-1,-1,-1,-1,-1,-1,-1,-1,-1,-1,-1,-1,-1,-1,-1,-1,-1,-1,-1,-1,-1,-1,-1,-1,-1,-1,-1,-1,-1,-1,-1,-1,-1,-1,-1,-1,-1,-1,-1,-1],"loss_changes":[6.229523E4,1.0221305E4,9.957895E3,1.1505703E3,1.2007229E3,1.0719531E3,2.7754453E3,2.9229688E2,4.1294238E2,2.863805E2,2.8105518E2,9.62791E2,6.4461523E2,1.7057812E2,1.9836211E3,4.5091473E2,1.9973242E2,1.21E2,0E0,6.970648E1,0E0,3.0969772E2,1.4576688E2,2.8386133E2,8.551299E2,3.472915E2,3.6200293E2,1.12708984E2,0E0,1.0205859E2,0E0,0E0,0E0,4.4345703E1,2.389961E2,1.378211E2,1.7964355E2,1.4340454E1,4.87148E1,3.2196927E2,2.149002E0,1.2654495E2,1.5450172E1,7.898111E1,8.782422E1,0E0,0E0,7.666516E1,4.5262695E1,3.2139868E2,1.8847945E2,1.3677734E1,0E0,0E0,0E0,0E0,3.6658203E1,0E0,1.19994995E2,1.9888134E1,0E0,2.6113037E2,5.2269043E1,1.8376282E1,3.042888E1,0E0,1.6490921E1,3.1397324E2,3.8620712E2,0E0,0E0,4.3760544E1,4.2191895E1,0E0,7.042309E-1,1.2028198E1,7.0577483E0,5.2956543E1,0E0,1.4607258E0,8.018921E0,0E0,0E0,5.4313366E1,2.2296997E2,1.1784004E1,1.24934555E2,0E0,6.8085938E0,0E0,0E0,0E0,0E0,0E0,0E0,0E0,0E0,0E0,0E0,0E0,0E0,0E0,0E0,0E0,0E0,0E0,0E0,0E0,0E0,0E0,0E0,0E0,0E0,0E0,0E0,0E0,0E0,0E0,0E0,0E0,0E0,0E0,0E0,0E0,0E0,0E0,0E0,0E0,0E0,0E0,0E0,0E0,0E0,0E0,0E0],"parents":[2147483647,0,0,1,1,2,2,3,3,4,4,5,5,6,6,7,7,8,8,9,9,10,10,11,11,12,12,13,13,14,14,15,15,16,16,17,17,19,19,21,21,22,22,23,23,24,24,25,25,26,26,27,27,29,29,33,33,34,34,35,35,36,36,37,37,38,38,39,39,40,40,41,41,42,42,43,43,44,44,47,47,48,48,49,49,50,50,51,51,56,56,58,58,59,59,61,61,62,62,63,63,64,64,66,66,67,67,68,68,71,71,72,72,74,74,75,75,76,76,77,77,79,79,80,80,83,83,84,84,85,85,86,86,88,88],"right_children":[2,4,6,8,10,12,14,16,18,20,22,24,26,28,30,32,34,36,-1,38,-1,40,42,44,46,48,50,52,-1,54,-1,-1,-1,56,58,60,62,64,66,68,70,72,74,76,78,-1,-1,80,82,84,86,88,-1,-1,-1,-1,90,-1,92,94,-1,96,98,100,102,-1,104,106,108,-1,-1,110,112,-1,114,116,118,120,-1,122,124,-1,-1,126,128,130,132,-1,134,-1,-1,-1,-1,-1,-1,-1,-1,-1,-1,-1,-1,-1,-1,-1,-1,-1,-1,-1,-1,-1,-1,-1,-1,-1,-1,-1,-1,-1,-1,-1,-1,-1,-1,-1,-1,-1,-1,-1,-1,-1,-1,-1,-1,-1,-1],"split_conditions":[6E1,4.1E1,8.4E1,2.9E1,4.4E1,-5.947267E-1,1.04E2,6E-4,9.9999076E-1,2.1E-3,8.311706E-1,-8.4524906E-1,1.1E-3,8.5E-1,9.659258E-1,2.21E1,7.9094565E-1,-4.0148798E-1,4.094873E-1,9.307239E-1,-9.9363667E-1,3.8E1,7.0710677E-1,1.16E-2,8.1E1,7.3E1,8.660254E-1,8.8E1,2.8103423E-1,4.5E1,4.4445515E-1,6.2865937E-1,-9.56661E-1,1E0,2.06E1,8.5E1,-4.7495106E-1,1.0201E3,4E0,7E1,1.018E3,8E-4,5.7E1,1.0215E3,9.659258E-1,2.5302892E0,-1.6264038E-2,1.97E1,1.0221E3,1.75E-2,1.4E-3,-9.587178E-1,3.585568E-1,2.0981162E0,3.876657E0,-3.8416228E-1,2.3E-3,-1.2534034E0,7E1,1.94E1,-9.0460247E-1,8.59648E-2,2.8E-3,1.1E1,2.02E1,1.2595926E-1,1.4E-3,5.9E1,4.93E-2,-6.086426E-1,-2.2975524E-1,1.0174E3,1.0197E3,3.393274E-1,2.11E1,1.9E1,1.96E1,8.2E1,3.1177124E-1,1.93E1,8.4524906E-1,1.5490324E0,3.6942366E-1,2.2192152E-1,2.4E1,5.9E1,6.3E1,8.5869384E-1,5.2E1,-4.002826E-1,-1.5538292E0,-7.3620635E-1,-1.3698831E-2,-1.5534261E-2,-3.2221976E-1,-8.147898E-1,-1.5651138E0,-1.2553222E-1,-8.608585E-1,-1.5934265E-1,-5.299023E-1,-3.3765063E-1,9.8302305E-2,-3.4338257E-1,6.3157654E-3,2.8434944E-1,-3.5700932E-1,6.1626542E-2,5.610598E-1,-1.3403015E-1,3.2463163E-1,-5.4891276E-1,-1.4702766E-1,4.6415098E-2,-2.2164153E-2,2.236318E-1,6.480375E-1,1.1776306E-1,-9.51683E-2,1.1030564E0,2.1702759E-1,1.736174E-1,2.4044493E-2,7.48932E-1,1.9268158E-1,1.2151458E-1,-3.3281603E-1,6.607436E-1,1.9818846E-2,6.671661E-2,4.6873382E-1,3.0832472E-1,-4.5790204E-1,5.1190704E-1,1.7879443E0],"split_indices":[12,12,12,12,12,9,12,15,9,15,9,9,15,16,7,0,9,9,0,9,0,11,8,14,1,12,8,1,0,11,0,0,0,3,0,1,10,2,3,1,2,15,1,2,7,0,0,0,2,13,15,9,0,0,0,0,14,0,1,0,0,9,14,11,0,0,15,1,13,0,0,2,2,0,0,0,0,12,0,0,9,0,0,9,0,1,12,0,1,0,0,0,0,0,0,0,0,0,0,0,0,0,0,0,0,0,0,0,0,0,0,0,0,0,0,0,0,0,0,0,0,0,0,0,0,0,0,0,0,0,0,0,0,0,0],"split_type":[0,0,0,0,0,0,0,0,0,0,0,0,0,0,0,0,0,0,0,0,0,0,0,0,0,0,0,0,0,0,0,0,0,0,0,0,0,0,0,0,0,0,0,0,0,0,0,0,0,0,0,0,0,0,0,0,0,0,0,0,0,0,0,0,0,0,0,0,0,0,0,0,0,0,0,0,0,0,0,0,0,0,0,0,0,0,0,0,0,0,0,0,0,0,0,0,0,0,0,0,0,0,0,0,0,0,0,0,0,0,0,0,0,0,0,0,0,0,0,0,0,0,0,0,0,0,0,0,0,0,0,0,0,0,0],"sum_hessian":[4.85E2,3.09E2,1.76E2,1.65E2,1.44E2,1.21E2,5.5E1,7.2E1,9.3E1,4.1E1,1.03E2,4.7E1,7.4E1,4E1,1.5E1,3E0,6.9E1,9.2E1,1E0,3.4E1,7E0,8.2E1,2.1E1,4.2E1,5E0,2.7E1,4.7E1,3.9E1,1E0,1.3E1,2E0,1E0,2E0,4.6E1,2.3E1,9E0,8.3E1,2.7E1,7E0,7.7E1,5E0,1.8E1,3E0,1E1,3.2E1,4E0,1E0,2.1E1,6E0,3.8E1,9E0,3.8E1,1E0,5E0,8E0,1E0,4.5E1,1.6E1,7E0,6E0,3E0,2E1,6.3E1,2.4E1,3E0,2E0,5E0,2.2E1,5.5E1,3E0,2E0,4E0,1.4E1,1E0,2E0,8E0,2E0,3E1,2E0,2E0,1.9E1,5E0,1E0,5E0,3.3E1,3E0,6E0,3E0,3.5E1,1E0,4.4E1,5E0,2E0,2E0,4E0,1.1E1,9E0,1E0,6.2E1,2E0,2.2E1,2E0,1E0,4E0,1E0,6E0,1.6E1,4.3E1,1.2E1,3E0,1E0,1.1E1,3E0,1E0,1E0,2E0,6E0,1E0,1E0,2.9E1,1E0,1E0,1E0,1.8E1,1E0,3E0,2E0,2.9E1,4E0,1E0,2E0,1E0,5E0,1E0,3.4E1],"tree_param":{"num_deleted":"0","num_feature":"18","num_nodes":"135","size_leaf_vector":"1"}},{"base_weights":[1.0562453E-1,-7.809786E0,1.3968176E1,-1.2747831E1,-2.1027153E0,1.0174425E1,2.7131336E1,-1.5639388E1,-1.0366645E1,-6.2820473E0,-3.9468974E-1,7.15962E0,1.4514947E1,2.4334143E1,4.2069016E0,-4.7184095E0,-1.6040024E1,-1.0583788E1,3.9310774E-1,-4.898222E0,-9.240821E-1,3.8486546E-1,-3.3177984E0,1.0408385E1,5.4381275E0,1.6028667E1,8.275047E0,2.5655865E1,7.0159826E0,6.03513E-1,-9.05639E-1,-1.754228E1,-1.2429773E1,-1.129924E1,-7.4074244E0,-5.570465E0,-1.9330926E0,8.8085055E-1,-6.127085E0,-4.300918E0,2.18147E0,8.536246E0,1.385038E0,7.5415154E0,2.4441302E0,2.109248E1,1.3224731E1,-3.4514144E-1,9.683679E0,1.563049E1,2.9181831E1,1.355632E-1,6.57996E-1,-8.912082E-1,-1.838416E1,-1.1590296E0,-6.5025945E0,-1.1687928E1,-4.9461236E0,-9.392426E0,-4.929476E0,-2.4040127E0,-5.854279E0,1.1924153E-1,-3.3227165E0,-2.0425146E0,2.065789E0,-5.72124E-1,-2.1750161E-1,2.9834825E-1,-5.547279E0,3.2575423E-1,1.9400787E-1,9.233295E0,5.7913715E-1,3.0816245E0,9.346615E0,5.495788E0,-1.9394157E0,2.5550694E1,6.366046E-1,5.6376715E0,1.5202721E1,8.6161095E-1,-9.069412E-2,1.7991096E1,-3.1902283E-1,2.3768332E0,6.8097717E-1,-3.8427123E-1,-1.4887375E0,-6.871259E-1,-1.296824E-2,-2.4788025E-1,-9.518466E-1,-1.0012359E-1,-4.3477842E-1,-8.0546933E-1,-1.3235824E-1,-5.1502633E-1,-1.4655085E-1,8.251648E-2,-3.1143898E-1,-4.9719867E-1,-1.9254684E-1,-3.21406E-1,6.06308E-3,1.979444E-1,-3.6931506E-1,6.188288E-2,5.3916705E-1,-1.8793802E-1,2.277178E-1,-5.80521E-1,-2.5157088E-1,4.4558562E-2,-2.1277618E-2,7.7532506E-1,-1.5613403E-2,1.60858E-1,-9.136154E-2,3.2908148E-1,-2.8949264E-1,6.4048E-2,7.758943E-1,5.76012E-1,1.3913767E-1,1.3074226E-2,-4.5281988E-1,2.2460585E0,8.240289E-1,5.622162E-1,-1.6370209E-1,2.6596293E-1,1.2905153E0,2.626532E-1,1.5408412E0],"categories":[],"categories_nodes":[],"categories_segments":[],"categories_sizes":[],"default_left":[0,0,0,0,0,0,0,0,0,0,0,0,0,0,0,0,0,0,0,0,0,0,0,0,0,0,0,0,0,0,0,0,0,0,0,0,0,0,0,0,0,0,0,0,0,0,0,0,0,0,0,0,0,0,0,0,0,0,0,0,0,0,0,0,0,0,0,0,0,0,0,0,0,0,0,0,0,0,0,0,0,0,0,0,0,0,0,0,0,0,0,0,0,0,0,0,0,0,0,0,0,0,0,0,0,0,0,0,0,0,0,0,0,0,0,0,0,0,0,0,0,0,0,0,0,0,0,0,0,0,0,0,0,0,0,0,0],"id":7,"left_children":[1,3,5,7,9,11,13,15,17,19,21,23,25,27,-1,29,31,33,-1,35,-1,37,39,41,43,45,47,49,51,-1,-1,53,55,57,59,61,63,65,67,69,71,73,-1,75,77,79,81,-1,83,85,87,-1,-1,-1,89,-1,91,93,95,97,99,101,103,-1,105,107,109,-1,-1,111,113,-1,115,117,119,121,123,125,127,129,-1,131,133,-1,-1,135,-1,-1,-1,-1,-1,-1,-1,-1,-1,-1,-1,-1,-1,-1,-1,-1,-1,-1,-1,-1,-1,-1,-1,-1,-1,-1,-1,-1,-1,-1,-1,-1,-1,-1,-1,-1,-1,-1,-1,-1,-1,-1,-1,-1,-1,-1,-1,-1,-1,-1,-1],"loss_changes":[5.3436793E4,8.709547E3,8.5629375E3,9.8083594E2,1.0325895E3,1.7150078E3,1.49725E3,2.4371484E2,3.6390527E2,2.4965698E2,2.3826425E2,4.13187E2,3.9630762E2,6.669219E2,0E0,4.09228E2,1.6160156E2,1.2764746E2,0E0,5.8996826E1,0E0,2.7347302E2,1.28324E2,2.141499E2,3.4052734E2,3.4579688E2,2.7231628E2,7.457461E2,1.179631E1,0E0,0E0,4.8521484E1,1.9856006E2,1.24924805E2,5.207495E1,1.1089478E1,4.3012833E1,2.74412E2,1.5067749E0,1.1056958E2,1.4238869E1,1.27768555E2,0E0,2.3686536E2,3.450857E2,6.164951E2,3.795127E2,0E0,1.5324097E2,5.811658E2,9.3125E0,0E0,0E0,0E0,3.2874023E1,0E0,1.0444217E2,8.768555E1,4.0293884E0,3.564612E1,3.96015E1,2.447675E1,1.6129211E1,0E0,1.4473366E1,2.788193E2,3.3301157E2,0E0,0E0,4.0418736E1,3.8781067E1,0E0,6.4902115E-1,9.694824E1,9.688247E0,9.093923E1,6.14364E1,8.3515594E1,8.6992676E1,9.588623E1,0E0,9.9828064E1,2.1112646E2,0E0,0E0,1.2346997E2,0E0,0E0,0E0,0E0,0E0,0E0,0E0,0E0,0E0,0E0,0E0,0E0,0E0,0E0,0E0,0E0,0E0,0E0,0E0,0E0,0E0,0E0,0E0,0E0,0E0,0E0,0E0,0E0,0E0,0E0,0E0,0E0,0E0,0E0,0E0,0E0,0E0,0E0,0E0,0E0,0E0,0E0,0E0,0E0,0E0,0E0,0E0,0E0,0E0,0E0,0E0],"parents":[2147483647,0,0,1,1,2,2,3,3,4,4,5,5,6,6,7,7,8,8,9,9,10,10,11,11,12,12,13,13,15,15,16,16,17,17,19,19,21,21,22,22,23,23,24,24,25,25,26,26,27,27,28,28,31,31,32,32,33,33,34,34,35,35,36,36,37,37,38,38,39,39,40,40,41,41,43,43,44,44,45,45,46,46,48,48,49,49,50,50,54,54,56,56,57,57,58,58,59,59,60,60,61,61,62,62,64,64,65,65,66,66,69,69,70,70,72,72,73,73,74,74,75,75,76,76,77,77,78,78,79,79,81,81,82,82,85,85],"right_children":[2,4,6,8,10,12,14,16,18,20,22,24,26,28,-1,30,32,34,-1,36,-1,38,40,42,44,46,48,50,52,-1,-1,54,56,58,60,62,64,66,68,70,72,74,-1,76,78,80,82,-1,84,86,88,-1,-1,-1,90,-1,92,94,96,98,100,102,104,-1,106,108,110,-1,-1,112,114,-1,116,118,120,122,124,126,128,130,-1,132,134,-1,-1,136,-1,-1,-1,-1,-1,-1,-1,-1,-1,-1,-1,-1,-1,-1,-1,-1,-1,-1,-1,-1,-1,-1,-1,-1,-1,-1,-1,-1,-1,-1,-1,-1,-1,-1,-1,-1,-1,-1,-1,-1,-1,-1,-1,-1,-1,-1,-1,-1,-1,-1,-1],"split_conditions":[6E1,4.1E1,9E1,2.9E1,4.4E1,7.2E1,1E-2,6E-4,9.9999076E-1,2.1E-3,8.311706E-1,-5.947267E-1,4.8E1,6.55E-2,4.2069016E0,2.21E1,7.9094565E-1,8.660254E-1,3.9310774E-1,9.307239E-1,-9.240821E-1,3.8E1,7.0710677E-1,5.3E-1,1.4E-3,1.04E-2,-8.660254E-1,3.11E-2,-6.084769E-1,6.03513E-1,-9.05639E-1,1.53E-2,2.06E1,9.9325687E-1,2.2E1,-9.599327E-1,4E0,7E1,1.018E3,8E-4,5.7E1,9.659258E-1,1.385038E0,6.4E1,6.123234E-17,6.91E-2,1.52E-2,-3.4514144E-1,2.26E1,2.26E1,8.5E1,1.355632E-1,6.57996E-1,-8.912082E-1,2.3E-3,-1.1590296E0,7E1,-8.1153905E-1,1.83E1,3.23E-2,1.52E-2,2.14E1,1.0201E3,1.1924153E-1,1.4E-3,3.8E-1,4.94E-2,-5.72124E-1,-2.1750161E-1,2.12E1,5.2E1,3.2575423E-1,2.11E1,8.2E1,6E1,2.26E1,1.0155E3,6.6E1,9.2263955E-1,8E1,6.366046E-1,7.2E1,3.4E1,8.6161095E-1,-9.069412E-2,6E1,-3.1902283E-1,2.3768332E0,6.8097717E-1,-3.8427123E-1,-1.4887375E0,-6.871259E-1,-1.296824E-2,-2.4788025E-1,-9.518466E-1,-1.0012359E-1,-4.3477842E-1,-8.0546933E-1,-1.3235824E-1,-5.1502633E-1,-1.4655085E-1,8.251648E-2,-3.1143898E-1,-4.9719867E-1,-1.9254684E-1,-3.21406E-1,6.06308E-3,1.979444E-1,-3.6931506E-1,6.188288E-2,5.3916705E-1,-1.8793802E-1,2.277178E-1,-5.80521E-1,-2.5157088E-1,4.4558562E-2,-2.1277618E-2,7.7532506E-1,-1.5613403E-2,1.60858E-1,-9.136154E-2,3.2908148E-1,-2.8949264E-1,6.4048E-2,7.758943E-1,5.76012E-1,1.3913767E-1,1.3074226E-2,-4.5281988E-1,2.2460585E0,8.240289E-1,5.622162E-1,-1.6370209E-1,2.6596293E-1,1.2905153E0,2.626532E-1,1.5408412E0],"split_indices":[12,12,12,12,12,12,15,15,9,15,9,9,11,13,0,0,9,8,0,9,0,11,8,16,15,14,7,13,9,0,0,13,0,9,11,10,3,1,2,15,1,7,0,12,8,13,14,0,0,0,1,0,0,0,14,0,1,9,0,13,14,0,2,0,15,16,13,0,0,0,12,0,0,1,1,0,2,12,10,1,0,1,11,0,0,1,0,0,0,0,0,0,0,0,0,0,0,0,0,0,0,0,0,0,0,0,0,0,0,0,0,0,0,0,0,0,0,0,0,0,0,0,0,0,0,0,0,0,0,0,0,0,0,0,0,0,0],"split_type":[0,0,0,0,0,0,0,0,0,0,0,0,0,0,0,0,0,0,0,0,0,0,0,0,0,0,0,0,0,0,0,0,0,0,0,0,0,0,0,0,0,0,0,0,0,0,0,0,0,0,0,0,0,0,0,0,0,0,0,0,0,0,0,0,0,0,0,0,0,0,0,0,0,0,0,0,0,0,0,0,0,0,0,0,0,0,0,0,0,0,0,0,0,0,0,0,0,0,0,0,0,0,0,0,0,0,0,0,0,0,0,0,0,0,0,0,0,0,0,0,0,0,0,0,0,0,0,0,0,0,0,0,0,0,0,0,0],"sum_hessian":[4.85E2,3.09E2,1.76E2,1.65E2,1.44E2,1.38E2,3.8E1,7.2E1,9.3E1,4.1E1,1.03E2,8.3E1,5.5E1,3.6E1,2E0,3E0,6.9E1,9.2E1,1E0,3.4E1,7E0,8.2E1,2.1E1,2.7E1,5.6E1,4.3E1,1.2E1,3.3E1,3E0,1E0,2E0,4.6E1,2.3E1,7.3E1,1.9E1,2.7E1,7E0,7.7E1,5E0,1.8E1,3E0,2.3E1,4E0,3.2E1,2.4E1,1.3E1,3E1,1E0,1.1E1,1E1,2.3E1,1E0,2E0,7E0,3.9E1,1.6E1,7E0,6.8E1,5E0,9E0,1E1,3E0,2.4E1,2E0,5E0,2.2E1,5.5E1,3E0,2E0,4E0,1.4E1,1E0,2E0,2.1E1,2E0,1E1,2.2E1,1.4E1,1E1,9E0,4E0,7E0,2.3E1,1E1,1E0,9E0,1E0,2.2E1,1E0,1E0,3.8E1,5E0,2E0,2E0,6.6E1,1E0,4E0,8E0,1E0,6E0,4E0,1E0,2E0,2.1E1,3E0,4E0,1E0,8E0,1.4E1,4.4E1,1.1E1,2E0,2E0,7E0,7E0,1E0,1E0,2E1,1E0,1E0,1E0,9E0,1E0,1E0,2.1E1,9E0,5E0,7E0,3E0,7E0,2E0,6E0,1E0,2E0,2.1E1,1E0,8E0],"tree_param":{"num_deleted":"0","num_feature":"18","num_nodes":"137","size_leaf_vector":"1"}},{"base_weights":[1.1423477E-1,-7.417755E0,1.2625769E1,-1.2073551E1,-2.493446E0,8.208044E0,2.2497963E1,-1.44557085E1,-9.8596115E0,-6.077271E0,-5.663812E-1,1.1639254E1,6.003828E0,1.7723059E1,3.332753E1,-4.4164677E0,-1.4822869E1,-1.0092072E1,3.773834E-1,-5.112855E0,-8.593962E-1,8.167813E-1,-2.0241919E0,9.735754E0,2.3658379E1,9.565831E0,4.008735E0,1.8019054E1,2.3532851E-1,3.7018276E1,3.9958933E-1,5.793725E-1,-8.5733825E-1,-1.619771E1,-1.1512854E1,-9.283116E0,-1.3140459E1,2.8964105E-1,-5.3708696E0,-2.0502279E0,3.652376E0,-4.4270725E0,7.8011656E-1,5.17242E0,1.1100124E1,2.2771997E0,-1.4988861E-2,7.241176E0,1.5505344E1,4.971453E0,-6.280972E-1,1.8282524E1,3.0975005E-1,1.9188344E0,4.379473E1,-8.288235E-1,-1.6960249E1,-1.0717615E0,-6.069898E0,-1.2299284E0,-8.567038E0,-1.6283569E-1,-1.3788285E1,-5.13504E-2,8.610733E-2,-3.1557157E0,-5.946501E0,-2.620182E-2,-7.5402703E0,7.104314E0,1.050895E0,-5.783184E0,4.477336E0,2.2689128E0,-6.8588934E0,6.199762E0,2.3806253E-2,1.11592405E-1,1.1359822E1,1.3619066E0,7.761008E0,1.6717974E1,3.2918257E-1,-8.1129265E-1,6.087413E0,4.379759E0,-3.400001E0,1.1569404E1,1.5322003E0,1.0001029E0,3.718346E0,-1.450627E0,-9.3033636E-1,-6.413175E-1,-1.227651E-2,-4.568843E-1,-7.863204E-1,-1.8515076E-1,-1.159429E0,-3.6741602E-1,4.0574644E-2,-1.8151374E-1,-4.9909022E-1,1.8386833E-1,-1.4139484E-1,-6.4561653E-1,-1.7442611E-1,9.754107E-2,8.234415E-1,3.4065014E-1,-2.9842097E-2,-4.787158E-2,-5.4745793E-1,8.0080256E-2,4.2419565E-1,-4.2525735E-2,2.5902766E-1,-1.5197495E-1,-6.302986E-1,1.70354E-1,5.5609345E-1,9.056381E-2,-8.770706E-2,9.253461E-1,1.9770797E-1,1.5350936E-1,9.919433E-3,6.3547313E-1,1.7181106E-1,1.5692804E0,5.82502E-1,6.035553E-2,-2.9378682E-1,5.945792E-1,1.7864574E-1,6.148605E-2,4.2618358E-1,2.954689E-1,-4.1582304E-1,2.521472E-1,9.9576193E-1],"categories":[],"categories_nodes":[],"categories_segments":[],"categories_sizes":[],"default_left":[0,0,0,0,0,0,0,0,0,0,0,0,0,0,0,0,0,0,0,0,0,0,0,0,0,0,0,0,0,0,0,0,0,0,0,0,0,0,0,0,0,0,0,0,0,0,0,0,0,0,0,0,0,0,0,0,0,0,0,0,0,0,0,0,0,0,0,0,0,0,0,0,0,0,0,0,0,0,0,0,0,0,0,0,0,0,0,0,0,0,0,0,0,0,0,0,0,0,0,0,0,0,0,0,0,0,0,0,0,0,0,0,0,0,0,0,0,0,0,0,0,0,0,0,0,0,0,0,0,0,0,0,0,0,0,0,0,0,0,0,0],"id":8,"left_children":[1,3,5,7,9,11,13,15,17,19,21,23,25,27,29,31,33,35,-1,37,-1,39,41,43,45,47,49,51,-1,53,-1,-1,-1,55,57,59,61,63,65,67,69,71,73,75,77,-1,-1,79,81,83,85,87,-1,-1,89,-1,91,-1,93,-1,95,-1,97,-1,-1,99,101,103,105,107,109,111,113,115,117,119,121,-1,123,125,127,129,-1,131,133,135,137,139,-1,-1,-1,-1,-1,-1,-1,-1,-1,-1,-1,-1,-1,-1,-1,-1,-1,-1,-1,-1,-1,-1,-1,-1,-1,-1,-1,-1,-1,-1,-1,-1,-1,-1,-1,-1,-1,-1,-1,-1,-1,-1,-1,-1,-1,-1,-1,-1,-1,-1,-1,-1,-1],"loss_changes":[4.589271E4,6.939576E3,7.7964453E3,6.80209E2,1.0255911E3,8.982002E2,2.3051035E3,2.0361523E2,3.322456E2,1.7903247E2,1.9925943E2,8.907095E2,5.301753E2,1.2637988E2,1.4881973E3,3.7142172E2,1.3206934E2,8.2694336E1,0E0,6.428223E1,0E0,4.2210168E2,3.268977E2,2.1653271E2,6.930376E2,2.7432788E2,2.3971259E2,7.830664E1,0E0,1.8599414E2,0E0,0E0,0E0,3.3496094E1,1.6481152E2,1.6924219E2,7.984668E1,2.8893666E0,3.606433E1,2.8871414E2,2.2601804E2,3.398529E2,2.771396E2,6.3325073E1,6.732837E1,0E0,0E0,5.6667236E1,2.7896973E1,2.888844E2,1.5370415E2,6.1875E0,0E0,0E0,9.103125E1,0E0,3.917383E1,0E0,9.090402E1,0E0,1.7453223E2,0E0,7.963745E1,0E0,0E0,6.022818E1,2.129773E1,8.501409E1,2.287323E0,1.9387274E2,7.465792E1,1.22315E2,6.165657E0,5.5990753E1,5.26326E0,1.5782776E1,4.9652786E0,0E0,3.0292969E1,1.830481E0,3.4188232E0,2.1257568E1,0E0,3.860769E1,1.7518994E2,9.592476E0,1.08463806E2,1.2480896E1,0E0,0E0,0E0,0E0,0E0,0E0,0E0,0E0,0E0,0E0,0E0,0E0,0E0,0E0,0E0,0E0,0E0,0E0,0E0,0E0,0E0,0E0,0E0,0E0,0E0,0E0,0E0,0E0,0E0,0E0,0E0,0E0,0E0,0E0,0E0,0E0,0E0,0E0,0E0,0E0,0E0,0E0,0E0,0E0,0E0,0E0,0E0,0E0,0E0,0E0,0E0,0E0,0E0],"parents":[2147483647,0,0,1,1,2,2,3,3,4,4,5,5,6,6,7,7,8,8,9,9,10,10,11,11,12,12,13,13,14,14,15,15,16,16,17,17,19,19,21,21,22,22,23,23,24,24,25,25,26,26,27,27,29,29,33,33,34,34,35,35,36,36,37,37,38,38,39,39,40,40,41,41,42,42,43,43,44,44,47,47,48,48,49,49,50,50,51,51,54,54,56,56,58,58,60,60,62,62,65,65,66,66,67,67,68,68,69,69,70,70,71,71,72,72,73,73,74,74,75,75,76,76,78,78,79,79,80,80,81,81,83,83,84,84,85,85,86,86,87,87],"right_children":[2,4,6,8,10,12,14,16,18,20,22,24,26,28,30,32,34,36,-1,38,-1,40,42,44,46,48,50,52,-1,54,-1,-1,-1,56,58,60,62,64,66,68,70,72,74,76,78,-1,-1,80,82,84,86,88,-1,-1,90,-1,92,-1,94,-1,96,-1,98,-1,-1,100,102,104,106,108,110,112,114,116,118,120,122,-1,124,126,128,130,-1,132,134,136,138,140,-1,-1,-1,-1,-1,-1,-1,-1,-1,-1,-1,-1,-1,-1,-1,-1,-1,-1,-1,-1,-1,-1,-1,-1,-1,-1,-1,-1,-1,-1,-1,-1,-1,-1,-1,-1,-1,-1,-1,-1,-1,-1,-1,-1,-1,-1,-1,-1,-1,-1,-1,-1,-1],"split_conditions":[5.9E1,4E1,8.4E1,2.9E1,4.4E1,-5.947267E-1,1.04E2,6E-4,9.9999076E-1,2.1E-3,1.3E-2,-8.4524906E-1,1.1E-3,8.5E-1,9.659258E-1,2.21E1,7.9094565E-1,2.52E1,3.773834E-1,5.5E1,-8.593962E-1,7E1,1.5E-3,1.16E-2,8.1E1,7.3E1,8.660254E-1,8.8E1,2.3532851E-1,4.6E1,3.9958933E-1,5.793725E-1,-8.5733825E-1,1.53E-2,2.06E1,6.6E1,2E0,2.28E1,4E0,3.8E-1,-5E-1,1.9E1,2.29E1,1.0215E3,5.7E1,2.2771997E0,-1.4988861E-2,1.97E1,1.0221E3,1.75E-2,1.4E-3,-9.3383723E-1,3.0975005E-1,1.9188344E0,-8.717063E-1,-8.288235E-1,1.5E1,-1.0717615E0,7E1,-1.2299284E0,1.1E-2,-1.6283569E-1,1E1,-5.13504E-2,8.610733E-2,1.0201E3,-9.599327E-1,7.638886E-1,1.0224E3,2.1E1,3.2E-1,5E0,1.88E1,4.8E1,2.44E1,1.9E1,1.96E1,1.11592405E-1,8.2E1,1.93E1,8.4524906E-1,3.4E1,3.2918257E-1,2.2192152E-1,2.35E1,5.9E1,6.3E1,1.0202E3,1.5322003E0,1.0001029E0,3.718346E0,-1.450627E0,-9.3033636E-1,-6.413175E-1,-1.227651E-2,-4.568843E-1,-7.863204E-1,-1.8515076E-1,-1.159429E0,-3.6741602E-1,4.0574644E-2,-1.8151374E-1,-4.9909022E-1,1.8386833E-1,-1.4139484E-1,-6.4561653E-1,-1.7442611E-1,9.754107E-2,8.234415E-1,3.4065014E-1,-2.9842097E-2,-4.787158E-2,-5.4745793E-1,8.0080256E-2,4.2419565E-1,-4.2525735E-2,2.5902766E-1,-1.5197495E-1,-6.302986E-1,1.70354E-1,5.5609345E-1,9.056381E-2,-8.770706E-2,9.253461E-1,1.9770797E-1,1.5350936E-1,9.919433E-3,6.3547313E-1,1.7181106E-1,1.5692804E0,5.82502E-1,6.035553E-2,-2.9378682E-1,5.945792E-1,1.7864574E-1,6.148605E-2,4.2618358E-1,2.954689E-1,-4.1582304E-1,2.521472E-1,9.9576193E-1],"split_indices":[12,12,12,12,12,9,12,15,9,15,14,9,15,16,7,0,9,0,0,1,0,1,15,14,1,12,8,1,0,11,0,0,0,13,0,1,3,0,3,16,8,3,0,2,1,0,0,0,2,13,15,9,0,0,9,0,11,0,1,0,14,0,11,0,0,2,10,9,2,11,16,3,0,12,0,0,0,0,12,0,9,11,0,9,0,1,12,2,0,0,0,0,0,0,0,0,0,0,0,0,0,0,0,0,0,0,0,0,0,0,0,0,0,0,0,0,0,0,0,0,0,0,0,0,0,0,0,0,0,0,0,0,0,0,0,0,0,0,0,0,0],"split_type":[0,0,0,0,0,0,0,0,0,0,0,0,0,0,0,0,0,0,0,0,0,0,0,0,0,0,0,0,0,0,0,0,0,0,0,0,0,0,0,0,0,0,0,0,0,0,0,0,0,0,0,0,0,0,0,0,0,0,0,0,0,0,0,0,0,0,0,0,0,0,0,0,0,0,0,0,0,0,0,0,0,0,0,0,0,0,0,0,0,0,0,0,0,0,0,0,0,0,0,0,0,0,0,0,0,0,0,0,0,0,0,0,0,0,0,0,0,0,0,0,0,0,0,0,0,0,0,0,0,0,0,0,0,0,0,0,0,0,0,0,0],"sum_hessian":[4.85E2,3.03E2,1.82E2,1.55E2,1.48E2,1.27E2,5.5E1,7.2E1,8.3E1,5.1E1,9.7E1,4.8E1,7.9E1,4E1,1.5E1,3E0,6.9E1,8.2E1,1E0,4.4E1,7E0,5E1,4.7E1,4.3E1,5E0,2.7E1,5.2E1,3.9E1,1E0,1.3E1,2E0,1E0,2E0,4.6E1,2.3E1,6.8E1,1.4E1,2E0,4.2E1,2.5E1,2.5E1,2.5E1,2.2E1,1.1E1,3.2E1,4E0,1E0,2.1E1,6E0,4.3E1,9E0,3.8E1,1E0,6E0,7E0,7E0,3.9E1,1.6E1,7E0,5E0,6.3E1,1E0,1.3E1,1E0,1E0,1E1,3.2E1,1.9E1,6E0,1E1,1.5E1,2.2E1,3E0,1.9E1,3E0,9E0,2E0,1E0,3.1E1,2E0,1.9E1,5E0,1E0,7E0,3.6E1,3E0,6E0,6E0,3.2E1,1E0,6E0,3E1,9E0,5E0,2E0,2.1E1,4.2E1,1E0,1.2E1,7E0,3E0,3E0,2.9E1,8E0,1.1E1,5E0,1E0,4E0,6E0,4E0,1.1E1,4E0,1.8E1,1E0,2E0,5E0,1.4E1,1E0,2E0,2E0,7E0,1E0,1E0,3E1,1E0,1E0,1E0,1.8E1,1E0,3E0,2E0,5E0,2E0,2.6E1,1E1,1E0,2E0,1E0,5E0,1E0,5E0],"tree_param":{"num_deleted":"0","num_feature":"18","num_nodes":"141","size_leaf_vector":"1"}},{"base_weights":[1.21754445E-1,-6.6792097E0,1.2032359E1,-1.0894782E1,-1.807042E0,8.750327E0,2.3421337E1,-1.3370664E1,-8.856121E0,-5.3725533E0,-3.4974846E-1,6.111439E0,1.2552403E1,2.0851997E1,3.7842214E0,-1.3814522E0,-1.1973682E1,-9.048738E0,3.6228806E-1,-4.163526E0,-7.9923844E-1,1.2433546E-1,-3.9947531E0,7.177803E0,2.5705478E0,2.3122847E0,1.172959E1,2.1977732E1,6.0702486E0,5.5619764E-1,-1.2435801E1,-9.923888E0,-6.775168E0,-2.1745496E0,-5.106707E0,4.1762444E-1,-6.5057507E0,-5.2324576E0,1.462513E0,1.4170539E1,6.475445E0,5.3736672E0,-4.6625796E-1,1.288903E1,6.9922423E0,1.3203313E1,2.5083601E1,1.141571E-1,5.713884E-1,-1.2731875E1,-2.3689462E-1,-1.2477826E1,-8.421376E0,-3.7926548E0,-1.0154211E1,-3.504549E0,-3.8792294E-2,-5.6281853E0,-2.6911533E0,-5.1833856E-1,2.620736E0,-2.357312E-1,-6.873233E-1,-5.9464645E0,4.774414E-2,2.1924545E-1,-4.3743897E-2,1.4736892E-1,1.3433694E0,3.1832192E0,7.6002717E0,5.100852E-1,5.7524997E-1,-3.2536824E0,2.3988762E0,5.6410823E0,1.3694259E1,-3.1958434E-1,8.24073E0,1.5442519E1,-3.6755005E-1,3.0047522E1,1.5513355E0,-7.4235886E-1,-1.1057426E0,-1.3929031E0,-6.7320335E-1,-5.4713136E-1,-1.0493648E0,-1.2786153E-1,-4.8492438E-1,-1.7794617E-1,-9.115037E-1,-3.232085E-1,-1.0122009E-1,-1.329002E-1,9.502006E-2,-2.238124E-1,-5.2013177E-1,-2.9853037E-1,1.0044922E-1,6.040211E-1,-7.203156E-2,2.51367E-1,-4.3737656E-1,-9.140513E-2,-5.7246274E-1,5.0337785E-1,7.323028E-2,6.558945E-1,1.9551156E-1,8.341934E-2,-1.4389343E-2,-5.7270047E-3,-5.1295316E-1,3.3500934E-1,-2.6179305E-1,6.1391866E-1,-1.8093704E-1,1.3602117E0,8.4122473E-1,7.363205E-1,-9.421219E-2,2.4206145E-1,1.318877E0,6.846158E-1,2.5072587E0],"categories":[],"categories_nodes":[],"categories_segments":[],"categories_sizes":[],"default_left":[0,0,0,0,0,0,0,0,0,0,0,0,0,0,0,0,0,0,0,0,0,0,0,0,0,0,0,0,0,0,0,0,0,0,0,0,0,0,0,0,0,0,0,0,0,0,0,0,0,0,0,0,0,0,0,0,0,0,0,0,0,0,0,0,0,0,0,0,0,0,0,0,0,0,0,0,0,0,0,0,0,0,0,0,0,0,0,0,0,0,0,0,0,0,0,0,0,0,0,0,0,0,0,0,0,0,0,0,0,0,0,0,0,0,0,0,0,0,0,0,0,0,0,0,0,0,0],"id":9,"left_children":[1,3,5,7,9,11,13,15,17,19,21,23,25,27,-1,-1,29,31,-1,33,-1,35,37,39,41,-1,43,45,47,-1,49,51,53,55,57,59,61,63,65,67,69,71,73,75,77,79,81,-1,-1,83,-1,85,87,89,91,93,95,97,99,101,103,-1,-1,105,-1,-1,-1,-1,-1,107,109,-1,111,113,115,117,119,-1,121,123,-1,125,-1,-1,-1,-1,-1,-1,-1,-1,-1,-1,-1,-1,-1,-1,-1,-1,-1,-1,-1,-1,-1,-1,-1,-1,-1,-1,-1,-1,-1,-1,-1,-1,-1,-1,-1,-1,-1,-1,-1,-1,-1,-1,-1,-1,-1],"loss_changes":[3.9448117E4,6.3473936E3,6.4111387E3,7.194707E2,7.5154047E2,1.3179092E3,1.4066641E3,1.9070117E2,2.833208E2,1.928988E2,1.8021266E2,2.987229E2,4.1439355E2,4.822832E2,0E0,0E0,5.849888E2,1.17808105E2,0E0,5.4554016E1,0E0,1.8355836E2,8.870633E1,2.2256909E2,1.812686E2,0E0,2.1197363E2,5.953887E2,9.720505E0,0E0,1.1938965E2,1.443457E2,2.5375159E2,3.679128E1,1.3825867E1,1.8694121E2,4.378067E0,4.5170197E1,9.202574E0,1.3066675E2,1.979978E2,4.9241364E1,9.5654976E1,1.7370801E2,2.1124359E2,5.0932837E2,9.5427734E1,0E0,0E0,7.493164E1,0E0,2.9444238E2,2.3719604E2,7.495232E1,1.0244348E2,4.4824295E0,1.3913257E1,2.631311E1,2.932462E1,2.040883E2,1.3102838E2,0E0,0E0,4.41091E1,0E0,0E0,0E0,0E0,0E0,1.1410257E2,1.1573096E2,0E0,1.2465873E0,5.9839756E1,7.457041E1,1.1374997E2,2.2086572E2,0E0,1.1970917E2,7.9678955E1,0E0,3.7496094E1,0E0,0E0,0E0,0E0,0E0,0E0,0E0,0E0,0E0,0E0,0E0,0E0,0E0,0E0,0E0,0E0,0E0,0E0,0E0,0E0,0E0,0E0,0E0,0E0,0E0,0E0,0E0,0E0,0E0,0E0,0E0,0E0,0E0,0E0,0E0,0E0,0E0,0E0,0E0,0E0,0E0,0E0,0E0,0E0,0E0],"parents":[2147483647,0,0,1,1,2,2,3,3,4,4,5,5,6,6,7,7,8,8,9,9,10,10,11,11,12,12,13,13,16,16,17,17,19,19,21,21,22,22,23,23,24,24,26,26,27,27,28,28,30,30,31,31,32,32,33,33,34,34,35,35,36,36,37,37,38,38,39,39,40,40,41,41,42,42,43,43,44,44,45,45,46,46,49,49,51,51,52,52,53,53,54,54,55,55,56,56,57,57,58,58,59,59,60,60,63,63,69,69,70,70,72,72,73,73,74,74,75,75,76,76,78,78,79,79,81,81],"right_children":[2,4,6,8,10,12,14,16,18,20,22,24,26,28,-1,-1,30,32,-1,34,-1,36,38,40,42,-1,44,46,48,-1,50,52,54,56,58,60,62,64,66,68,70,72,74,76,78,80,82,-1,-1,84,-1,86,88,90,92,94,96,98,100,102,104,-1,-1,106,-1,-1,-1,-1,-1,108,110,-1,112,114,116,118,120,-1,122,124,-1,126,-1,-1,-1,-1,-1,-1,-1,-1,-1,-1,-1,-1,-1,-1,-1,-1,-1,-1,-1,-1,-1,-1,-1,-1,-1,-1,-1,-1,-1,-1,-1,-1,-1,-1,-1,-1,-1,-1,-1,-1,-1,-1,-1,-1,-1],"split_conditions":[6E1,4.1E1,9E1,2.9E1,4.4E1,7.2E1,1E-2,1E0,9.9999076E-1,2.1E-3,3.5E1,1.69E-2,-5.197438E-1,6.55E-2,3.7842214E0,-1.3814522E0,-7.5266683E-1,1.57E-2,3.6228806E-1,1.8E1,-7.9923844E-1,2.4E-3,1.9E1,6.1E1,1.8822671E-1,2.3122847E0,4.8E1,3.11E-2,-6.084769E-1,5.5619764E-1,5.91E-2,2.6E-2,1.83E-2,7.0710677E-1,1.0193E3,5.5E1,6.6E1,2.49E1,1.91E1,1.93E1,6.4E1,8.2E1,6.616346E-1,2E1,-8.660254E-1,2.26E1,2.4702218E-1,1.141571E-1,5.713884E-1,2.13E-2,-2.3689462E-1,-1.8369701E-16,9.659258E-1,5E0,1.4E1,2.16E1,1.3E1,-7.0710677E-1,2.1E1,1E0,8.7E1,-2.357312E-1,-6.873233E-1,1.88E1,4.774414E-2,2.1924545E-1,-4.3743897E-2,1.4736892E-1,1.3433694E0,2.62E-2,1.8E-3,5.100852E-1,1.94E1,1.95E1,2.35E1,7.2E1,5E0,-3.1958434E-1,2.26E1,6E1,-3.6755005E-1,2E0,1.5513355E0,-7.4235886E-1,-1.1057426E0,-1.3929031E0,-6.7320335E-1,-5.4713136E-1,-1.0493648E0,-1.2786153E-1,-4.8492438E-1,-1.7794617E-1,-9.115037E-1,-3.232085E-1,-1.0122009E-1,-1.329002E-1,9.502006E-2,-2.238124E-1,-5.2013177E-1,-2.9853037E-1,1.0044922E-1,6.040211E-1,-7.203156E-2,2.51367E-1,-4.3737656E-1,-9.140513E-2,-5.7246274E-1,5.0337785E-1,7.323028E-2,6.558945E-1,1.9551156E-1,8.341934E-2,-1.4389343E-2,-5.7270047E-3,-5.1295316E-1,3.3500934E-1,-2.6179305E-1,6.1391866E-1,-1.8093704E-1,1.3602117E0,8.4122473E-1,7.363205E-1,-9.421219E-2,2.4206145E-1,1.318877E0,6.846158E-1,2.5072587E0],"split_indices":[12,12,12,12,12,12,15,4,9,15,11,14,10,13,0,0,9,14,0,11,0,15,3,12,9,0,11,13,9,0,13,13,14,7,2,12,1,0,0,0,12,1,9,11,7,0,9,0,0,13,0,8,7,4,11,0,11,7,0,4,1,0,0,0,0,0,0,0,0,13,15,0,0,0,0,1,4,0,0,1,0,3,0,0,0,0,0,0,0,0,0,0,0,0,0,0,0,0,0,0,0,0,0,0,0,0,0,0,0,0,0,0,0,0,0,0,0,0,0,0,0,0,0,0,0,0,0],"split_type":[0,0,0,0,0,0,0,0,0,0,0,0,0,0,0,0,0,0,0,0,0,0,0,0,0,0,0,0,0,0,0,0,0,0,0,0,0,0,0,0,0,0,0,0,0,0,0,0,0,0,0,0,0,0,0,0,0,0,0,0,0,0,0,0,0,0,0,0,0,0,0,0,0,0,0,0,0,0,0,0,0,0,0,0,0,0,0,0,0,0,0,0,0,0,0,0,0,0,0,0,0,0,0,0,0,0,0,0,0,0,0,0,0,0,0,0,0,0,0,0,0,0,0,0,0,0,0],"sum_hessian":[4.85E2,3.09E2,1.76E2,1.65E2,1.44E2,1.38E2,3.8E1,7.2E1,9.3E1,4.1E1,1.03E2,8.3E1,5.5E1,3.6E1,2E0,1.6E1,5.6E1,9.2E1,1E0,3.4E1,7E0,9.2E1,1.1E1,6.3E1,2E1,1E0,5.4E1,3.3E1,3E0,1E0,5.5E1,6.4E1,2.8E1,1.2E1,2.2E1,8.9E1,3E0,9E0,2E0,4E0,5.9E1,1E1,1E1,4.2E1,1.2E1,1E1,2.3E1,1E0,2E0,5.3E1,2E0,2.1E1,4.3E1,1.6E1,1.2E1,7E0,5E0,1.7E1,5E0,6.3E1,2.6E1,2E0,1E0,8E0,1E0,1E0,1E0,1E0,3E0,1.6E1,4.3E1,8E0,2E0,5E0,5E0,5E0,3.7E1,1E0,1.1E1,9E0,1E0,1E1,1.3E1,1.5E1,3.8E1,8E0,1.3E1,3.4E1,9E0,9E0,7E0,2E0,1E1,5E0,2E0,2E0,3E0,5E0,1.2E1,4E0,1E0,2E0,6.1E1,2.5E1,1E0,2E0,6E0,6E0,1E1,3.8E1,5E0,1E0,1E0,3E0,2E0,4E0,1E0,4E0,1E0,1.6E1,2.1E1,1E1,1E0,1E0,8E0,1E0,9E0],"tree_param":{"num_deleted":"0","num_feature":"18","num_nodes":"127","size_leaf_vector":"1"}},{"base_weights":[1.2763953E-1,-6.180789E0,1.1175578E1,-1.0070868E1,-1.6846935E0,7.912434E0,2.1160437E1,-1.2340878E1,-8.2008505E0,-4.9952154E0,-3.3155292E-1,5.658862E0,1.1400658E1,1.891607E1,3.5823965E0,-1.5967963E1,-1.1042608E1,-8.382525E0,3.4779647E-1,-3.8705683E0,-7.432916E-1,3.2398403E-1,-2.7896445E0,5.2962494E0,1.4302292E0,2.2197933E0,1.0536065E1,1.1800051E1,2.1453733E1,-1.3686944E0,-6.38677E-1,5.3394973E-1,-1.1478168E1,-1.2703388E0,-8.043265E0,-2.0361483E0,-4.7391286E0,2.8374753E0,-5.7312554E-1,-6.019681E-1,-4.9225965E0,5.848296E0,6.814758E-1,1.1637318E1,5.473575E0,1.3518489E1,-3.528479E-1,2.3043623E1,5.756015E0,-1.1747549E1,-2.2426015E-1,-1.12771015E1,-7.409302E0,-3.2772393E0,-4.200236E-2,-1.8167677E0,-5.0866446E0,3.6897407E0,-7.9817504E-1,-5.745552E0,2.99559E-1,3.3523612E0,-2.998178E0,-2.6235833E0,-6.631979E-1,6.375143E0,-1.0511507E-1,2.0976613E0,-4.8256773E-1,1.2187644E1,3.4998856E0,-3.06801E-1,6.787935E0,1.2719012E0,5.605078E-1,1.0072333E0,1.949753E0,1.09590754E-1,5.409144E-1,-6.8668187E-1,-1.0195513E0,-1.1098863E0,-4.748491E-1,-5.583592E-1,-1.097872E0,-3.016613E-1,-9.582173E-2,-1.2581217E-1,8.931885E-2,9.542892E-2,-2.5740784E-1,-4.6229145E-1,-2.0070992E-1,1.2625864E-1,4.176899E-1,-2.544388E-1,4.7401886E-2,-6.4381766E-1,1.23308815E-1,-2.6122928E-1,1.403529E-1,4.4726156E-2,4.0225536E-1,2.9358672E-2,-2.8250733E-1,-3.2338127E-1,-1.5546722E-2,5.3028584E-1,5.305008E-2,1.8058822E-1,-1.9530433E-1,3.1381363E-1,-2.2879311E-1,4.2095676E-1,1.0462029E0,7.3479764E-2,3.243346E-1,6.234706E-1,-9.044372E-2],"categories":[],"categories_nodes":[],"categories_segments":[],"categories_sizes":[],"default_left":[0,0,0,0,0,0,0,0,0,0,0,0,0,0,0,0,0,0,0,0,0,0,0,0,0,0,0,0,0,0,0,0,0,0,0,0,0,0,0,0,0,0,0,0,0,0,0,0,0,0,0,0,0,0,0,0,0,0,0,0,0,0,0,0,0,0,0,0,0,0,0,0,0,0,0,0,0,0,0,0,0,0,0,0,0,0,0,0,0,0,0,0,0,0,0,0,0,0,0,0,0,0,0,0,0,0,0,0,0,0,0,0,0,0,0,0,0,0,0],"id":10,"left_children":[1,3,5,7,9,11,13,15,17,19,21,23,25,27,-1,29,31,33,-1,35,-1,37,39,41,-1,-1,43,45,47,-1,-1,-1,49,-1,51,53,55,57,59,61,63,65,67,69,71,73,-1,75,77,79,-1,81,83,85,87,89,91,93,95,97,99,101,103,105,-1,107,109,111,-1,113,115,-1,117,-1,-1,-1,-1,-1,-1,-1,-1,-1,-1,-1,-1,-1,-1,-1,-1,-1,-1,-1,-1,-1,-1,-1,-1,-1,-1,-1,-1,-1,-1,-1,-1,-1,-1,-1,-1,-1,-1,-1,-1,-1,-1,-1,-1,-1,-1],"loss_changes":[3.394091E4,5.4049854E3,5.599588E3,6.034551E2,6.478861E2,9.9671484E2,1.4324062E3,1.674248E2,2.5073584E2,1.6695703E2,1.6848625E2,2.7749902E2,4.4258203E2,4.872256E2,0E0,1.8250488E1,5.164668E2,1.0880908E2,0E0,4.611609E1,0E0,1.8878105E2,9.969331E1,2.0746265E2,0E0,0E0,2.2063086E2,4.217655E2,5.9113184E2,0E0,0E0,0E0,9.7933105E1,0E0,1.0300635E2,3.203626E1,1.4116821E1,7.11129E1,2.8158273E2,1.2375581E2,6.340866E1,2.3277393E2,1.07729935E2,1.4095312E2,1.6061499E2,7.461621E1,0E0,5.4154297E1,8.3771515E0,6.092578E1,0E0,9.794946E1,1.1861377E2,3.6936722E0,1.239528E1,2.0702068E1,2.1178345E1,4.996335E1,1.8449886E1,1.633858E2,2.8579654E2,2.0594204E1,1.5649399E1,2.6785118E1,0E0,9.4041016E1,4.414509E1,9.26471E1,0E0,1.6538477E2,1.9996719E0,0E0,8.842697E1,0E0,0E0,0E0,0E0,0E0,0E0,0E0,0E0,0E0,0E0,0E0,0E0,0E0,0E0,0E0,0E0,0E0,0E0,0E0,0E0,0E0,0E0,0E0,0E0,0E0,0E0,0E0,0E0,0E0,0E0,0E0,0E0,0E0,0E0,0E0,0E0,0E0,0E0,0E0,0E0,0E0,0E0,0E0,0E0,0E0,0E0],"parents":[2147483647,0,0,1,1,2,2,3,3,4,4,5,5,6,6,7,7,8,8,9,9,10,10,11,11,12,12,13,13,15,15,16,16,17,17,19,19,21,21,22,22,23,23,26,26,27,27,28,28,32,32,34,34,35,35,36,36,37,37,38,38,39,39,40,40,41,41,42,42,43,43,44,44,45,45,47,47,48,48,49,49,51,51,52,52,53,53,54,54,55,55,56,56,57,57,58,58,59,59,60,60,61,61,62,62,63,63,65,65,66,66,67,67,69,69,70,70,72,72],"right_children":[2,4,6,8,10,12,14,16,18,20,22,24,26,28,-1,30,32,34,-1,36,-1,38,40,42,-1,-1,44,46,48,-1,-1,-1,50,-1,52,54,56,58,60,62,64,66,68,70,72,74,-1,76,78,80,-1,82,84,86,88,90,92,94,96,98,100,102,104,106,-1,108,110,112,-1,114,116,-1,118,-1,-1,-1,-1,-1,-1,-1,-1,-1,-1,-1,-1,-1,-1,-1,-1,-1,-1,-1,-1,-1,-1,-1,-1,-1,-1,-1,-1,-1,-1,-1,-1,-1,-1,-1,-1,-1,-1,-1,-1,-1,-1,-1,-1,-1,-1],"split_conditions":[6E1,4.1E1,8.7E1,2.9E1,4.4E1,7.2E1,1E-2,1E0,9.9999076E-1,2.1E-3,8.311706E-1,3.7E-3,-5.197438E-1,3.11E-2,3.5823965E0,2.1E1,-7.5266683E-1,2E-1,3.4779647E-1,1.8E1,-7.432916E-1,3.7E-1,6.1E1,5.9E-1,1.4302292E0,2.2197933E0,4.8E1,2.26E1,6.55E-2,-1.3686944E0,-6.38677E-1,5.3394973E-1,5.91E-2,-1.2703388E0,6.6E1,7.0710677E-1,-9.599327E-1,5.7E1,2.4E1,5.53E-2,1E1,8.800122E-1,3.9E1,9.659258E-1,-8.660254E-1,2.45E-2,-3.528479E-1,3.2E-1,-6.084769E-1,2.13E-2,-2.2426015E-1,8E0,8.7E1,2.16E1,1.3E1,2.14E1,1.0193E3,4.93E-2,1.0161E3,1.021E3,7E1,2.11E1,7E-4,1.4E-3,-6.631979E-1,2.4E1,1.3E-3,2.74E-2,-4.8256773E-1,2E1,-2.344914E-1,-3.06801E-1,2.26E1,1.2719012E0,5.605078E-1,1.0072333E0,1.949753E0,1.09590754E-1,5.409144E-1,-6.8668187E-1,-1.0195513E0,-1.1098863E0,-4.748491E-1,-5.583592E-1,-1.097872E0,-3.016613E-1,-9.582173E-2,-1.2581217E-1,8.931885E-2,9.542892E-2,-2.5740784E-1,-4.6229145E-1,-2.0070992E-1,1.2625864E-1,4.176899E-1,-2.544388E-1,4.7401886E-2,-6.4381766E-1,1.23308815E-1,-2.6122928E-1,1.403529E-1,4.4726156E-2,4.0225536E-1,2.9358672E-2,-2.8250733E-1,-3.2338127E-1,-1.5546722E-2,5.3028584E-1,5.305008E-2,1.8058822E-1,-1.9530433E-1,3.1381363E-1,-2.2879311E-1,4.2095676E-1,1.0462029E0,7.3479764E-2,3.243346E-1,6.234706E-1,-9.044372E-2],"split_indices":[12,12,12,12,12,12,15,4,9,15,9,15,10,13,0,3,9,16,0,11,0,16,1,16,0,0,11,0,13,0,0,0,13,0,1,7,10,12,11,13,3,9,11,7,7,14,0,16,9,13,0,3,1,0,11,0,2,13,2,2,1,0,15,15,0,0,15,14,0,11,10,0,0,0,0,0,0,0,0,0,0,0,0,0,0,0,0,0,0,0,0,0,0,0,0,0,0,0,0,0,0,0,0,0,0,0,0,0,0,0,0,0,0,0,0,0,0,0,0],"split_type":[0,0,0,0,0,0,0,0,0,0,0,0,0,0,0,0,0,0,0,0,0,0,0,0,0,0,0,0,0,0,0,0,0,0,0,0,0,0,0,0,0,0,0,0,0,0,0,0,0,0,0,0,0,0,0,0,0,0,0,0,0,0,0,0,0,0,0,0,0,0,0,0,0,0,0,0,0,0,0,0,0,0,0,0,0,0,0,0,0,0,0,0,0,0,0,0,0,0,0,0,0,0,0,0,0,0,0,0,0,0,0,0,0,0,0,0,0,0,0],"sum_hessian":[4.85E2,3.09E2,1.76E2,1.65E2,1.44E2,1.34E2,4.2E1,7.2E1,9.3E1,4.1E1,1.03E2,8.3E1,5.1E1,4E1,2E0,1.6E1,5.6E1,9.2E1,1E0,3.4E1,7E0,8.2E1,2.1E1,8.2E1,1E0,1E0,5E1,1.2E1,2.8E1,1.3E1,3E0,1E0,5.5E1,2E0,9E1,1.2E1,2.2E1,2.1E1,6.1E1,1.1E1,1E1,7.3E1,9E0,4E1,1E1,1.1E1,1E0,2.5E1,3E0,5.3E1,2E0,1.2E1,7.8E1,7E0,5E0,3E0,1.9E1,1.7E1,4E0,8E0,5.3E1,4E0,7E0,7E0,3E0,6.7E1,6E0,8E0,1E0,3.7E1,3E0,1E0,9E0,7E0,4E0,4E0,2.1E1,1E0,2E0,1.5E1,3.8E1,7E0,5E0,7.5E1,3E0,5E0,2E0,2E0,3E0,1E0,2E0,1.4E1,5E0,8E0,9E0,1E0,3E0,6E0,2E0,1.5E1,3.8E1,2E0,2E0,1E0,6E0,4E0,3E0,6.4E1,3E0,3E0,3E0,6E0,2E0,5E0,3.2E1,1E0,2E0,8E0,1E0],"tree_param":{"num_deleted":"0","num_feature":"18","num_nodes":"119","size_leaf_vector":"1"}},{"base_weights":[1.2545173E-1,-5.720785E0,1.03639145E1,-9.551901E0,-1.8280443E0,8.624427E0,2.7328484E1,-1.2142985E1,-8.139599E0,-4.8175206E0,-3.1572878E-1,5.956948E0,1.3433696E1,3.0314741E1,4.283123E0,-6.536436E0,-1.3801703E1,6.1255044E-1,-8.681695E0,-4.0307765E0,-8.640766E0,1.2394214E-1,-3.6968677E0,5.5281878E0,1.550829E1,1.0486653E1,1.8361393E1,1.7806149E0,3.2292721E0,1.05207056E-1,4.087677E-1,-5.1587064E-2,-6.940033E0,-1.5506077E1,-7.137974E0,5.0650735E0,-2.1814735E0,-8.862244E0,-1.0231018E-2,3.0284628E-1,-4.239383E0,-7.3384047E-1,-1.9660354E-1,3.911475E-1,-5.9191637E0,-4.829374E0,1.3104426E0,2.9876823E0,6.907142E0,3.1811476E-1,1.442141E0,1.137189E1,1.1916447E-1,1.952106E1,4.2263407E-1,-1.7047903E-1,-7.6206784E0,-1.748541E1,-1.142043E1,-7.8756876E0,-1.9942015E-2,9.521713E-2,5.125917E-1,-2.8980753E-1,-1.3195038E-2,-6.292767E0,-9.880484E0,-3.351123E-1,3.3388457E-1,-3.8947906E-2,7.528946E-2,-6.5696597E0,-3.6839423E0,1.0338475E0,-2.2370884E0,-2.0865905E-1,-6.340776E-1,-5.4468784E0,2.912674E-2,2.0486145E-1,-4.7608335E-2,5.230493E0,7.076281E-1,7.713829E0,4.1282315E0,5.08471E0,1.2497351E1,-4.221754E-1,6.523294E-1,1.1623895E0,1.9155053E0,-2.1362233E-1,-6.739255E-1,-1.434565E0,-3.7782684E-1,-2.0367971E-1,-1.0242007E0,-3.270645E-2,-7.006352E-1,4.4463348E-2,-4.6046752E-2,2.6421812E-1,-5.3900266E-1,-8.134459E-1,-2.8468525E-2,-5.903616E-1,-6.84198E-2,-5.841316E-1,-2.519983E-1,2.9838795E-2,4.1279864E-1,-1.2928078E-2,-3.8489982E-1,-9.401581E-2,-5.199579E-1,2.80764E-1,8.645313E-1,2.0260938E-1,-3.1782266E-1,6.4482175E-2,6.6375875E-1,1.5019734E-2,4.6035635E-1,5.351282E-1,5.7265624E-2,1.0431433E0,2.7632812E-1],"categories":[],"categories_nodes":[],"categories_segments":[],"categories_sizes":[],"default_left":[0,0,0,0,0,0,0,0,0,0,0,0,0,0,0,0,0,0,0,0,0,0,0,0,0,0,0,0,0,0,0,0,0,0,0,0,0,0,0,0,0,0,0,0,0,0,0,0,0,0,0,0,0,0,0,0,0,0,0,0,0,0,0,0,0,0,0,0,0,0,0,0,0,0,0,0,0,0,0,0,0,0,0,0,0,0,0,0,0,0,0,0,0,0,0,0,0,0,0,0,0,0,0,0,0,0,0,0,0,0,0,0,0,0,0,0,0,0,0,0,0,0,0,0,0,0,0],"id":11,"left_children":[1,3,5,7,9,11,13,15,17,19,21,23,25,27,29,31,33,35,37,39,41,43,45,47,49,51,53,-1,-1,-1,-1,-1,55,57,59,61,63,65,67,69,71,-1,-1,73,75,77,79,81,83,-1,-1,85,87,89,-1,-1,91,93,95,97,-1,-1,-1,-1,99,101,103,-1,-1,-1,-1,105,107,109,111,-1,-1,113,-1,-1,-1,115,117,119,121,123,125,-1,-1,-1,-1,-1,-1,-1,-1,-1,-1,-1,-1,-1,-1,-1,-1,-1,-1,-1,-1,-1,-1,-1,-1,-1,-1,-1,-1,-1,-1,-1,-1,-1,-1,-1,-1,-1,-1,-1,-1],"loss_changes":[2.914954E4,4.6057354E3,4.9875156E3,4.7202734E2,6.9923883E2,1.9982139E3,9.712676E2,4.0266992E2,4.9874658E2,1.2158264E2,1.550634E2,3.4836206E2,6.352119E2,2.3530762E2,6.394348E-1,2.8814392E1,3.4361768E2,9.813252E1,1.5334033E2,4.1964905E1,3.784546E0,1.5248703E2,7.437833E1,3.401975E2,4.4488464E1,3.4739697E2,2.0020508E2,0E0,0E0,0E0,0E0,0E0,2.6312805E1,5.1001465E1,4.885562E1,7.977768E0,1.5575953E1,1.8899316E2,6.993068E1,1.9703032E0,3.145404E1,0E0,0E0,1.5433788E2,5.904724E0,3.405298E1,8.671585E0,1.9062051E2,1.16108154E2,0E0,0E0,1.8411377E2,2.1646875E2,4.944629E1,0E0,0E0,2.125354E1,2.3618164E1,1.2685205E2,5.5708435E1,0E0,0E0,0E0,0E0,1.2798817E0,1.5028479E2,1.7990723E2,0E0,0E0,0E0,0E0,2.6083801E1,4.8473633E1,1.9713242E2,9.538993E1,0E0,0E0,3.282901E1,0E0,0E0,0E0,1.4440198E2,1.8089555E2,1.9472876E2,1.0785748E2,4.427768E1,9.70874E1,0E0,0E0,0E0,0E0,0E0,0E0,0E0,0E0,0E0,0E0,0E0,0E0,0E0,0E0,0E0,0E0,0E0,0E0,0E0,0E0,0E0,0E0,0E0,0E0,0E0,0E0,0E0,0E0,0E0,0E0,0E0,0E0,0E0,0E0,0E0,0E0,0E0,0E0,0E0,0E0],"parents":[2147483647,0,0,1,1,2,2,3,3,4,4,5,5,6,6,7,7,8,8,9,9,10,10,11,11,12,12,13,13,14,14,15,15,16,16,17,17,18,18,19,19,20,20,21,21,22,22,23,23,24,24,25,25,26,26,32,32,33,33,34,34,35,35,36,36,37,37,38,38,39,39,40,40,43,43,44,44,45,45,46,46,47,47,48,48,51,51,52,52,53,53,56,56,57,57,58,58,59,59,64,64,65,65,66,66,71,71,72,72,73,73,74,74,77,77,81,81,82,82,83,83,84,84,85,85,86,86],"right_children":[2,4,6,8,10,12,14,16,18,20,22,24,26,28,30,32,34,36,38,40,42,44,46,48,50,52,54,-1,-1,-1,-1,-1,56,58,60,62,64,66,68,70,72,-1,-1,74,76,78,80,82,84,-1,-1,86,88,90,-1,-1,92,94,96,98,-1,-1,-1,-1,100,102,104,-1,-1,-1,-1,106,108,110,112,-1,-1,114,-1,-1,-1,116,118,120,122,124,126,-1,-1,-1,-1,-1,-1,-1,-1,-1,-1,-1,-1,-1,-1,-1,-1,-1,-1,-1,-1,-1,-1,-1,-1,-1,-1,-1,-1,-1,-1,-1,-1,-1,-1,-1,-1,-1,-1,-1,-1],"split_conditions":[6E1,4E1,1.04E2,2E0,4.4E1,7.7E1,9.659258E-1,1.72E-2,-6.354323E-1,2.1E-3,3.5E1,3E-3,3.78E-2,5.83E-2,2.56E1,-9.981855E-1,6.51899E-1,-8.660254E-1,9.9999076E-1,5.5E1,1.0153E3,2.4E-3,1.9E1,6.6E1,1E0,4.405188E-1,6.91E-2,1.7806149E0,3.2292721E0,1.05207056E-1,4.087677E-1,-5.1587064E-2,7.5E1,2.55E1,2.08E1,1.94E1,1.83E1,-5E-1,1.81E1,2.28E1,6.1E-3,-7.3384047E-1,-1.9660354E-1,9.427611E-1,6.6E1,2.49E1,1.91E1,6.123234E-17,8.660254E-1,3.1811476E-1,1.442141E0,8.1E1,7.8E1,5.37E-2,4.2263407E-1,-1.7047903E-1,1.0074E3,5.8E-2,2.59E1,1.79E1,-1.9942015E-2,9.521713E-2,5.125917E-1,-2.8980753E-1,1.85E1,-1.9667289E-1,2.1E-3,-3.351123E-1,3.3388457E-1,-3.8947906E-2,7.528946E-2,8.2E1,1.79E1,5.99E-2,6.1E1,-2.0865905E-1,-6.340776E-1,1.88E1,2.912674E-2,2.0486145E-1,-4.7608335E-2,2.29E1,2.28E1,2.1E1,1.0175E3,1.84E1,5.3E1,-4.221754E-1,6.523294E-1,1.1623895E0,1.9155053E0,-2.1362233E-1,-6.739255E-1,-1.434565E0,-3.7782684E-1,-2.0367971E-1,-1.0242007E0,-3.270645E-2,-7.006352E-1,4.4463348E-2,-4.6046752E-2,2.6421812E-1,-5.3900266E-1,-8.134459E-1,-2.8468525E-2,-5.903616E-1,-6.84198E-2,-5.841316E-1,-2.519983E-1,2.9838795E-2,4.1279864E-1,-1.2928078E-2,-3.8489982E-1,-9.401581E-2,-5.199579E-1,2.80764E-1,8.645313E-1,2.0260938E-1,-3.1782266E-1,6.4482175E-2,6.6375875E-1,1.5019734E-2,4.6035635E-1,5.351282E-1,5.7265624E-2,1.0431433E0,2.7632812E-1],"split_indices":[12,12,12,4,12,12,7,13,9,15,11,15,13,13,0,10,10,7,9,1,2,15,3,12,4,9,13,0,0,0,0,0,1,0,0,0,0,8,0,0,14,0,0,9,1,0,0,8,7,0,0,12,1,13,0,0,2,13,0,0,0,0,0,0,0,9,15,0,0,0,0,1,0,13,1,0,0,0,0,0,0,0,0,11,2,0,11,0,0,0,0,0,0,0,0,0,0,0,0,0,0,0,0,0,0,0,0,0,0,0,0,0,0,0,0,0,0,0,0,0,0,0,0,0,0,0,0],"split_type":[0,0,0,0,0,0,0,0,0,0,0,0,0,0,0,0,0,0,0,0,0,0,0,0,0,0,0,0,0,0,0,0,0,0,0,0,0,0,0,0,0,0,0,0,0,0,0,0,0,0,0,0,0,0,0,0,0,0,0,0,0,0,0,0,0,0,0,0,0,0,0,0,0,0,0,0,0,0,0,0,0,0,0,0,0,0,0,0,0,0,0,0,0,0,0,0,0,0,0,0,0,0,0,0,0,0,0,0,0,0,0,0,0,0,0,0,0,0,0,0,0,0,0,0,0,0,0],"sum_hessian":[4.85E2,3.09E2,1.76E2,1.55E2,1.54E2,1.61E2,1.5E1,5.2E1,1.03E2,5.1E1,1.03E2,1.05E2,5.6E1,1.3E1,2E0,1.3E1,3.9E1,6E0,9.7E1,4.4E1,7E0,9.2E1,1.1E1,1.02E2,3E0,3.7E1,1.9E1,9E0,4E0,1E0,1E0,1E0,1.2E1,3E1,9E0,2E0,4E0,9.5E1,2E0,2E0,4.2E1,6E0,1E0,8.9E1,3E0,9E0,2E0,3.7E1,6.5E1,1E0,2E0,3.4E1,3E0,1.7E1,2E0,2E0,1E1,1.8E1,1.2E1,8E0,1E0,1E0,1E0,2E0,2E0,2.9E1,6.6E1,1E0,1E0,1E0,1E0,6E0,3.6E1,7.2E1,1.7E1,2E0,1E0,8E0,1E0,1E0,1E0,1.8E1,1.9E1,4.9E1,1.6E1,6E0,2.8E1,2E0,1E0,1E1,7E0,2E0,8E0,1.7E1,1E0,2E0,1E1,1E0,7E0,1E0,1E0,1E0,2.8E1,6.4E1,2E0,5E0,1E0,3E0,3.3E1,6.3E1,9E0,1E1,7E0,2E0,6E0,1.5E1,3E0,1.4E1,5E0,4E0,4.5E1,5E0,1.1E1,4E0,2E0,2.6E1,2E0],"tree_param":{"num_deleted":"0","num_feature":"18","num_nodes":"127","size_leaf_vector":"1"}},{"base_weights":[1.2743446E-1,-5.4399233E0,9.375245E0,-8.824317E0,-1.8600215E0,7.7849445E0,2.5487446E1,-1.1264059E1,-7.496138E0,-4.478061E0,-4.518778E-1,5.3371887E0,1.2457993E1,2.824741E1,4.111799E0,-6.092778E0,-1.2792405E1,9.8935604E-2,-8.045256E0,-3.7407265E0,-8.06581E0,1.1823087E0,-1.2621244E0,7.7741203E0,3.9287713E0,9.704089E0,1.7067509E1,1.4136372E0,3.397131E1,1.0099884E-1,3.9241698E-1,-7.55896E0,-3.5467453E0,-1.4363664E1,-6.642265E0,4.86247E0,-2.299321E0,-9.290332E0,-6.334361E0,-1.894709E0,-4.282241E0,-6.8351996E-1,-1.8873946E-1,2.552703E0,-1.4286066E0,-4.357515E0,-3.449517E-1,5.854544E0,1.1310582E1,5.7129383E0,1.593025E0,1.0516764E1,1.6716957E-1,1.813037E1,4.0009367E-1,7.105939E-1,2.9029214E0,-1.22029416E-1,-6.562394E-1,-3.145217E-1,-4.9523618E-2,-1.6181965E1,-1.0601249E1,-7.327116E0,-1.9144287E-2,9.140839E-2,4.92088E-1,-2.7515846E-1,-1.2667338E-2,-4.4428134E0,-1.04270735E1,-6.9493256E0,1.5526171E0,-2.8890736E0,8.1628895E-1,-4.892186E0,-2.7563248E0,3.3328123E0,-7.6623154E-1,-2.230075E0,2.955017E-1,2.80904E0,-6.38324E0,4.976171E0,-1.4255233E0,6.5867763E0,1.1689217E0,8.067717E0,1.3272079E0,1.51852E0,7.2002745E0,2.7195148E0,-2.9795825E0,4.7625623E0,1.1543061E1,-3.9965943E-1,6.2623626E-1,1.9440666E1,6.9473296E-1,-1.3261755E0,-3.6271375E-1,-1.9281687E-1,-9.497134E-1,-3.1398162E-2,-6.515909E-1,4.2684782E-2,-4.4204865E-2,5.932121E-2,-5.0026506E-1,-6.04892E-1,-9.353879E-1,-7.638381E-1,-4.4358248E-1,-4.807363E-2,3.2052916E-1,6.75059E-3,-3.0005497E-1,-6.823272E-2,1.325593E-1,-2.3932284E-1,-4.4293997E-1,-3.6958796E-1,-6.122057E-2,1.1515839E-1,3.7628242E-1,-2.2346282E-1,3.510826E-2,-1.095459E-2,-2.7252755E-1,-1.4197692E-2,3.0909607E-1,1.7453231E-1,-5.888159E-1,7.246223E-1,-1.9122276E-1,-3.4805393E-1,1.9000717E-2,2.4156155E-1,6.0864884E-1,1.9192229E-1,-1.5006027E-1,6.825663E-1,1.5553832E-1,2.167371E-1,-2.3653066E-1,6.2543017E-1,2.038949E-1,7.985999E-2,3.597117E-1,2.4959289E-1,-3.61292E-1,5.008801E-1,5.4211423E-2,7.25769E-2,9.5124096E-1,3.6883163E-1,1.6136526E0],"categories":[],"categories_nodes":[],"categories_segments":[],"categories_sizes":[],"default_left":[0,0,0,0,0,0,0,0,0,0,0,0,0,0,0,0,0,0,0,0,0,0,0,0,0,0,0,0,0,0,0,0,0,0,0,0,0,0,0,0,0,0,0,0,0,0,0,0,0,0,0,0,0,0,0,0,0,0,0,0,0,0,0,0,0,0,0,0,0,0,0,0,0,0,0,0,0,0,0,0,0,0,0,0,0,0,0,0,0,0,0,0,0,0,0,0,0,0,0,0,0,0,0,0,0,0,0,0,0,0,0,0,0,0,0,0,0,0,0,0,0,0,0,0,0,0,0,0,0,0,0,0,0,0,0,0,0,0,0,0,0,0,0,0,0,0,0,0,0,0,0,0,0,0,0,0,0],"id":12,"left_children":[1,3,5,7,9,11,13,15,17,19,21,23,25,27,29,31,33,35,37,39,41,43,45,47,49,51,53,-1,55,-1,-1,57,59,61,63,65,67,69,71,73,75,-1,-1,77,79,81,83,85,87,89,91,93,95,97,-1,-1,-1,-1,-1,-1,-1,99,101,103,-1,-1,-1,-1,105,107,109,111,113,115,117,119,121,123,125,127,-1,129,131,133,135,137,139,141,-1,143,145,147,149,151,153,-1,-1,155,-1,-1,-1,-1,-1,-1,-1,-1,-1,-1,-1,-1,-1,-1,-1,-1,-1,-1,-1,-1,-1,-1,-1,-1,-1,-1,-1,-1,-1,-1,-1,-1,-1,-1,-1,-1,-1,-1,-1,-1,-1,-1,-1,-1,-1,-1,-1,-1,-1,-1,-1,-1,-1,-1,-1,-1,-1,-1,-1],"loss_changes":[2.507313E4,3.666789E3,4.490635E3,4.2106738E2,5.4727625E2,1.8551738E3,8.277881E2,3.4094434E2,4.345371E2,1.0738733E2,1.3125343E2,3.5386548E2,5.579424E2,2.4729102E2,5.8929825E-1,2.5451538E1,2.9113135E2,1.0257379E2,1.4778027E2,3.6870422E1,1.6731567E0,1.2172025E2,1.8587134E2,2.0532202E2,2.9511646E2,2.9275708E2,1.6582373E2,0E0,1.42375E2,0E0,0E0,1.8574036E1,5.4517746E0,4.052832E1,4.209732E1,7.352318E0,1.5599333E1,2.5123535E2,2.241991E2,3.4706966E1,1.8160217E1,0E0,0E0,5.9514618E1,5.7502457E1,2.356929E2,3.0608606E2,8.836755E1,8.8725586E1,2.4484521E2,1.7808592E2,1.5171875E2,1.9731425E2,5.396631E1,0E0,0E0,0E0,0E0,0E0,0E0,0E0,1.230957E1,1.0663953E2,4.7841797E1,0E0,0E0,0E0,0E0,1.1795377E0,1.1727162E2,6.751807E1,9.670532E1,2.354676E1,2.3374222E1,7.026458E0,1.16137085E1,4.098948E1,3.994339E1,1.3439701E1,2.662238E1,0E0,1.3284718E1,1.1646799E2,2.922536E2,2.150766E2,6.4467896E1,2.3226368E1,1.1846863E1,0E0,7.1952614E1,6.6259766E1,7.809056E1,7.9695984E1,3.8604294E1,9.6380615E1,0E0,0E0,6.939502E1,0E0,0E0,0E0,0E0,0E0,0E0,0E0,0E0,0E0,0E0,0E0,0E0,0E0,0E0,0E0,0E0,0E0,0E0,0E0,0E0,0E0,0E0,0E0,0E0,0E0,0E0,0E0,0E0,0E0,0E0,0E0,0E0,0E0,0E0,0E0,0E0,0E0,0E0,0E0,0E0,0E0,0E0,0E0,0E0,0E0,0E0,0E0,0E0,0E0,0E0,0E0,0E0,0E0,0E0,0E0,0E0,0E0,0E0,0E0],"parents":[2147483647,0,0,1,1,2,2,3,3,4,4,5,5,6,6,7,7,8,8,9,9,10,10,11,11,12,12,13,13,14,14,15,15,16,16,17,17,18,18,19,19,20,20,21,21,22,22,23,23,24,24,25,25,26,26,28,28,31,31,32,32,33,33,34,34,35,35,36,36,37,37,38,38,39,39,40,40,43,43,44,44,45,45,46,46,47,47,48,48,49,49,50,50,51,51,52,52,53,53,61,61,62,62,63,63,68,68,69,69,70,70,71,71,72,72,73,73,74,74,75,75,76,76,77,77,78,78,79,79,81,81,82,82,83,83,84,84,85,85,86,86,87,87,89,89,90,90,91,91,92,92,93,93,94,94,97,97],"right_children":[2,4,6,8,10,12,14,16,18,20,22,24,26,28,30,32,34,36,38,40,42,44,46,48,50,52,54,-1,56,-1,-1,58,60,62,64,66,68,70,72,74,76,-1,-1,78,80,82,84,86,88,90,92,94,96,98,-1,-1,-1,-1,-1,-1,-1,100,102,104,-1,-1,-1,-1,106,108,110,112,114,116,118,120,122,124,126,128,-1,130,132,134,136,138,140,142,-1,144,146,148,150,152,154,-1,-1,156,-1,-1,-1,-1,-1,-1,-1,-1,-1,-1,-1,-1,-1,-1,-1,-1,-1,-1,-1,-1,-1,-1,-1,-1,-1,-1,-1,-1,-1,-1,-1,-1,-1,-1,-1,-1,-1,-1,-1,-1,-1,-1,-1,-1,-1,-1,-1,-1,-1,-1,-1,-1,-1,-1,-1,-1,-1,-1,-1],"split_conditions":[5.9E1,4E1,1.04E2,2E0,4.4E1,7.7E1,9.659258E-1,1.72E-2,-4.0148798E-1,2.1E-3,3.7E-1,-5.947267E-1,3.78E-2,4.6E1,2.56E1,2.42E1,6.51899E-1,-8.660254E-1,3.1E1,4E0,1.0153E3,8.214766E-1,2.4E1,5.3E-1,1.4E-3,4.405188E-1,6.91E-2,1.4136372E0,-8.717063E-1,1.0099884E-1,3.9241698E-1,7.4E1,2.1E1,2.55E1,2.08E1,1.94E1,1.0189E3,-5E-1,9.9325687E-1,1.0201E3,4.3E1,-6.8351996E-1,-1.8873946E-1,5.7E1,1.0174E3,3E0,-7.0710677E-1,9.659258E-1,2.3E-3,6.4E1,7.0710677E-1,8.1E1,7.8E1,8E1,4.0009367E-1,7.105939E-1,2.9029214E0,-1.22029416E-1,-6.562394E-1,-3.145217E-1,-4.9523618E-2,5.8E-2,2.59E1,1.79E1,-1.9144287E-2,9.140839E-2,4.92088E-1,-2.7515846E-1,1.85E1,-2.678143E-1,2.13E-2,1.99E-2,1.91E1,3.5E-1,1.96E1,-5.4884297E-1,1.72E-2,4.93E-2,1.0161E3,1.016E3,2.955017E-1,2.01E1,9E-4,8.7E1,5.1E1,8E-4,6E1,1.0245E3,1.3272079E0,2.26E1,9.659258E-1,2.12E1,6.3E1,1.84E1,-9.9843544E-1,-3.9965943E-1,6.2623626E-1,1.8E1,6.9473296E-1,-1.3261755E0,-3.6271375E-1,-1.9281687E-1,-9.497134E-1,-3.1398162E-2,-6.515909E-1,4.2684782E-2,-4.4204865E-2,5.932121E-2,-5.0026506E-1,-6.04892E-1,-9.353879E-1,-7.638381E-1,-4.4358248E-1,-4.807363E-2,3.2052916E-1,6.75059E-3,-3.0005497E-1,-6.823272E-2,1.325593E-1,-2.3932284E-1,-4.4293997E-1,-3.6958796E-1,-6.122057E-2,1.1515839E-1,3.7628242E-1,-2.2346282E-1,3.510826E-2,-1.095459E-2,-2.7252755E-1,-1.4197692E-2,3.0909607E-1,1.7453231E-1,-5.888159E-1,7.246223E-1,-1.9122276E-1,-3.4805393E-1,1.9000717E-2,2.4156155E-1,6.0864884E-1,1.9192229E-1,-1.5006027E-1,6.825663E-1,1.5553832E-1,2.167371E-1,-2.3653066E-1,6.2543017E-1,2.038949E-1,7.985999E-2,3.597117E-1,2.4959289E-1,-3.61292E-1,5.008801E-1,5.4211423E-2,7.25769E-2,9.5124096E-1,3.6883163E-1,1.6136526E0],"split_indices":[12,12,12,4,12,12,7,13,9,15,16,9,13,11,0,0,10,7,12,3,2,9,11,16,15,9,13,0,9,0,0,1,3,0,0,0,2,8,9,2,12,0,0,12,2,3,8,7,15,12,8,12,1,1,0,0,0,0,0,0,0,13,0,0,0,0,0,0,0,10,13,13,0,16,0,10,13,13,2,2,0,0,15,1,12,15,1,2,0,0,8,0,12,0,9,0,0,11,0,0,0,0,0,0,0,0,0,0,0,0,0,0,0,0,0,0,0,0,0,0,0,0,0,0,0,0,0,0,0,0,0,0,0,0,0,0,0,0,0,0,0,0,0,0,0,0,0,0,0,0,0,0,0,0,0,0,0],"split_type":[0,0,0,0,0,0,0,0,0,0,0,0,0,0,0,0,0,0,0,0,0,0,0,0,0,0,0,0,0,0,0,0,0,0,0,0,0,0,0,0,0,0,0,0,0,0,0,0,0,0,0,0,0,0,0,0,0,0,0,0,0,0,0,0,0,0,0,0,0,0,0,0,0,0,0,0,0,0,0,0,0,0,0,0,0,0,0,0,0,0,0,0,0,0,0,0,0,0,0,0,0,0,0,0,0,0,0,0,0,0,0,0,0,0,0,0,0,0,0,0,0,0,0,0,0,0,0,0,0,0,0,0,0,0,0,0,0,0,0,0,0,0,0,0,0,0,0,0,0,0,0,0,0,0,0,0,0],"sum_hessian":[4.85E2,3.03E2,1.82E2,1.55E2,1.48E2,1.67E2,1.5E1,5.2E1,1.03E2,5.1E1,9.7E1,1.11E2,5.6E1,1.3E1,2E0,1.3E1,3.9E1,7E0,9.6E1,4.4E1,7E0,3.2E1,6.5E1,3.9E1,7.2E1,3.7E1,1.9E1,6E0,7E0,1E0,1E0,7E0,6E0,3E1,9E0,2E0,5E0,5.3E1,4.3E1,1.1E1,3.3E1,6E0,1E0,2.1E1,1.1E1,1.4E1,5.1E1,2.7E1,1.2E1,4E1,3.2E1,3.4E1,3E0,1.7E1,2E0,1E0,6E0,1E0,6E0,5E0,1E0,1.8E1,1.2E1,8E0,1E0,1E0,1E0,3E0,2E0,1.1E1,4.2E1,4E1,3E0,8E0,3E0,2.2E1,1.1E1,1.7E1,4E0,1E1,1E0,3E0,1.1E1,8E0,4.3E1,2.3E1,4E0,9E0,3E0,1.1E1,2.9E1,2.6E1,6E0,6E0,2.8E1,2E0,1E0,1.4E1,3E0,1.7E1,1E0,2E0,1E1,1E0,7E0,1E0,1E0,3E0,8E0,1.5E1,2.7E1,1.2E1,2.8E1,2E0,1E0,2E0,6E0,1E0,2E0,7E0,1.5E1,5E0,6E0,8E0,9E0,1E0,3E0,4E0,6E0,1E0,2E0,1E0,1E1,5E0,3E0,1.5E1,2.8E1,6E0,1.7E1,3E0,1E0,8E0,1E0,9E0,2E0,2.5E1,4E0,1.4E1,1.2E1,1E0,5E0,4E0,2E0,1E0,2.7E1,1E0,1.3E1],"tree_param":{"num_deleted":"0","num_feature":"18","num_nodes":"157","size_leaf_vector":"1"}},{"base_weights":[1.2855381E-1,-5.034662E0,8.704997E0,-8.165072E0,-1.7233957E0,7.216182E0,2.3793486E1,-1.0451158E1,-6.921538E0,-4.162399E0,-4.1164517E-1,4.947667E0,1.1547016E1,2.6346699E1,3.9473267E0,-5.68695E0,-1.1857351E1,1.293726E-1,-7.4317E0,-3.4712915E0,-7.529577E0,-3.5131627E-3,-3.6392791E0,4.574046E0,1.3891925E1,8.975275E0,1.5855971E1,1.5324244E0,2.8368118E0,9.695892E-2,3.7672028E-1,-7.0515275E0,-3.3150122E0,-1.3305906E1,-6.181096E0,4.667971E0,-2.1614888E0,-8.583796E0,-5.848862E0,-1.9973278E-1,-3.700219E0,-6.366499E-1,-1.8118988E-1,-4.2767018E-1,3.7671618E0,-4.8631268E0,1.2453575E0,2.540278E0,5.8605876E0,2.8104416E-1,1.2944425E0,9.424513E0,-3.058609E-1,1.6828672E1,3.7875536E-1,-1.1714828E-1,-6.1124015E-1,-2.9355356E-1,-4.7542725E-2,-1.4976296E1,-9.841035E0,-6.816833E0,-1.8378448E-2,8.7752074E-2,4.7240448E-1,-2.58649E-1,-1.2161255E-2,-4.124135E0,-9.628729E0,-6.4228296E0,1.496521E0,-6.9309995E-2,7.200775E-2,-5.2544135E-1,-3.3112082E0,-7.9698676E-1,3.5376294E0,-3.9666545E-2,5.055993E0,-5.511363E0,1.2910461E-2,1.9590698E-1,-4.6464078E-2,3.0628705E0,-3.4513636E0,6.5752463E0,3.4139106E0,9.8680105E0,-2.6165557E-1,9.895977E-1,2.08558E1,-4.7123107E-1,-1.2558986E0,-1.8253326E-1,-8.806433E-1,-3.014221E-2,-6.059794E-1,4.0977325E-2,-4.2436674E-2,5.576187E-2,-4.6469077E-1,-5.595251E-1,-8.632295E-1,-7.074315E-1,-4.0931973E-1,-4.5509744E-2,3.0770797E-1,-4.6068278E-1,-2.1533908E-1,-3.2240503E-2,-6.072715E-1,4.610308E-1,3.4237288E-2,5.372069E-1,4.844055E-2,-5.285609E-1,-2.2111702E-1,2.8389454E-1,-3.4189066E-1,-3.2285368E-1,-6.793762E-2,2.9056763E-2,5.686022E-1,-9.5500685E-3,3.9168492E-1,2.74453E-1,8.452376E-1,4.4110656E-1,1.7807857E0],"categories":[],"categories_nodes":[],"categories_segments":[],"categories_sizes":[],"default_left":[0,0,0,0,0,0,0,0,0,0,0,0,0,0,0,0,0,0,0,0,0,0,0,0,0,0,0,0,0,0,0,0,0,0,0,0,0,0,0,0,0,0,0,0,0,0,0,0,0,0,0,0,0,0,0,0,0,0,0,0,0,0,0,0,0,0,0,0,0,0,0,0,0,0,0,0,0,0,0,0,0,0,0,0,0,0,0,0,0,0,0,0,0,0,0,0,0,0,0,0,0,0,0,0,0,0,0,0,0,0,0,0,0,0,0,0,0,0,0,0,0,0,0,0,0,0,0,0,0],"id":13,"left_children":[1,3,5,7,9,11,13,15,17,19,21,23,25,27,29,31,33,35,37,39,41,43,45,47,49,51,53,-1,-1,-1,-1,55,57,59,61,63,65,67,69,71,73,-1,-1,75,77,79,81,83,85,-1,-1,87,-1,89,-1,-1,-1,-1,-1,91,93,95,-1,-1,-1,-1,97,99,101,103,105,-1,-1,-1,107,109,111,-1,113,115,-1,-1,-1,117,119,121,123,125,-1,-1,127,-1,-1,-1,-1,-1,-1,-1,-1,-1,-1,-1,-1,-1,-1,-1,-1,-1,-1,-1,-1,-1,-1,-1,-1,-1,-1,-1,-1,-1,-1,-1,-1,-1,-1,-1,-1,-1,-1],"loss_changes":[2.156489E4,3.1370767E3,3.939206E3,3.7114355E2,4.7499176E2,1.5933955E3,7.067451E2,2.8763623E2,3.7506055E2,9.487079E1,1.2908269E2,3.1073535E2,4.8933496E2,2.3828711E2,5.430908E-1,2.1937775E1,2.466499E2,9.326817E1,1.2668164E2,3.2963684E1,2.5268555E-2,1.4235464E2,7.1814896E1,2.703142E2,3.8169495E1,2.545166E2,1.366836E2,0E0,0E0,0E0,0E0,1.5137207E1,4.5690384E0,3.2035645E1,3.6269012E1,6.7758865E0,1.37803E1,2.1193237E2,1.9511633E2,3.7125928E0,2.5107239E1,0E0,0E0,1.1997551E2,5.1955452E1,3.0203033E1,8.015522E0,1.4834326E2,9.2956055E1,0E0,0E0,2.4059595E2,0E0,6.521777E1,0E0,0E0,0E0,0E0,0E0,3.224414E1,8.956726E1,4.107483E1,0E0,0E0,0E0,0E0,1.0870602E0,1.0150366E2,5.613452E1,8.437317E1,2.1601357E1,0E0,0E0,0E0,4.3625244E1,1.9501416E2,4.597226E1,0E0,4.7620346E1,5.819916E0,0E0,0E0,0E0,1.6129614E2,2.6546364E0,1.627461E2,8.9611145E1,1.2538599E2,0E0,0E0,4.958667E1,0E0,0E0,0E0,0E0,0E0,0E0,0E0,0E0,0E0,0E0,0E0,0E0,0E0,0E0,0E0,0E0,0E0,0E0,0E0,0E0,0E0,0E0,0E0,0E0,0E0,0E0,0E0,0E0,0E0,0E0,0E0,0E0,0E0,0E0,0E0,0E0,0E0,0E0],"parents":[2147483647,0,0,1,1,2,2,3,3,4,4,5,5,6,6,7,7,8,8,9,9,10,10,11,11,12,12,13,13,14,14,15,15,16,16,17,17,18,18,19,19,20,20,21,21,22,22,23,23,24,24,25,25,26,26,31,31,32,32,33,33,34,34,35,35,36,36,37,37,38,38,39,39,40,40,43,43,44,44,45,45,46,46,47,47,48,48,51,51,53,53,59,59,60,60,61,61,66,66,67,67,68,68,69,69,70,70,74,74,75,75,76,76,78,78,79,79,83,83,84,84,85,85,86,86,87,87,90,90],"right_children":[2,4,6,8,10,12,14,16,18,20,22,24,26,28,30,32,34,36,38,40,42,44,46,48,50,52,54,-1,-1,-1,-1,56,58,60,62,64,66,68,70,72,74,-1,-1,76,78,80,82,84,86,-1,-1,88,-1,90,-1,-1,-1,-1,-1,92,94,96,-1,-1,-1,-1,98,100,102,104,106,-1,-1,-1,108,110,112,-1,114,116,-1,-1,-1,118,120,122,124,126,-1,-1,128,-1,-1,-1,-1,-1,-1,-1,-1,-1,-1,-1,-1,-1,-1,-1,-1,-1,-1,-1,-1,-1,-1,-1,-1,-1,-1,-1,-1,-1,-1,-1,-1,-1,-1,-1,-1,-1,-1],"split_conditions":[5.9E1,4E1,1.04E2,2E0,4.4E1,7.7E1,9.659258E-1,1.72E-2,-4.0148798E-1,2.1E-3,3.5E1,3E-3,3.78E-2,5.83E-2,2.56E1,2.42E1,6.51899E-1,-8.660254E-1,3.1E1,6.2E1,1.0153E3,9.7110003E-1,1.9E1,6.6E1,1E0,2.36E1,6.91E-2,1.5324244E0,2.8368118E0,9.695892E-2,3.7672028E-1,7.4E1,2.1E1,2.55E1,2.08E1,1.94E1,1.0189E3,-5E-1,9.9325687E-1,2.28E1,1.79E1,-6.366499E-1,-1.8118988E-1,1.0225E3,2.3E1,2.49E1,1.91E1,2.35E1,8.660254E-1,2.8104416E-1,1.2944425E0,8.5876393E-1,-3.058609E-1,5.37E-2,3.7875536E-1,-1.1714828E-1,-6.1124015E-1,-2.9355356E-1,-4.7542725E-2,1.9E1,2.59E1,1.79E1,-1.8378448E-2,8.7752074E-2,4.7240448E-1,-2.58649E-1,1.85E1,-2.678143E-1,2.13E-2,1.99E-2,1.91E1,-6.9309995E-2,7.200775E-2,-5.2544135E-1,6.1E-3,1.0207E3,2.5E1,-3.9666545E-2,1.0209E3,1.018E3,1.2910461E-2,1.9590698E-1,-4.6464078E-2,4.2E1,6.9E1,2.1E1,1.0175E3,-9.922222E-1,-2.6165557E-1,9.895977E-1,-9.659258E-1,-4.7123107E-1,-1.2558986E0,-1.8253326E-1,-8.806433E-1,-3.014221E-2,-6.059794E-1,4.0977325E-2,-4.2436674E-2,5.576187E-2,-4.6469077E-1,-5.595251E-1,-8.632295E-1,-7.074315E-1,-4.0931973E-1,-4.5509744E-2,3.0770797E-1,-4.6068278E-1,-2.1533908E-1,-3.2240503E-2,-6.072715E-1,4.610308E-1,3.4237288E-2,5.372069E-1,4.844055E-2,-5.285609E-1,-2.2111702E-1,2.8389454E-1,-3.4189066E-1,-3.2285368E-1,-6.793762E-2,2.9056763E-2,5.686022E-1,-9.5500685E-3,3.9168492E-1,2.74453E-1,8.452376E-1,4.4110656E-1,1.7807857E0],"split_indices":[12,12,12,4,12,12,7,13,9,15,11,15,13,13,0,0,10,7,12,1,2,10,3,12,4,0,13,0,0,0,0,1,3,0,0,0,2,8,9,0,0,0,0,2,11,0,0,0,7,0,0,9,0,13,0,0,0,0,0,17,0,0,0,0,0,0,0,10,13,13,0,0,0,0,14,2,11,0,2,2,0,0,0,11,1,11,2,9,0,0,7,0,0,0,0,0,0,0,0,0,0,0,0,0,0,0,0,0,0,0,0,0,0,0,0,0,0,0,0,0,0,0,0,0,0,0,0,0,0],"split_type":[0,0,0,0,0,0,0,0,0,0,0,0,0,0,0,0,0,0,0,0,0,0,0,0,0,0,0,0,0,0,0,0,0,0,0,0,0,0,0,0,0,0,0,0,0,0,0,0,0,0,0,0,0,0,0,0,0,0,0,0,0,0,0,0,0,0,0,0,0,0,0,0,0,0,0,0,0,0,0,0,0,0,0,0,0,0,0,0,0,0,0,0,0,0,0,0,0,0,0,0,0,0,0,0,0,0,0,0,0,0,0,0,0,0,0,0,0,0,0,0,0,0,0,0,0,0,0,0,0],"sum_hessian":[4.85E2,3.03E2,1.82E2,1.55E2,1.48E2,1.67E2,1.5E1,5.2E1,1.03E2,5.1E1,9.7E1,1.11E2,5.6E1,1.3E1,2E0,1.3E1,3.9E1,7E0,9.6E1,4.4E1,7E0,8.7E1,1E1,1.08E2,3E0,3.7E1,1.9E1,9E0,4E0,1E0,1E0,7E0,6E0,3E1,9E0,2E0,5E0,5.3E1,4.3E1,3E0,4.1E1,6E0,1E0,7.9E1,8E0,8E0,2E0,4.3E1,6.5E1,1E0,2E0,3.6E1,1E0,1.7E1,2E0,1E0,6E0,5E0,1E0,1.8E1,1.2E1,8E0,1E0,1E0,1E0,3E0,2E0,1.1E1,4.2E1,4E1,3E0,2E0,1E0,3E0,3.8E1,7.3E1,6E0,2E0,6E0,7E0,1E0,1E0,1E0,4E1,3E0,4.9E1,1.6E1,3.5E1,1E0,1E1,7E0,2E0,1.6E1,2E0,1E1,1E0,7E0,1E0,1E0,3E0,8E0,1.5E1,2.7E1,1.2E1,2.8E1,2E0,1E0,6E0,3.2E1,7E1,3E0,3E0,3E0,4E0,2E0,4E0,3E0,3.8E1,2E0,2E0,1E0,4E0,4.5E1,5E0,1.1E1,4E0,3.1E1,1E0,6E0],"tree_param":{"num_deleted":"0","num_feature":"18","num_nodes":"129","size_leaf_vector":"1"}},{"base_weights":[1.22362465E-1,-4.661832E0,8.069207E0,-7.3738203E0,-1.3895158E0,6.676083E0,2.2192688E1,-9.454623E0,-6.2861595E0,-6.9504848E0,-9.045531E-1,4.222207E0,1.0135671E1,2.455105E1,3.7894337E0,-5.04931E0,-1.0835723E1,-3.54829E-1,-6.800986E0,-6.7007667E-1,-2.8517798E-1,-2.0059268E0,6.622792E-1,7.020876E0,2.7389688E0,1.4641177E1,8.130754E0,1.4681191E0,2.8369663E0,9.3080595E-2,3.6165145E-1,-5.9994884E0,-1.949057E0,-1.2331443E1,-5.635445E0,4.481252E0,-2.1240058E0,-7.931013E0,-5.444537E0,-8.7972365E-2,-3.5564618E0,1.1038095E0,-3.053931E0,5.2226644E0,1.1435612E1,4.3088202E0,7.769217E-1,1.8129219E0,1.1892792E1,4.8043885E0,9.69875E0,-1.6979848E-1,-6.625214E0,-6.8353884E-2,-1.9152038E-1,-1.3869094E1,-9.135534E0,-1.764328E-2,-6.1548815E0,8.424194E-2,4.535083E-1,-2.8249912E0,-1.4033E-2,-3.8282816E0,-8.891519E0,-5.706364E0,2.953996E-1,6.9537175E-1,-8.8349926E-1,-2.8395653E0,-7.384581E0,1.4832866E0,-2.8289047E-1,-2.9364866E-1,1.1782837E-3,5.913263E0,1.139499E0,3.4549162E-1,1.1419457E0,1.2150354E0,5.5709968E0,2.2840335E0,-2.170921E0,1.2751601E1,2.9075804E-1,-1.16443634E-1,6.218658E0,5.8695678E-2,9.955979E0,-1.1246231E-1,-5.681537E-1,-4.4609874E-1,-1.1613369E0,-1.7279816E-1,-8.165965E-1,-2.8936462E-2,-5.406703E-1,-4.0739134E-2,-2.549035E-1,3.9338224E-2,-4.1022185E-2,2.4904601E-1,-3.7938568E-1,-1.807078E-1,-7.327976E-1,-2.2922014E-1,-4.9526748E-1,1.1318316E-3,-3.9402157E-1,-2.8947693E-1,-2.9975891E-2,-6.3934284E-1,-1.7394225E-1,2.5949994E-1,2.7155025E-2,1.6997693E-1,5.76094E-1,-1.3464528E-1,2.8657845E-1,2.7927062E-1,-7.274139E-2,5.052535E-1,1.6289148E-1,3.246659E-1,-4.2608947E-2,-2.3669174E-1,2.2825347E-1,1.1047935E0,3.132019E-1,-1.853425E-1,1.6981669E-1,1.9940643E-1,6.4093983E-1,8.273806E-1,2.2196288E-1],"categories":[],"categories_nodes":[],"categories_segments":[],"categories_sizes":[],"default_left":[0,0,0,0,0,0,0,0,0,0,0,0,0,0,0,0,0,0,0,0,0,0,0,0,0,0,0,0,0,0,0,0,0,0,0,0,0,0,0,0,0,0,0,0,0,0,0,0,0,0,0,0,0,0,0,0,0,0,0,0,0,0,0,0,0,0,0,0,0,0,0,0,0,0,0,0,0,0,0,0,0,0,0,0,0,0,0,0,0,0,0,0,0,0,0,0,0,0,0,0,0,0,0,0,0,0,0,0,0,0,0,0,0,0,0,0,0,0,0,0,0,0,0,0,0,0,0,0,0,0,0,0,0,0,0],"id":14,"left_children":[1,3,5,7,9,11,13,15,17,19,21,23,25,27,29,31,33,35,37,-1,-1,39,41,43,45,47,49,-1,-1,-1,-1,51,53,55,57,59,61,63,65,67,69,71,73,75,77,79,81,-1,83,85,87,-1,89,-1,-1,91,93,-1,95,-1,-1,97,99,101,103,105,-1,-1,107,109,111,113,-1,-1,-1,115,117,-1,-1,119,121,123,125,127,-1,129,131,-1,133,-1,-1,-1,-1,-1,-1,-1,-1,-1,-1,-1,-1,-1,-1,-1,-1,-1,-1,-1,-1,-1,-1,-1,-1,-1,-1,-1,-1,-1,-1,-1,-1,-1,-1,-1,-1,-1,-1,-1,-1,-1,-1,-1,-1,-1,-1],"loss_changes":[1.8514973E4,2.6875972E3,3.452505E3,3.1625977E2,3.6857672E2,1.3834248E3,6.0138916E2,2.799165E2,3.395913E2,2.3231384E1,2.2393965E2,3.958794E2,5.0424414E2,2.9622852E2,5.0050354E-1,3.249353E1,2.4941211E2,9.507703E1,1.1469971E2,0E0,0E0,2.2570016E2,9.197519E1,2.1018896E2,2.030206E2,1.7135107E2,2.1418945E2,0E0,0E0,0E0,0E0,1.2623474E1,3.8978004E-1,2.5638184E1,2.9582275E1,6.244667E0,1.1792839E1,1.7875854E2,1.4068701E2,2.5214824E2,9.429437E1,9.152193E1,1.1408306E1,6.657739E1,1.20181274E2,1.3771252E2,1.4268304E2,0E0,7.422412E1,1.2599304E2,6.879614E1,0E0,1.2409546E1,0E0,0E0,2.1092773E1,7.515637E1,0E0,3.251709E1,0E0,0E0,3.3975372E0,1.0088829E0,9.089926E1,5.587256E1,4.970813E1,0E0,0E0,1.19796425E2,6.9679535E1,1.6059875E0,9.15293E1,0E0,0E0,0E0,9.204468E1,4.050298E1,0E0,0E0,6.118921E1,5.5580444E1,1.07109985E2,5.1975174E1,8.621216E1,0E0,2.9552307E1,7.356683E1,0E0,6.007422E1,0E0,0E0,0E0,0E0,0E0,0E0,0E0,0E0,0E0,0E0,0E0,0E0,0E0,0E0,0E0,0E0,0E0,0E0,0E0,0E0,0E0,0E0,0E0,0E0,0E0,0E0,0E0,0E0,0E0,0E0,0E0,0E0,0E0,0E0,0E0,0E0,0E0,0E0,0E0,0E0,0E0,0E0,0E0,0E0,0E0,0E0],"parents":[2147483647,0,0,1,1,2,2,3,3,4,4,5,5,6,6,7,7,8,8,9,9,10,10,11,11,12,12,13,13,14,14,15,15,16,16,17,17,18,18,21,21,22,22,23,23,24,24,25,25,26,26,31,31,32,32,33,33,34,34,35,35,36,36,37,37,38,38,39,39,40,40,41,41,42,42,43,43,44,44,45,