{"learner":{"attributes":{"scikit_learn":"{\"_estimator_type\": \"regressor\"}"},"feature_names":["temperature","humidity","pressure","hour","day_of_week","month","is_weekend","hour_sin","hour_cos","day_sin","day_cos","pm25_lag_1h","pm25_lag_2h","pm25_lag_3h","pm25_lag_6h","pm25_lag_12h","pm25_lag_24h","pm25_rolling_mean_6h","pm25_rolling_std_6h","pm25_rolling_mean_12h","pm25_rolling_std_12h","pm25_rolling_mean_24h","pm25_rolling_std_24h","pm10_lag_1h","pm10_lag_2h","pm10_lag_3h","pm10_lag_6h","pm10_lag_12h","pm10_lag_24h","pm10_rolling_mean_6h","pm10_rolling_std_6h","pm10_rolling_mean_12h","pm10_rolling_std_12h","pm10_rolling_mean_24h","pm10_rolling_std_24h","o3_lag_1h","o3_lag_2h","o3_lag_3h","o3_lag_6h","o3_lag_12h","o3_lag_24h","o3_rolling_mean_6h","o3_rolling_std_6h","o3_rolling_mean_12h","o3_rolling_std_12h","o3_rolling_mean_24h","o3_rolling_std_24h","no2_lag_1h","no2_lag_2h","no2_lag_3h","no2_lag_6h","no2_lag_12h","no2_lag_24h","no2_rolling_mean_6h","no2_rolling_std_6h","no2_rolling_mean_12h","no2_rolling_std_12h","no2_rolling_mean_24h","no2_rolling_std_24h","so2_lag_1h","so2_lag_2h","so2_lag_3h","so2_lag_6h","so2_lag_12h","so2_lag_24h","so2_rolling_mean_6h","so2_rolling_std_6h","so2_rolling_mean_12h","so2_rolling_std_12h","so2_rolling_mean_24h","so2_rolling_std_24h","co_lag_1h","co_lag_2h","co_lag_3h","co_lag_6h","co_lag_12h","co_lag_24h","co_rolling_mean_6h","co_rolling_std_6h","co_rolling_mean_12h","co_rolling_std_12h","co_rolling_mean_24h","co_rolling_std_24h","aqi_lag_1h","aqi_lag_2h","aqi_lag_3h","aqi_lag_6h","aqi_lag_12h","aqi_lag_24h"],"feature_types":["float","float","float","int","int","int","int","float","float","float","float","float","float","float","float","float","float","float","float","float","float","float","float","float","float","float","float","float","float","float","float","float","float","float","float","float","float","float","float","float","float","float","float","float","float","float","float","float","float","float","float","float","float","float","float","float","float","float","float","float","float","float","float","float","float","float","float","float","float","float","float","float","float","float","float","float","float","float","float","float","float","float","float","float","float","float","float","float","float"],"gradient_booster":{"model":{"gbtree_model_param":{"num_parallel_tree":"1","num_trees":"150"},"iteration_indptr":[0,1,2,3,4,5,6,7,8,9,10,11,12,13,14,15,16,17,18,19,20,21,22,23,24,25,26,27,28,29,30,31,32,33,34,35,36,37,38,39,40,41,42,43,44,45,46,47,48,49,50,51,52,53,54,55,56,57,58,59,60,61,62,63,64,65,66,67,68,69,70,71,72,73,74,75,76,77,78,79,80,81,82,83,84,85,86,87,88,89,90,91,92,93,94,95,96,97,98,99,100,101,102,103,104,105,106,107,108,109,110,111,112,113,114,115,116,117,118,119,120,121,122,123,124,125,126,127,128,129,130,131,132,133,134,135,136,137,138,139,140,141,142,143,144,145,146,147,148,149,150],"tree_info":[0,0,0,0,0,0,0,0,0,0,0,0,0,0,0,0,0,0,0,0,0,0,0,0,0,0,0,0,0,0,0,0,0,0,0,0,0,0,0,0,0,0,0,0,0,0,0,0,0,0,0,0,0,0,0,0,0,0,0,0,0,0,0,0,0,0,0,0,0,0,0,0,0,0,0,0,0,0,0,0,0,0,0,0,0,0,0,0,0,0,0,0,0,0,0,0,0,0,0,0,0,0,0,0,0,0,0,0,0,0,0,0,0,0,0,0,0,0,0,0,0,0,0,0,0,0,0,0,0,0,0,0,0,0,0,0,0,0,0,0,0,0,0,0,0,0,0,0,0,0],"trees":[{"base_weights":[-5.652236E-11,-6.208882E-5,3.6756546E-4,-3.4170476E-4,6.014103E-4,-5.678479E-5,-2.2066763E-4,3.6216254E-4,1.0263867E-3,5.494285E-5,-2.391938E-4,6.386506E-7,4.4300378E-4,1.6600893E-4,9.077211E-4,-3.8748165E-4,-1.3245574E-4,5.8529757E-5,3.3662393E-4,-3.9910733E-6,9.790069E-4,2.3437442E-6,-3.361786E-5,-1.2274608E-5,6.845238E-5,1.5937496E-5,4.741864E-5,8.2661497E-4,1.5042969E-3,6.877921E-5,-1.0660714E-5,3.9119048E-5,1.408988E-4],"categories":[],"categories_nodes":[],"categories_segments":[],"categories_sizes":[],"default_left":[0,0,0,0,0,0,0,0,0,0,0,0,0,0,0,0,0,0,0,0,0,0,0,0,0,0,0,0,0,0,0,0,0],"id":0,"left_children":[1,3,-1,5,7,-1,9,11,13,-1,15,-1,17,-1,19,21,23,-1,25,-1,27,-1,-1,-1,-1,-1,-1,29,31,-1,-1,-1,-1],"loss_changes":[1.2837198E-4,8.257856E-5,0E0,1.3788889E-5,1.3049339E-5,0E0,4.1486346E-6,2.4588417E-6,3.9654115E-6,0E0,3.6365882E-6,0E0,1.9029403E-6,0E0,3.0524534E-6,1.335974E-6,2.9709465E-6,0E0,1.7470252E-6,0E0,2.0385742E-6,0E0,0E0,0E0,0E0,0E0,0E0,1.1956326E-6,1.2257497E-6,0E0,0E0,0E0,0E0],"parents":[2147483647,0,0,1,1,3,3,4,4,6,6,7,7,8,8,10,10,12,12,14,14,15,15,16,16,18,18,20,20,27,27,28,28],"right_children":[2,4,-1,6,8,-1,10,12,14,-1,16,-1,18,-1,20,22,24,-1,26,-1,28,-1,-1,-1,-1,-1,-1,30,32,-1,-1,-1,-1],"split_conditions":[6.933333E-1,1.6E-3,3.6756546E-4,9E-4,2.3E-3,-5.678479E-5,8.333333E0,3.2E1,9.733333E-3,5.494285E-5,1.2E-3,6.386506E-7,5E0,1.6600893E-4,2.3E1,1E1,7.2E-1,5.8529757E-5,5E-1,-3.9910733E-6,6.5E-1,2.3437442E-6,-3.361786E-5,-1.2274608E-5,6.845238E-5,1.5937496E-5,4.741864E-5,1.0234E3,5.4633163E-4,6.877921E-5,-1.0660714E-5,3.9119048E-5,1.408988E-4],"split_indices":[77,59,0,59,59,0,17,23,55,0,59,0,3,0,26,12,71,0,75,0,71,0,0,0,0,0,0,2,70,0,0,0,0],"split_type":[0,0,0,0,0,0,0,0,0,0,0,0,0,0,0,0,0,0,0,0,0,0,0,0,0,0,0,0,0,0,0,0,0],"sum_hessian":[4.48E2,4.43E2,5E0,3.12E2,1.31E2,7.6E1,2.36E2,8.5E1,4.6E1,4E0,2.32E2,1.6E1,6.9E1,3E0,4.3E1,9.6E1,1.36E2,1.7E1,5.2E1,3E0,4E1,7E0,8.9E1,1.34E2,2E0,3.5E1,1.7E1,3.3E1,7E0,3.2E1,1E0,2E0,5E0],"tree_param":{"num_deleted":"0","num_feature":"89","num_nodes":"33","size_leaf_vector":"1"}},{"base_weights":[2.034035E-6,-5.589257E-5,3.4306108E-4,-3.142947E-4,5.572571E-4,-5.2301002E-5,-2.0267733E-4,3.3461422E-4,9.5278973E-4,5.1426512E-5,-2.1995143E-4,2.2241221E-4,5.715589E-4,1.5604838E-4,8.404249E-4,-2.3237552E-4,6.4801585E-5,2.8293428E-4,-1.215867E-5,2.3768542E-5,6.1705075E-5,6.953258E-4,1.4064554E-3,-3.5680554E-4,-1.1299913E-5,1.37383695E-5,5.0178333E-4,-1.9334764E-5,7.557745E-4,3.70327E-5,1.3150554E-4,2.1796789E-6,-3.0958316E-5,5.3586475E-5,-2.8397608E-6,6.4055035E-5,7.8415184E-7],"categories":[],"categories_nodes":[],"categories_segments":[],"categories_sizes":[],"default_left":[0,0,0,0,0,0,0,0,0,0,0,0,0,0,0,0,0,0,0,0,0,0,0,0,0,0,0,0,0,0,0,0,0,0,0,0,0],"id":1,"left_children":[1,3,-1,5,7,-1,9,11,13,-1,15,17,19,-1,21,23,-1,25,-1,-1,-1,27,29,31,-1,-1,33,-1,35,-1,-1,-1,-1,-1,-1,-1,-1],"loss_changes":[1.1172043E-4,7.052215E-5,0E0,1.1727225E-5,1.1305434E-5,0E0,3.6028741E-6,2.159246E-6,3.63027E-6,0E0,3.1698E-6,1.4025534E-6,1.2510609E-6,0E0,2.6357993E-6,2.568885E-6,0E0,1.1793545E-6,0E0,0E0,0E0,2.278377E-6,1.0307758E-6,1.1345937E-6,0E0,0E0,1.5586843E-6,0E0,1.164799E-6,0E0,0E0,0E0,0E0,0E0,0E0,0E0,0E0],"parents":[2147483647,0,0,1,1,3,3,4,4,6,6,7,7,8,8,10,10,11,11,12,12,14,14,15,15,17,17,21,21,22,22,23,23,26,26,28,28],"right_children":[2,4,-1,6,8,-1,10,12,14,-1,16,18,20,-1,22,24,-1,26,-1,-1,-1,28,30,32,-1,-1,34,-1,36,-1,-1,-1,-1,-1,-1,-1,-1],"split_conditions":[6.933333E-1,1.6E-3,3.4306108E-4,9E-4,2.3E-3,-5.2301002E-5,8.333333E0,5.3E-1,9.733333E-3,5.1426512E-5,7.2E-1,1.1468996E-1,2.1E1,1.5604838E-4,6.5E-1,1.2E-3,6.4801585E-5,4.1833002E-4,-1.215867E-5,2.3768542E-5,6.1705075E-5,2.9E1,5.4633163E-4,1E1,-1.1299913E-5,1.37383695E-5,2E-3,-1.9334764E-5,7.44E-2,3.70327E-5,1.3150554E-4,2.1796789E-6,-3.0958316E-5,5.3586475E-5,-2.8397608E-6,6.4055035E-5,7.8415184E-7],"split_indices":[77,59,0,59,59,0,17,71,55,0,71,80,15,0,71,59,0,66,0,0,0,25,70,12,0,0,61,0,40,0,0,0,0,0,0,0,0],"split_type":[0,0,0,0,0,0,0,0,0,0,0,0,0,0,0,0,0,0,0,0,0,0,0,0,0,0,0,0,0,0,0,0,0,0,0,0,0],"sum_hessian":[4.48E2,4.43E2,5E0,3.12E2,1.31E2,7.6E1,2.36E2,8.5E1,4.6E1,4E0,2.32E2,5.9E1,2.6E1,3E0,4.3E1,2.3E2,2E0,5.1E1,8E0,1.2E1,1.4E1,3.6E1,7E0,9.6E1,1.34E2,3.5E1,1.6E1,2E0,3.4E1,2E0,5E0,7E0,8.9E1,1.2E1,4E0,3.2E1,2E0],"tree_param":{"num_deleted":"0","num_feature":"89","num_nodes":"37","size_leaf_vector":"1"}},{"base_weights":[3.8196545E-6,-5.022354E-5,4.0023797E-3,-2.890749E-4,5.165242E-4,1.6937133E-4,4.1455228E-4,-4.8171263E-5,-1.861418E-4,3.0944738E-4,8.844408E-4,4.813522E-5,-2.0224917E-4,4.9595114E-6,4.0423594E-4,1.4668549E-4,7.780555E-4,-2.1395893E-4,6.1345505E-5,5.674291E-5,3.0882895E-4,6.4092956E-4,1.052005E-4,-2.6284622E-5,-1.0402612E-5,3.828917E-6,3.567778E-5,-1.830358E-5,6.9716503E-4,5.8166326E-5,-1.2796489E-5],"categories":[],"categories_nodes":[],"categories_segments":[],"categories_sizes":[],"default_left":[0,0,0,0,0,0,0,0,0,0,0,0,0,0,0,0,0,0,0,0,0,0,0,0,0,0,0,0,0,0,0],"id":2,"left_children":[1,3,5,7,9,-1,-1,-1,11,13,15,-1,17,-1,19,-1,21,23,-1,-1,25,27,-1,-1,-1,-1,-1,-1,29,-1,-1],"loss_changes":[9.7227654E-5,6.0252914E-5,2.371271E-6,9.97429E-6,9.782994E-6,0E0,0E0,0E0,3.1291984E-6,1.9921354E-6,3.3191245E-6,0E0,2.8080476E-6,0E0,1.5853957E-6,0E0,2.3968896E-6,2.179001E-6,0E0,0E0,1.7323628E-6,1.9691543E-6,0E0,0E0,0E0,0E0,0E0,0E0,1.0136991E-6,0E0,0E0],"parents":[2147483647,0,0,1,1,2,2,3,3,4,4,8,8,9,9,10,10,12,12,14,14,16,16,17,17,20,20,21,21,28,28],"right_children":[2,4,6,8,10,-1,-1,-1,12,14,16,-1,18,-1,20,-1,22,24,-1,-1,26,28,-1,-1,-1,-1,-1,-1,30,-1,-1],"split_conditions":[6.933333E-1,1.6E-3,1.8051064E1,9E-4,2.3E-3,1.6937133E-4,4.1455228E-4,-4.8171263E-5,8.333333E0,1.2466666E-2,9.733333E-3,4.813522E-5,7.2E-1,4.9595114E-6,1.12E-2,1.4668549E-4,6.5E-1,1.2E-3,6.1345505E-5,5.674291E-5,1.28E-2,2.9E1,1.052005E-4,-2.6284622E-5,-1.0402612E-5,3.828917E-6,3.567778E-5,-1.830358E-5,1.0234E3,5.8166326E-5,-1.2796489E-5],"split_indices":[77,59,20,59,59,0,0,0,17,53,55,0,71,0,50,0,71,59,0,0,51,25,0,0,0,0,0,0,2,0,0],"split_type":[0,0,0,0,0,0,0,0,0,0,0,0,0,0,0,0,0,0,0,0,0,0,0,0,0,0,0,0,0,0,0],"sum_hessian":[4.48E2,4.43E2,5E0,3.12E2,1.31E2,3E0,2E0,7.6E1,2.36E2,8.5E1,4.6E1,4E0,2.32E2,2.4E1,6.1E1,3E0,4.3E1,2.3E2,2E0,1.3E1,4.8E1,3.6E1,7E0,9.6E1,1.34E2,1.7E1,3.1E1,2E0,3.4E1,3.3E1,1E0],"tree_param":{"num_deleted":"0","num_feature":"89","num_nodes":"31","size_leaf_vector":"1"}},{"base_weights":[5.716106E-6,-4.5293982E-5,3.77951E-3,-2.6587024E-4,4.7808225E-4,1.5920907E-4,3.9244283E-4,-4.4367607E-5,-1.709433E-4,2.8586845E-4,8.196207E-4,4.5054567E-5,-1.859634E-4,4.57862E-6,3.7344947E-4,1.3788436E-4,7.188171E-4,-1.9700103E-4,5.807374E-5,1.9917925E-5,5.8845134E-4,3.8495738E-4,8.9584565E-4,-2.1832864E-5,-6.9928064E-6,5.9911803E-5,2.8622849E-6,5.8601814E-5,1.0302666E-5,7.523198E-5,-1.2284629E-5],"categories":[],"categories_nodes":[],"categories_segments":[],"categories_sizes":[],"default_left":[0,0,0,0,0,0,0,0,0,0,0,0,0,0,0,0,0,0,0,0,0,0,0,0,0,0,0,0,0,0,0],"id":3,"left_children":[1,3,5,7,9,-1,-1,-1,11,13,15,-1,17,-1,19,-1,21,23,-1,-1,25,27,29,-1,-1,-1,-1,-1,-1,-1,-1],"loss_changes":[8.6604385E-5,5.1384413E-5,2.326873E-6,8.483828E-6,8.431287E-6,0E0,0E0,0E0,2.718045E-6,1.7007037E-6,3.0437077E-6,0E0,2.4881638E-6,0E0,1.5127616E-6,0E0,2.255656E-6,1.8978399E-6,0E0,0E0,1.9240392E-6,1.4192956E-6,1.4535526E-6,0E0,0E0,0E0,0E0,0E0,0E0,0E0,0E0],"parents":[2147483647,0,0,1,1,2,2,3,3,4,4,8,8,9,9,10,10,12,12,14,14,16,16,17,17,20,20,21,21,22,22],"right_children":[2,4,6,8,10,-1,-1,-1,12,14,16,-1,18,-1,20,-1,22,24,-1,-1,26,28,30,-1,-1,-1,-1,-1,-1,-1,-1],"split_conditions":[6.933333E-1,1.6E-3,1.8051064E1,9E-4,2.3E-3,1.5920907E-4,3.9244283E-4,-4.4367607E-5,8.333333E0,1.2466666E-2,9.733333E-3,4.5054567E-5,7.2E-1,4.57862E-6,4.1673332E-4,1.3788436E-4,5.1E-1,1.3E-3,5.807374E-5,1.9917925E-5,2E-3,1.7E1,1.0234E3,-2.1832864E-5,-6.9928064E-6,5.9911803E-5,2.8622849E-6,5.8601814E-5,1.0302666E-5,7.523198E-5,-1.2284629E-5],"split_indices":[77,59,20,59,59,0,0,0,17,53,55,0,71,0,66,0,71,59,0,0,61,16,2,0,0,0,0,0,0,0,0],"split_type":[0,0,0,0,0,0,0,0,0,0,0,0,0,0,0,0,0,0,0,0,0,0,0,0,0,0,0,0,0,0,0],"sum_hessian":[4.48E2,4.43E2,5E0,3.12E2,1.31E2,3E0,2E0,7.6E1,2.36E2,8.5E1,4.6E1,4E0,2.32E2,2.4E1,6.1E1,3E0,4.3E1,2.3E2,2E0,4E1,2.1E1,1.6E1,2.7E1,1.35E2,9.5E1,1.6E1,5E0,6E0,1E1,2.6E1,1E0],"tree_param":{"num_deleted":"0","num_feature":"89","num_nodes":"31","size_leaf_vector":"1"}},{"base_weights":[7.349239E-6,-4.079896E-5,3.5690912E-3,-2.3296678E-4,4.7410326E-4,1.4965651E-4,3.7151258E-4,-4.0864295E-5,-1.4576351E-4,2.8875147E-4,7.5979007E-4,4.2171076E-5,-1.589551E-4,1.643666E-4,4.698499E-4,1.296113E-4,6.643084E-4,-2.247491E-5,-7.793389E-5,2.2423796E-5,-2.5233894E-6,2.7727157E-5,6.602686E-5,5.397986E-4,1.1571278E-3,-7.449771E-6,5.4976474E-5,-1.787686E-5,4.7183836E-5,2.5434561E-5,1.1070968E-4],"categories":[],"categories_nodes":[],"categories_segments":[],"categories_sizes":[],"default_left":[0,0,0,0,0,0,0,0,0,0,0,0,0,0,0,0,0,0,0,0,0,0,0,0,0,0,0,0,0,0,0],"id":4,"left_children":[1,3,5,7,9,-1,-1,-1,11,13,15,-1,17,19,21,-1,23,-1,25,-1,-1,-1,-1,27,29,-1,-1,-1,-1,-1,-1],"loss_changes":[7.714528E-5,4.4043198E-5,2.2653185E-6,7.775507E-6,6.187871E-6,0E0,0E0,0E0,2.2851987E-6,1.6122158E-6,2.7846727E-6,0E0,2.389574E-6,1.0535883E-6,1.0284684E-6,0E0,2.0752614E-6,0E0,1.7839227E-6,0E0,0E0,0E0,0E0,1.54381E-6,1.0822787E-6,0E0,0E0,0E0,0E0,0E0,0E0],"parents":[2147483647,0,0,1,1,2,2,3,3,4,4,8,8,9,9,10,10,12,12,13,13,14,14,16,16,18,18,23,23,24,24],"right_children":[2,4,6,8,10,-1,-1,-1,12,14,16,-1,18,20,22,-1,24,-1,26,-1,-1,-1,-1,28,30,-1,-1,-1,-1,-1,-1],"split_conditions":[6.933333E-1,1.7E-3,1.8051064E1,9E-4,2.3E-3,1.4965651E-4,3.7151258E-4,-4.0864295E-5,8.333333E0,5E-1,9.733333E-3,4.2171076E-5,1.2E-3,2E-3,4.5350488E-4,1.296113E-4,6.5E-1,-2.247491E-5,7.2E-1,2.2423796E-5,-2.5233894E-6,2.7727157E-5,6.602686E-5,2.9E1,5.4633163E-4,-7.449771E-6,5.4976474E-5,-1.787686E-5,4.7183836E-5,2.5434561E-5,1.1070968E-4],"split_indices":[77,59,20,59,59,0,0,0,17,71,55,0,59,61,66,0,71,0,71,0,0,0,0,25,70,0,0,0,0,0,0],"split_type":[0,0,0,0,0,0,0,0,0,0,0,0,0,0,0,0,0,0,0,0,0,0,0,0,0,0,0,0,0,0,0],"sum_hessian":[4.48E2,4.43E2,5E0,3.23E2,1.2E2,3E0,2E0,7.6E1,2.47E2,7.4E1,4.6E1,4E0,2.43E2,4.5E1,2.9E1,3E0,4.3E1,9.6E1,1.47E2,2.8E1,1.7E1,2.3E1,6E0,3.6E1,7E0,1.45E2,2E0,2E0,3.4E1,2E0,5E0],"tree_param":{"num_deleted":"0","num_feature":"89","num_nodes":"31","size_leaf_vector":"1"}},{"base_weights":[8.891029E-6,-3.6555135E-5,3.3704252E-3,-2.2539023E-4,4.1148986E-4,1.4067712E-4,3.5169855E-4,-3.7637605E-5,-1.4481413E-4,2.4614274E-4,7.052848E-4,3.947212E-5,-1.5788822E-4,2.8225261E-4,-1.6136386E-5,1.2183463E-4,6.14924E-4,-2.0993776E-4,1.0374364E-5,4.1926436E-5,2.0359163E-4,4.9740676E-4,8.652605E-5,-2.9547577E-5,-2.0063062E-5,-5.6388594E-6,2.780588E-5,7.077661E-6,3.2710468E-5,-1.6923428E-5,4.351698E-5,-1.272124E-5,2.044912E-5],"categories":[],"categories_nodes":[],"categories_segments":[],"categories_sizes":[],"default_left":[0,0,0,0,0,0,0,0,0,0,0,0,0,0,0,0,0,0,0,0,0,0,0,0,0,0,0,0,0,0,0,0,0],"id":5,"left_children":[1,3,5,7,9,-1,-1,-1,11,13,15,-1,17,19,-1,-1,21,23,25,-1,27,29,-1,31,-1,-1,-1,-1,-1,-1,-1,-1,-1],"loss_changes":[6.871642E-5,3.7658087E-5,2.1907472E-6,6.1128594E-6,6.2387153E-6,0E0,0E0,0E0,2.0554526E-6,1.4476996E-6,2.5360296E-6,0E0,2.0427897E-6,1.4150955E-6,0E0,0E0,1.8749615E-6,1.3042772E-6,1.5513929E-6,0E0,1.4290765E-6,1.3362742E-6,0E0,1.295902E-6,0E0,0E0,0E0,0E0,0E0,0E0,0E0,0E0,0E0],"parents":[2147483647,0,0,1,1,2,2,3,3,4,4,8,8,9,9,10,10,12,12,13,13,16,16,17,17,18,18,20,20,21,21,23,23],"right_children":[2,4,6,8,10,-1,-1,-1,12,14,16,-1,18,20,-1,-1,22,24,26,-1,28,30,-1,32,-1,-1,-1,-1,-1,-1,-1,-1,-1],"split_conditions":[6.933333E-1,1.6E-3,1.8051064E1,9E-4,2.3E-3,1.4067712E-4,3.5169855E-4,-3.7637605E-5,8.333333E0,2.47E1,9.733333E-3,3.947212E-5,4.6E-1,5E0,-1.6136386E-5,1.2183463E-4,6.5E-1,1.4833333E1,1.15945235E-1,4.1926436E-5,2E-3,2.9E1,8.652605E-5,2.62E-2,-2.0063062E-5,-5.6388594E-6,2.780588E-5,7.077661E-6,3.2710468E-5,-1.6923428E-5,4.351698E-5,-1.272124E-5,2.044912E-5],"split_indices":[77,59,20,59,59,0,0,0,17,0,55,0,71,3,0,0,71,17,82,0,59,25,0,39,0,0,0,0,0,0,0,0,0],"split_type":[0,0,0,0,0,0,0,0,0,0,0,0,0,0,0,0,0,0,0,0,0,0,0,0,0,0,0,0,0,0,0,0,0],"sum_hessian":[4.48E2,4.43E2,5E0,3.12E2,1.31E2,3E0,2E0,7.6E1,2.36E2,8.5E1,4.6E1,4E0,2.32E2,7.9E1,6E0,3E0,4.3E1,1.77E2,5.5E1,1.8E1,6.1E1,3.6E1,7E0,3.3E1,1.44E2,4.5E1,1E1,4E1,2.1E1,2E0,3.4E1,2.3E1,1E1],"tree_param":{"num_deleted":"0","num_feature":"89","num_nodes":"33","size_leaf_vector":"1"}},{"base_weights":[9.971658E-6,-3.292759E-5,3.182854E-3,-1.9710514E-4,4.0696046E-4,1.3223648E-4,3.329413E-4,-3.4665696E-5,-1.2296908E-4,2.4680997E-4,6.5386103E-4,-2.0994461E-4,-3.8449532E-5,1.1063884E-5,3.239737E-5,1.1452455E-4,5.6830095E-4,-1.9703013E-5,4.2698863E-5,3.776993E-5,-5.889196E-5,4.5833297E-4,1.0058653E-3,-1.2842815E-5,2.8459619E-5,1.9714755E-5,5.1688694E-5,1.9463332E-5,9.756063E-5,-2.8499E-6,2.6011498E-5],"categories":[],"categories_nodes":[],"categories_segments":[],"categories_sizes":[],"default_left":[0,0,0,0,0,0,0,0,0,0,0,0,0,0,0,0,0,0,0,0,0,0,0,0,0,0,0,0,0,0,0],"id":6,"left_children":[1,3,5,7,9,-1,-1,-1,11,13,15,17,19,-1,-1,-1,21,-1,-1,-1,23,25,27,-1,29,-1,-1,-1,-1,-1,-1],"loss_changes":[6.1220104E-5,3.214578E-5,2.1066044E-6,5.6206436E-6,4.6231107E-6,0E0,0E0,0E0,1.8150085E-6,1.2311334E-6,2.3138127E-6,3.4288219E-6,1.3533497E-6,0E0,0E0,0E0,1.6561753E-6,0E0,0E0,0E0,1.0966484E-6,1.3129848E-6,1.0066497E-6,0E0,1.2854216E-6,0E0,0E0,0E0,0E0,0E0,0E0],"parents":[2147483647,0,0,1,1,2,2,3,3,4,4,8,8,9,9,10,10,11,11,12,12,16,16,20,20,21,21,22,22,24,24],"right_children":[2,4,6,8,10,-1,-1,-1,12,14,16,18,20,-1,-1,-1,22,-1,-1,-1,24,26,28,-1,30,-1,-1,-1,-1,-1,-1],"split_conditions":[6.933333E-1,1.7E-3,1.8051064E1,9E-4,2.3E-3,1.3223648E-4,3.329413E-4,-3.4665696E-5,1.2333334E-3,5E-1,9.733333E-3,4.070217E-4,1.6E1,1.1063884E-5,3.239737E-5,1.1452455E-4,6.5E-1,-1.9703013E-5,4.2698863E-5,3.776993E-5,1.1E-2,7.6E1,5.4633163E-4,-1.2842815E-5,6.774954E-2,1.9714755E-5,5.1688694E-5,1.9463332E-5,9.756063E-5,-2.8499E-6,2.6011498E-5],"split_indices":[77,59,20,59,59,0,0,0,65,71,55,66,26,0,0,0,71,0,0,0,47,24,70,0,78,0,0,0,0,0,0],"split_type":[0,0,0,0,0,0,0,0,0,0,0,0,0,0,0,0,0,0,0,0,0,0,0,0,0,0,0,0,0,0,0],"sum_hessian":[4.48E2,4.43E2,5E0,3.23E2,1.2E2,3E0,2E0,7.6E1,2.47E2,7.4E1,4.6E1,1.21E2,1.26E2,4.5E1,2.9E1,3E0,4.3E1,1.16E2,5E0,4E0,1.22E2,3.6E1,7E0,5.6E1,6.6E1,1.8E1,1.8E1,2E0,5E0,5.5E1,1.1E1],"tree_param":{"num_deleted":"0","num_feature":"89","num_nodes":"31","size_leaf_vector":"1"}},{"base_weights":[1.10626015E-5,-2.9431134E-5,3.0057554E-3,-1.9091625E-4,3.537073E-4,1.243023E-4,3.1518444E-4,-3.1928455E-5,-1.2247109E-4,2.1062161E-4,6.07998E-4,3.5526573E-5,-1.3410325E-4,-2.8026163E-6,2.6727162E-4,1.0765308E-4,5.271194E-4,-1.431749E-4,4.872914E-5,1.3025211E-5,4.2759808E-4,5.8577885E-4,-3.806451E-6,-1.6249825E-5,-4.5405814E-6,4.28033E-5,-3.0101337E-6,3.777985E-5,8.4282496E-5],"categories":[],"categories_nodes":[],"categories_segments":[],"categories_sizes":[],"default_left":[0,0,0,0,0,0,0,0,0,0,0,0,0,0,0,0,0,0,0,0,0,0,0,0,0,0,0,0,0],"id":7,"left_children":[1,3,5,7,9,-1,-1,-1,11,13,15,-1,17,-1,19,-1,21,23,-1,-1,25,27,-1,-1,-1,-1,-1,-1,-1],"loss_changes":[5.4537035E-5,2.753832E-5,2.0157204E-6,4.411235E-6,4.67481E-6,0E0,0E0,0E0,1.6214401E-6,1.2061669E-6,2.094761E-6,0E0,1.6581434E-6,0E0,1.10268E-6,0E0,1.5111837E-6,1.1851798E-6,0E0,0E0,1.3697336E-6,1.6266422E-6,0E0,0E0,0E0,0E0,0E0,0E0,0E0],"parents":[2147483647,0,0,1,1,2,2,3,3,4,4,8,8,9,9,10,10,12,12,14,14,16,16,17,17,20,20,21,21],"right_children":[2,4,6,8,10,-1,-1,-1,12,14,16,-1,18,-1,20,-1,22,24,-1,-1,26,28,-1,-1,-1,-1,-1,-1,-1],"split_conditions":[6.933333E-1,1.6E-3,1.8051064E1,9E-4,2.3E-3,1.243023E-4,3.1518444E-4,-3.1928455E-5,8.333333E0,3.2E1,9.733333E-3,3.5526573E-5,7.2E-1,-2.8026163E-6,3.9496835E-4,1.0765308E-4,1.6494949E-1,1.3E-3,4.872914E-5,1.3025211E-5,2E-3,6.5E-1,-3.806451E-6,-1.6249825E-5,-4.5405814E-6,4.28033E-5,-3.0101337E-6,3.777985E-5,8.4282496E-5],"split_indices":[77,59,20,59,59,0,0,0,17,23,55,0,71,0,66,0,80,59,0,0,61,71,0,0,0,0,0,0,0],"split_type":[0,0,0,0,0,0,0,0,0,0,0,0,0,0,0,0,0,0,0,0,0,0,0,0,0,0,0,0,0],"sum_hessian":[4.48E2,4.43E2,5E0,3.12E2,1.31E2,3E0,2E0,7.6E1,2.36E2,8.5E1,4.6E1,4E0,2.32E2,1.6E1,6.9E1,3E0,4.3E1,2.3E2,2E0,4.3E1,2.6E1,3.9E1,4E0,1.35E2,9.5E1,2.1E1,5E0,3.3E1,6E0],"tree_param":{"num_deleted":"0","num_feature":"89","num_nodes":"29","size_leaf_vector":"1"}},{"base_weights":[1.1841162E-5,-2.6384178E-5,2.8385427E-3,-1.668517E-4,3.499618E-4,1.16844174E-4,2.983746E-4,-2.719214E-4,-4.3158074E-5,2.1106182E-4,5.641648E-4,1.1844586E-5,-3.009935E-4,-4.434376E-6,4.6130255E-5,3.0075715E-4,4.673244E-6,1.01193895E-4,4.8763747E-4,-3.9726227E-5,-2.028001E-5,1.3894851E-5,4.2888227E-5,2.3275093E-4,6.249744E-4,4.3690605E-5,9.73365E-7,5.3162395E-5,-1.7721057E-5],"categories":[],"categories_nodes":[],"categories_segments":[],"categories_sizes":[],"default_left":[0,0,0,0,0,0,0,0,0,0,0,0,0,0,0,0,0,0,0,0,0,0,0,0,0,0,0,0,0],"id":8,"left_children":[1,3,5,7,9,-1,-1,11,13,15,17,-1,19,-1,-1,21,-1,-1,23,-1,-1,-1,-1,25,27,-1,-1,-1,-1],"loss_changes":[4.8590075E-5,2.3530185E-5,1.9205E-6,4.1991143E-6,3.4810128E-6,0E0,0E0,2.1812548E-6,1.17283E-6,1.0093054E-6,1.9036534E-6,0E0,1.3975068E-6,0E0,0E0,1.3124563E-6,0E0,0E0,1.3947711E-6,0E0,0E0,0E0,0E0,1.1685131E-6,1.0847361E-6,0E0,0E0,0E0,0E0],"parents":[2147483647,0,0,1,1,2,2,3,3,4,4,7,7,8,8,9,9,10,10,12,12,15,15,18,18,23,23,24,24],"right_children":[2,4,6,8,10,-1,-1,12,14,16,18,-1,20,-1,-1,22,-1,-1,24,-1,-1,-1,-1,26,28,-1,-1,-1,-1],"split_conditions":[6.933333E-1,1.7E-3,1.8051064E1,1.2E-3,2.3E-3,1.16844174E-4,2.983746E-4,1E1,7.2E-1,2E-3,9.733333E-3,1.1844586E-5,7E-4,-4.434376E-6,4.6130255E-5,4.5350488E-4,4.673244E-6,1.01193895E-4,5.1E-1,-3.9726227E-5,-2.028001E-5,1.3894851E-5,4.2888227E-5,1.7E1,1.0234E3,4.3690605E-5,9.73365E-7,5.3162395E-5,-1.7721057E-5],"split_indices":[77,59,20,59,59,0,0,12,71,61,55,0,59,0,0,66,0,0,71,0,0,0,0,16,2,0,0,0,0],"split_type":[0,0,0,0,0,0,0,0,0,0,0,0,0,0,0,0,0,0,0,0,0,0,0,0,0,0,0,0,0],"sum_hessian":[4.48E2,4.43E2,5E0,3.23E2,1.2E2,3E0,2E0,1.74E2,1.49E2,7.4E1,4.6E1,1.1E1,1.63E2,1.47E2,2E0,4.6E1,2.8E1,3E0,4.3E1,3E1,1.33E2,3.1E1,1.5E1,1.6E1,2.7E1,6E0,1E1,2.6E1,1E0],"tree_param":{"num_deleted":"0","num_feature":"89","num_nodes":"29","size_leaf_vector":"1"}},{"base_weights":[1.234489E-5,-2.3741259E-5,2.6806626E-3,-1.6190147E-4,3.0404577E-4,1.0983351E-4,2.824613E-4,-3.188171E-5,-1.15401395E-4,1.8090996E-4,5.22889E-4,2.975735E-5,-1.2628824E-4,2.033636E-8,2.5083713E-4,8.096995E-5,4.266076E-4,-1.3367184E-4,4.366997E-5,4.2845062E-5,1.857828E-4,-1.1571475E-5,4.922738E-4,-1.5764426E-5,-5.419084E-6,3.1357104E-6,2.8413368E-5,4.7290072E-5,9.524239E-6],"categories":[],"categories_nodes":[],"categories_segments":[],"categories_sizes":[],"default_left":[0,0,0,0,0,0,0,0,0,0,0,0,0,0,0,0,0,0,0,0,0,0,0,0,0,0,0,0,0],"id":9,"left_children":[1,3,5,7,9,-1,-1,-1,11,13,15,-1,17,-1,19,-1,21,23,-1,-1,25,-1,27,-1,-1,-1,-1,-1,-1],"loss_changes":[4.329754E-5,2.0156705E-5,1.8228493E-6,3.3979004E-6,3.4624654E-6,0E0,0E0,0E0,1.442429E-6,1.0863523E-6,1.7821212E-6,0E0,1.3534163E-6,0E0,1.048907E-6,0E0,1.6091899E-6,1.0564968E-6,0E0,0E0,1.2772098E-6,0E0,1.2946903E-6,0E0,0E0,0E0,0E0,0E0,0E0],"parents":[2147483647,0,0,1,1,2,2,3,3,4,4,8,8,9,9,10,10,12,12,14,14,16,16,17,17,20,20,22,22],"right_children":[2,4,6,8,10,-1,-1,-1,12,14,16,-1,18,-1,20,-1,22,24,-1,-1,26,-1,28,-1,-1,-1,-1,-1,-1],"split_conditions":[6.933333E-1,1.6E-3,1.8051064E1,8E-4,2.3E-3,1.0983351E-4,2.824613E-4,-3.188171E-5,1.6E1,1.2466666E-2,7E-3,2.975735E-5,7.2E-1,2.033636E-8,1.03E-2,8.096995E-5,3.6333334E-1,1.1E-2,4.366997E-5,4.2845062E-5,1.42E-2,-1.1571475E-5,3E-3,-1.5764426E-5,-5.419084E-6,3.1357104E-6,2.8413368E-5,4.7290072E-5,9.524239E-6],"split_indices":[77,59,20,59,59,0,0,0,26,53,50,0,71,0,50,0,77,47,0,0,51,0,60,0,0,0,0,0,0],"split_type":[0,0,0,0,0,0,0,0,0,0,0,0,0,0,0,0,0,0,0,0,0,0,0,0,0,0,0,0,0],"sum_hessian":[4.48E2,4.43E2,5E0,3.12E2,1.31E2,3E0,2E0,5E1,2.62E2,8.5E1,4.6E1,5E0,2.57E2,2.4E1,6.1E1,6E0,4E1,2.55E2,2E0,1E1,5.1E1,4E0,3.6E1,1.29E2,1.26E2,2.8E1,2.3E1,2.8E1,8E0],"tree_param":{"num_deleted":"0","num_feature":"89","num_nodes":"29","size_leaf_vector":"1"}},{"base_weights":[1.2723189E-5,-2.1344234E-5,2.531592E-3,-1.4147161E-4,3.0049554E-4,1.0324351E-4,2.6739668E-4,-2.3278838E-4,-3.3992223E-5,2.3360619E-4,6.7027315E-4,1.193601E-5,-2.5931932E-4,1.8685212E-5,-4.7160465E-6,9.6510485E-6,3.479276E-5,9.0488343E-4,-9.655224E-6,-3.4182383E-5,-1.7482205E-5,8.7488625E-5,2.7716642E-5],"categories":[],"categories_nodes":[],"categories_segments":[],"categories_sizes":[],"default_left":[0,0,0,0,0,0,0,0,0,0,0,0,0,0,0,0,0,0,0,0,0,0,0],"id":10,"left_children":[1,3,5,7,9,-1,-1,11,13,15,17,-1,19,-1,-1,-1,-1,21,-1,-1,-1,-1,-1],"loss_changes":[3.8583337E-5,1.7208336E-5,1.7243619E-6,3.1720397E-6,2.8362556E-6,0E0,0E0,1.81223E-6,1.0154378E-6,2.3125817E-6,3.4494378E-6,0E0,1.0302574E-6,0E0,0E0,0E0,0E0,1.0965496E-6,0E0,0E0,0E0,0E0,0E0],"parents":[2147483647,0,0,1,1,2,2,3,3,4,4,7,7,8,8,9,9,10,10,12,12,17,17],"right_children":[2,4,6,8,10,-1,-1,12,14,16,18,-1,20,-1,-1,-1,-1,22,-1,-1,-1,-1,-1],"split_conditions":[6.933333E-1,1.7E-3,1.8051064E1,1.2E-3,8.1158284E-4,1.0324351E-4,2.6739668E-4,1E1,2E0,7.1E1,9.7E-3,1.193601E-5,7E-4,1.8685212E-5,-4.7160465E-6,9.6510485E-6,3.479276E-5,3.12E-2,-9.655224E-6,-3.4182383E-5,-1.7482205E-5,8.7488625E-5,2.7716642E-5],"split_indices":[77,59,20,59,66,0,0,12,3,23,50,0,59,0,0,0,0,37,0,0,0,0,0],"split_type":[0,0,0,0,0,0,0,0,0,0,0,0,0,0,0,0,0,0,0,0,0,0,0],"sum_hessian":[4.48E2,4.43E2,5E0,3.23E2,1.2E2,3E0,2E0,1.74E2,1.49E2,1.03E2,1.7E1,1.1E1,1.63E2,1.2E1,1.37E2,6.7E1,3.6E1,1.3E1,4E0,3E1,1.33E2,9E0,4E0],"tree_param":{"num_deleted":"0","num_feature":"89","num_nodes":"23","size_leaf_vector":"1"}},{"base_weights":[1.2807508E-5,-1.9356883E-5,2.390838E-3,-1.4848849E-4,2.3730291E-4,9.70489E-5,2.5313554E-4,-2.727029E-5,-1.07999105E-4,1.3908642E-4,4.474943E-4,3.2171407E-5,-1.1809295E-4,8.513216E-5,2.6709322E-5,8.568836E-5,3.8063215E-4,-1.0030469E-5,4.0344366E-5,1.7518777E-4,-4.884349E-6,2.3630766E-5,5.8185848E-5,1.0780816E-5,6.216869E-5],"categories":[],"categories_nodes":[],"categories_segments":[],"categories_sizes":[],"default_left":[0,0,0,0,0,0,0,0,0,0,0,0,0,0,0,0,0,0,0,0,0,0,0,0,0],"id":11,"left_children":[1,3,5,7,9,-1,-1,-1,11,13,15,-1,17,19,-1,-1,21,-1,-1,23,-1,-1,-1,-1,-1],"loss_changes":[3.4389344E-5,1.4750679E-5,1.6262966E-6,2.2689533E-6,3.0137553E-6,0E0,0E0,0E0,1.3142155E-6,1.0540266E-6,1.5520118E-6,0E0,1.1609377E-6,1.0902193E-6,0E0,0E0,1.0855606E-6,0E0,0E0,1.1363207E-6,0E0,0E0,0E0,0E0,0E0],"parents":[2147483647,0,0,1,1,2,2,3,3,4,4,8,8,9,9,10,10,12,12,13,13,16,16,19,19],"right_children":[2,4,6,8,10,-1,-1,-1,12,14,16,-1,18,20,-1,-1,22,-1,-1,24,-1,-1,-1,-1,-1],"split_conditions":[6.933333E-1,1.5E-3,1.8051064E1,8E-4,2.3E-3,9.70489E-5,2.5313554E-4,-2.727029E-5,8.333333E0,8.660254E-1,9.733333E-3,3.2171407E-5,7.2E-1,-1.2910296E-2,2.6709322E-5,8.568836E-5,6.5E-1,-1.0030469E-5,4.0344366E-5,4.0845834E-2,-4.884349E-6,2.3630766E-5,5.8185848E-5,1.0780816E-5,6.216869E-5],"split_indices":[77,59,20,59,59,0,0,0,17,8,55,0,71,10,0,0,71,0,0,45,0,0,0,0,0],"split_type":[0,0,0,0,0,0,0,0,0,0,0,0,0,0,0,0,0,0,0,0,0,0,0,0,0],"sum_hessian":[4.48E2,4.43E2,5E0,2.95E2,1.48E2,3E0,2E0,5E1,2.45E2,1.02E2,4.6E1,4E0,2.41E2,8.1E1,2.1E1,3E0,4.3E1,2.39E2,2E0,5E1,3.1E1,3.6E1,7E0,4.8E1,2E0],"tree_param":{"num_deleted":"0","num_feature":"89","num_nodes":"25","size_leaf_vector":"1"}},{"base_weights":[1.3225394E-5,-1.7138307E-5,2.257935E-3,-1.3649045E-4,2.2007893E-4,9.122596E-5,2.3963497E-4,-2.2020268E-4,-5.787134E-5,6.408044E-6,3.4646824E-4,-2.4986179E-5,-1.0600964E-5,5.3664957E-5,-7.187251E-5,2.6423085E-4,6.2601233E-4,3.0112438E-5,-6.9225134E-6,2.8208618E-5,7.6402966E-7,6.839731E-5,-7.557664E-6],"categories":[],"categories_nodes":[],"categories_segments":[],"categories_sizes":[],"default_left":[0,0,0,0,0,0,0,0,0,0,0,0,0,0,0,0,0,0,0,0,0,0,0],"id":12,"left_children":[1,3,5,7,9,-1,-1,11,13,-1,15,-1,-1,-1,17,19,21,-1,-1,-1,-1,-1,-1],"loss_changes":[3.0641495E-5,1.2600737E-5,1.5296719E-6,1.9353452E-6,2.6083208E-6,0E0,0E0,1.1138327E-6,1.619386E-6,0E0,1.627729E-6,0E0,0E0,0E0,1.031403E-6,1.3921208E-6,2.8850477E-6,0E0,0E0,0E0,0E0,0E0,0E0],"parents":[2147483647,0,0,1,1,2,2,3,3,4,4,7,7,8,8,10,10,14,14,15,15,16,16],"right_children":[2,4,6,8,10,-1,-1,12,14,-1,16,-1,-1,-1,18,20,22,-1,-1,-1,-1,-1,-1],"split_conditions":[6.933333E-1,1.5E-3,1.8051064E1,1.1333333E-3,2E-3,9.122596E-5,2.3963497E-4,9.3E-3,8E-4,6.408044E-6,8.0849655E-4,-2.4986179E-5,-1.0600964E-5,5.3664957E-5,8.333333E0,9.1305345E-2,3.9E-3,3.0112438E-5,-6.9225134E-6,2.8208618E-5,7.6402966E-7,6.839731E-5,-7.557664E-6],"split_indices":[77,59,20,65,59,0,0,47,61,0,66,0,0,0,17,78,60,0,0,0,0,0,0],"split_type":[0,0,0,0,0,0,0,0,0,0,0,0,0,0,0,0,0,0,0,0,0,0,0],"sum_hessian":[4.48E2,4.43E2,5E0,2.95E2,1.48E2,3E0,2E0,1.42E2,1.53E2,7.1E1,7.7E1,6.8E1,7.4E1,2E0,1.51E2,6.1E1,1.6E1,4E0,1.47E2,4.5E1,1.6E1,1.2E1,4E0],"tree_param":{"num_deleted":"0","num_feature":"89","num_nodes":"23","size_leaf_vector":"1"}},{"base_weights":[1.3210469E-5,-1.5457572E-5,2.1324437E-3,-1.1022359E-4,2.384238E-4,8.575241E-5,2.2685445E-4,-1.8579044E-4,-1.7061949E-6,1.8412092E-4,5.389281E-4,1.1078868E-5,-1.6670809E-5,7.0348433E-6,2.8473425E-5,6.9934526E-5,8.523459E-6],"categories":[],"categories_nodes":[],"categories_segments":[],"categories_sizes":[],"default_left":[0,0,0,0,0,0,0,0,0,0,0,0,0,0,0,0,0],"id":13,"left_children":[1,3,5,7,9,-1,-1,11,-1,13,15,-1,-1,-1,-1,-1,-1],"loss_changes":[2.731163E-5,1.0708622E-5,1.4352772E-6,2.1725405E-6,1.8752798E-6,0E0,0E0,1.311068E-6,0E0,1.6872341E-6,2.5161162E-6,0E0,0E0,0E0,0E0,0E0,0E0],"parents":[2147483647,0,0,1,1,2,2,3,3,4,4,7,7,9,9,10,10],"right_children":[2,4,6,8,10,-1,-1,12,-1,14,16,-1,-1,-1,-1,-1,-1],"split_conditions":[6.933333E-1,1.7E-3,1.8051064E1,1.2E-3,8.1158284E-4,8.575241E-5,2.2685445E-4,1E1,-1.7061949E-6,7.1E1,3E-3,1.1078868E-5,-1.6670809E-5,7.0348433E-6,2.8473425E-5,6.9934526E-5,8.523459E-6],"split_indices":[77,59,20,59,66,0,0,12,0,23,60,0,0,0,0,0,0],"split_type":[0,0,0,0,0,0,0,0,0,0,0,0,0,0,0,0,0],"sum_hessian":[4.48E2,4.43E2,5E0,3.23E2,1.2E2,3E0,2E0,1.74E2,1.49E2,1.03E2,1.7E1,1.1E1,1.63E2,6.7E1,3.6E1,9E0,8E0],"tree_param":{"num_deleted":"0","num_feature":"89","num_nodes":"17","size_leaf_vector":"1"}},{"base_weights":[1.3087421E-5,-1.3980731E-5,2.0139494E-3,-1.1596582E-4,1.8871436E-4,8.0607264E-5,2.1475555E-4,-2.2314443E-5,-6.5367235E-6,8.847995E-6,3.5588606E-4,7.224715E-5,2.3844157E-5],"categories":[],"categories_nodes":[],"categories_segments":[],"categories_sizes":[],"default_left":[0,0,0,0,0,0,0,0,0,0,0,0,0],"id":14,"left_children":[1,3,5,7,9,-1,-1,-1,-1,-1,11,-1,-1],"loss_changes":[2.4345833E-5,9.200197E-6,1.3437311E-6,1.6296726E-6,1.9063582E-6,0E0,0E0,0E0,0E0,0E0,1.2182418E-6,0E0,0E0],"parents":[2147483647,0,0,1,1,2,2,3,3,4,4,10,10],"right_children":[2,4,6,8,10,-1,-1,-1,-1,-1,12,-1,-1],"split_conditions":[6.933333E-1,1.5E-3,1.8051064E1,8E-4,2.3E-3,8.0607264E-5,2.1475555E-4,-2.2314443E-5,-6.5367235E-6,8.847995E-6,9.733333E-3,7.224715E-5,2.3844157E-5],"split_indices":[77,59,20,59,59,0,0,0,0,0,55,0,0],"split_type":[0,0,0,0,0,0,0,0,0,0,0,0,0],"sum_hessian":[4.48E2,4.43E2,5E0,2.95E2,1.48E2,3E0,2E0,5E1,2.45E2,1.02E2,4.6E1,3E0,4.3E1],"tree_param":{"num_deleted":"0","num_feature":"89","num_nodes":"13","size_leaf_vector":"1"}},{"base_weights":[1.2867699E-5,-1.2690915E-5,1.9020606E-3,-7.412061E-5,2.7650635E-4,7.577082E-5,2.0330193E-4,-1.5995189E-4,4.0897353E-6,2.0809067E-4,5.097573E-4,1.0850959E-5,-1.4448402E-5,2.0000734E-4,-2.6556606E-6,2.2987444E-5,-1.4878086E-6,5.6753674E-5,-8.905564E-6,5.202225E-6,3.8156923E-5],"categories":[],"categories_nodes":[],"categories_segments":[],"categories_sizes":[],"default_left":[0,0,0,0,0,0,0,0,0,0,0,0,0,0,0,0,0,0,0,0,0],"id":15,"left_children":[1,3,5,7,9,-1,-1,11,13,15,17,-1,-1,19,-1,-1,-1,-1,-1,-1,-1],"loss_changes":[2.1704172E-5,7.908288E-6,1.2554756E-6,2.4642866E-6,1.1386501E-6,0E0,0E0,1.0928434E-6,1.4164821E-6,1.1192105E-6,2.1870828E-6,0E0,0E0,1.1278617E-6,0E0,0E0,0E0,0E0,0E0,0E0,0E0],"parents":[2147483647,0,0,1,1,2,2,3,3,4,4,7,7,8,8,9,9,10,10,13,13],"right_children":[2,4,6,8,10,-1,-1,12,14,16,18,-1,-1,20,-1,-1,-1,-1,-1,-1,-1],"split_conditions":[6.933333E-1,2E-3,1.8051064E1,1.2E-3,8.0849655E-4,7.577082E-5,2.0330193E-4,1E1,4E0,9.1305345E-2,3.9E-3,1.0850959E-5,-1.4448402E-5,8E-2,-2.6556606E-6,2.2987444E-5,-1.4878086E-6,5.6753674E-5,-8.905564E-6,5.202225E-6,3.8156923E-5],"split_indices":[77,59,20,59,66,0,0,12,3,78,60,0,0,78,0,0,0,0,0,0,0],"split_type":[0,0,0,0,0,0,0,0,0,0,0,0,0,0,0,0,0,0,0,0,0],"sum_hessian":[4.48E2,4.43E2,5E0,3.66E2,7.7E1,3E0,2E0,1.74E2,1.92E2,6.1E1,1.6E1,1.1E1,1.63E2,3E1,1.62E2,4.5E1,1.6E1,1.2E1,4E0,2.1E1,9E0],"tree_param":{"num_deleted":"0","num_feature":"89","num_nodes":"21","size_leaf_vector":"1"}},{"base_weights":[1.2696927E-5,-1.1435871E-5,1.7964079E-3,-9.8985685E-5,1.6256534E-4,7.1224575E-5,1.9245915E-4,-1.5795072E-4,-2.2476865E-5,6.572589E-6,2.984961E-4,8.8778106E-5,-1.5068217E-5,-4.319673E-6,2.587285E-5,1.8520592E-5,5.30493E-5,3.544578E-5,-8.705981E-6],"categories":[],"categories_nodes":[],"categories_segments":[],"categories_sizes":[],"default_left":[0,0,0,0,0,0,0,0,0,0,0,0,0,0,0,0,0,0,0],"id":16,"left_children":[1,3,5,7,9,-1,-1,11,13,-1,15,17,-1,-1,-1,-1,-1,-1,-1],"loss_changes":[1.9348166E-5,6.7798874E-6,1.1708489E-6,1.3318079E-6,1.6040344E-6,0E0,0E0,1.2693968E-6,1.4347287E-6,0E0,1.1898819E-6,1.3783986E-6,0E0,0E0,0E0,0E0,0E0,0E0,0E0],"parents":[2147483647,0,0,1,1,2,2,3,3,4,4,7,7,8,8,10,10,11,11],"right_children":[2,4,6,8,10,-1,-1,12,14,-1,16,18,-1,-1,-1,-1,-1,-1,-1],"split_conditions":[6.933333E-1,1.5E-3,1.8051064E1,1.09E-2,5.3E-1,7.1224575E-5,1.9245915E-4,1.4583333E1,1.3678119E-1,6.572589E-6,7.563068E-4,2.49E1,-1.5068217E-5,-4.319673E-6,2.587285E-5,1.8520592E-5,5.30493E-5,3.544578E-5,-8.705981E-6],"split_indices":[77,59,20,47,71,0,0,19,80,0,66,0,0,0,0,0,0,0,0],"split_type":[0,0,0,0,0,0,0,0,0,0,0,0,0,0,0,0,0,0,0],"sum_hessian":[4.48E2,4.43E2,5E0,2.95E2,1.48E2,3E0,2E0,1.66E2,1.29E2,9.4E1,5.4E1,1.8E1,1.48E2,1.19E2,1E1,4.7E1,7E0,6E0,1.2E1],"tree_param":{"num_deleted":"0","num_feature":"89","num_nodes":"19","size_leaf_vector":"1"}},{"base_weights":[1.2516491E-5,-1.0270159E-5,1.6966425E-3,-6.3209525E-5,2.38948E-4,6.69511E-5,1.8219465E-4,-1.058765E-5,1.4236524E-5,2.0750922E-5,-2.8678185E-5,-9.535635E-6,6.900099E-5,8.5731193E-7,2.5126882E-4,3.3179786E-5,4.468482E-7],"categories":[],"categories_nodes":[],"categories_segments":[],"categories_sizes":[],"default_left":[0,0,0,0,0,0,0,0,0,0,0,0,0,0,0,0,0],"id":17,"left_children":[1,3,5,7,9,-1,-1,-1,11,-1,-1,-1,13,-1,15,-1,-1],"loss_changes":[1.7248065E-5,5.8729966E-6,1.0900621E-6,1.9669187E-6,1.0454023E-6,0E0,0E0,0E0,1.2797E-6,0E0,0E0,0E0,1.3146098E-6,0E0,1.2026012E-6,0E0,0E0],"parents":[2147483647,0,0,1,1,2,2,3,3,4,4,8,8,12,12,14,14],"right_children":[2,4,6,8,10,-1,-1,-1,12,-1,-1,-1,14,-1,16,-1,-1],"split_conditions":[6.933333E-1,2E-3,1.8051064E1,2.8028558E-3,6.5E-1,6.69511E-5,1.8219465E-4,-1.058765E-5,7.7E-3,2.0750922E-5,-2.8678185E-5,-9.535635E-6,3.3316662E-4,8.5731193E-7,5.428321E0,3.3179786E-5,4.468482E-7],"split_indices":[77,59,20,54,76,0,0,0,47,0,0,0,66,0,18,0,0],"split_type":[0,0,0,0,0,0,0,0,0,0,0,0,0,0,0,0,0],"sum_hessian":[4.48E2,4.43E2,5E0,3.66E2,7.7E1,3E0,2E0,1.93E2,1.73E2,7.5E1,2E0,5E1,1.23E2,9.4E1,2.9E1,1.7E1,1.2E1],"tree_param":{"num_deleted":"0","num_feature":"89","num_nodes":"17","size_leaf_vector":"1"}},{"base_weights":[1.2084372E-5,-9.434077E-6,1.6024355E-3,-6.769778E-5,1.4926753E-5,6.293405E-5,1.7247761E-4,-1.32241075E-5,-2.0287021E-5,-3.6804624E-6,2.4031603E-4,4.6463487E-5,-5.075326E-6],"categories":[],"categories_nodes":[],"categories_segments":[],"categories_sizes":[],"default_left":[0,0,0,0,0,0,0,0,0,0,0,0,0],"id":18,"left_children":[1,3,5,7,-1,-1,-1,-1,9,-1,11,-1,-1],"loss_changes":[1.5380745E-5,5.0834506E-6,1.0132608E-6,1.5838648E-6,0E0,0E0,0E0,0E0,1.5660098E-6,0E0,2.208722E-6,0E0,0E0],"parents":[2147483647,0,0,1,1,2,2,3,3,8,8,10,10],"right_children":[2,4,6,8,-1,-1,-1,-1,10,-1,12,-1,-1],"split_conditions":[6.933333E-1,1.8E-3,1.8051064E1,8.5E-3,1.4926753E-5,6.293405E-5,1.7247761E-4,-1.32241075E-5,5.089204E-4,-3.6804624E-6,4.9333334E-1,4.6463487E-5,-5.075326E-6],"split_indices":[77,59,20,47,0,0,0,0,66,0,79,0,0],"split_type":[0,0,0,0,0,0,0,0,0,0,0,0,0],"sum_hessian":[4.48E2,4.43E2,5E0,3.42E2,1.01E2,3E0,2E0,1.11E2,2.31E2,2.11E2,2E1,9E0,1.1E1],"tree_param":{"num_deleted":"0","num_feature":"89","num_nodes":"13","size_leaf_vector":"1"}},{"base_weights":[1.1729691E-5,-6.805072E-6,1.3271821E-4,-5.5331802E-5,2.1194878E-4,-1.0375216E-5,2.0975573E-5,1.2186889E-5,4.6196266E-5,1.9023415E-4,-1.3911788E-5,5.938163E-5,8.36622E-6,-7.957715E-6,5.7464727E-6],"categories":[],"categories_nodes":[],"categories_segments":[],"categories_sizes":[],"default_left":[0,0,0,0,0,0,0,0,0,0,0,0,0,0,0],"id":19,"left_children":[1,3,-1,5,7,-1,9,-1,-1,11,13,-1,-1,-1,-1],"loss_changes":[1.3719867E-5,4.7355848E-6,0E0,2.0737648E-6,1.6769177E-6,0E0,1.0714489E-6,0E0,0E0,1.3882233E-6,1.1148985E-6,0E0,0E0,0E0,0E0],"parents":[2147483647,0,0,1,1,3,3,4,4,6,6,9,9,10,10],"right_children":[2,4,-1,6,8,-1,10,-1,-1,12,14,-1,-1,-1,-1],"split_conditions":[7.3333335E-1,5.2E-1,1.3271821E-4,1.2333334E-3,8.824209E-4,-1.0375216E-5,1.2E1,1.2186889E-5,4.6196266E-5,3.974557E-3,1.0175E3,5.938163E-5,8.36622E-6,-7.957715E-6,5.7464727E-6],"split_indices":[77,71,0,65,66,0,14,0,0,58,2,0,0,0,0],"split_type":[0,0,0,0,0,0,0,0,0,0,0,0,0,0,0],"sum_hessian":[4.48E2,4.44E2,4E0,3.64E2,8E1,1.84E2,1.8E2,7E1,1E1,3E1,1.5E2,3E0,2.7E1,7.5E1,7.5E1],"tree_param":{"num_deleted":"0","num_feature":"89","num_nodes":"15","size_leaf_vector":"1"}},{"base_weights":[1.1339769E-5,-7.685203E-6,1.4172978E-3,-7.358979E-5,9.863274E-6,5.292535E-5,1.5620049E-4,-1.6256308E-5,-3.7135549E-6],"categories":[],"categories_nodes":[],"categories_segments":[],"categories_sizes":[],"default_left":[0,0,0,0,0,0,0,0,0],"id":20,"left_children":[1,3,5,7,-1,-1,-1,-1,-1],"loss_changes":[1.2020883E-5,3.8416492E-6,1.1351276E-6,1.032979E-6,0E0,0E0,0E0,0E0,0E0],"parents":[2147483647,0,0,1,1,2,2,3,3],"right_children":[2,4,6,8,-1,-1,-1,-1,-1],"split_conditions":[6.933333E-1,1.5E-3,1.8051064E1,8E-4,9.863274E-6,5.292535E-5,1.5620049E-4,-1.6256308E-5,-3.7135549E-6],"split_indices":[77,59,20,59,0,0,0,0,0],"split_type":[0,0,0,0,0,0,0,0,0],"sum_hessian":[4.48E2,4.43E2,5E0,2.95E2,1.48E2,3E0,2E0,5E1,2.45E2],"tree_param":{"num_deleted":"0","num_feature":"89","num_nodes":"9","size_leaf_vector":"1"}},{"base_weights":[1.0875835E-5,-5.5337405E-6,1.17532225E-4,-4.867748E-5,1.8894773E-4,-9.033619E-6,1.3803161E-6,1.0752516E-5,4.1904783E-5],"categories":[],"categories_nodes":[],"categories_segments":[],"categories_sizes":[],"default_left":[0,0,0,0,0,0,0,0,0],"id":21,"left_children":[1,3,-1,5,7,-1,-1,-1,-1],"loss_changes":[1.0752569E-5,3.7430402E-6,0E0,1.5479486E-6,1.4089651E-6,0E0,0E0,0E0,0E0],"parents":[2147483647,0,0,1,1,3,3,4,4],"right_children":[2,4,-1,6,8,-1,-1,-1,-1],"split_conditions":[7.3333335E-1,5.2E-1,1.17532225E-4,1.2333334E-3,8.824209E-4,-9.033619E-6,1.3803161E-6,1.0752516E-5,4.1904783E-5],"split_indices":[77,71,0,65,66,0,0,0,0],"split_type":[0,0,0,0,0,0,0,0,0],"sum_hessian":[4.48E2,4.44E2,4E0,3.64E2,8E1,1.84E2,1.8E2,7E1,1E1],"tree_param":{"num_deleted":"0","num_feature":"89","num_nodes":"9","size_leaf_vector":"1"}},{"base_weights":[1.0367748E-5,-4.9899236E-6,1.1001015E-4,-4.451362E-5,1.42946665E-5,-8.134933E-6,1.5589479E-6],"categories":[],"categories_nodes":[],"categories_segments":[],"categories_sizes":[],"default_left":[0,0,0,0,0,0,0],"id":22,"left_children":[1,3,-1,5,-1,-1,-1],"loss_changes":[9.417688E-6,3.2384075E-6,0E0,1.3448719E-6,0E0,0E0,0E0],"parents":[2147483647,0,0,1,1,3,3],"right_children":[2,4,-1,6,-1,-1,-1],"split_conditions":[7.3333335E-1,2E-3,1.1001015E-4,2.8028558E-3,1.42946665E-5,-8.134933E-6,1.5589479E-6],"split_indices":[77,59,0,54,0,0,0],"split_type":[0,0,0,0,0,0,0],"sum_hessian":[4.48E2,4.44E2,4E0,3.66E2,7.8E1,1.93E2,1.73E2],"tree_param":{"num_deleted":"0","num_feature":"89","num_nodes":"7","size_leaf_vector":"1"}},{"base_weights":[9.8005585E-6,-6.004029E-6,1.1777066E-3,-4.258869E-5,1.6098854E-4,3.9524137E-5,1.357342E-4,-9.073989E-6,4.1226747E-7,-1.1905094E-6,2.3221468E-4,1.0412703E-5,3.316081E-5],"categories":[],"categories_nodes":[],"categories_segments":[],"categories_sizes":[],"default_left":[0,0,0,0,0,0,0,0,0,0,0,0,0],"id":23,"left_children":[1,3,5,7,9,-1,-1,-1,-1,-1,11,-1,-1],"loss_changes":[8.294835E-6,2.719415E-6,1.2905357E-6,1.2349644E-6,1.005578E-6,0E0,0E0,0E0,0E0,0E0,1.0064944E-6,0E0,0E0],"parents":[2147483647,0,0,1,1,2,2,3,3,4,4,10,10],"right_children":[2,4,6,8,10,-1,-1,-1,-1,-1,12,-1,-1],"split_conditions":[6.933333E-1,5.2E-1,1.8051064E1,1.15E-3,4.336412E-3,3.9524137E-5,1.357342E-4,-9.073989E-6,4.1226747E-7,-1.1905094E-6,5.609516E-4,1.0412703E-5,3.316081E-5],"split_indices":[77,71,20,65,56,0,0,0,0,0,66,0,0],"split_type":[0,0,0,0,0,0,0,0,0,0,0,0,0],"sum_hessian":[4.48E2,4.43E2,5E0,3.64E2,7.9E1,3E0,2E0,1.46E2,2.18E2,2.3E1,5.6E1,3.7E1,1.9E1],"tree_param":{"num_deleted":"0","num_feature":"89","num_nodes":"13","size_leaf_vector":"1"}},{"base_weights":[9.481962E-6,-5.4477446E-6,1.1126999E-3,-3.9205308E-5,1.18911385E-5,3.7152702E-5,1.2849504E-4,2.360661E-5,-7.2914536E-6,-8.037098E-7,2.8450318E-4,6.652393E-5,1.36984145E-5],"categories":[],"categories_nodes":[],"categories_segments":[],"categories_sizes":[],"default_left":[0,0,0,0,0,0,0,0,0,0,0,0,0],"id":24,"left_children":[1,3,5,7,-1,-1,-1,9,-1,-1,11,-1,-1],"loss_changes":[7.4014156E-6,2.3153384E-6,1.173616E-6,1.1928973E-6,0E0,0E0,0E0,1.4603295E-6,0E0,0E0,1.0349588E-6,0E0,0E0],"parents":[2147483647,0,0,1,1,2,2,3,3,7,7,10,10],"right_children":[2,4,6,8,-1,-1,-1,10,-1,-1,12,-1,-1],"split_conditions":[6.933333E-1,5.2E-1,1.8051064E1,1.4154029E-1,1.18911385E-5,3.7152702E-5,1.2849504E-4,6.3E1,-7.2914536E-6,-8.037098E-7,1.4166667E1,6.652393E-5,1.36984145E-5],"split_indices":[77,71,20,10,0,0,0,27,0,0,21,0,0],"split_type":[0,0,0,0,0,0,0,0,0,0,0,0,0],"sum_hessian":[4.48E2,4.43E2,5E0,3.64E2,7.9E1,3E0,2E0,1.65E2,1.99E2,1.47E2,1.8E1,2E0,1.6E1],"tree_param":{"num_deleted":"0","num_feature":"89","num_nodes":"13","size_leaf_vector":"1"}},{"base_weights":[9.27946E-6,-4.822688E-6,1.0512918E-3,-6.106655E-6,6.2045045E-5,3.4923534E-5,1.2164198E-4,8.332344E-5,-1.143359E-5,5.853487E-5,3.883129E-5,2.4283393E-6,2.2608014E-5],"categories":[],"categories_nodes":[],"categories_segments":[],"categories_sizes":[],"default_left":[0,0,0,0,0,0,0,0,0,0,0,0,0],"id":25,"left_children":[1,3,5,-1,7,-1,-1,9,-1,11,-1,-1,-1],"loss_changes":[6.6029515E-6,2.1278308E-6,1.0669823E-6,0E0,1.0150129E-6,0E0,0E0,2.054624E-6,0E0,1.2416535E-6,0E0,0E0,0E0],"parents":[2147483647,0,0,1,1,2,2,4,4,7,7,9,9],"right_children":[2,4,6,-1,8,-1,-1,10,-1,12,-1,-1,-1],"split_conditions":[6.933333E-1,1.3E-3,1.8051064E1,-6.106655E-6,2.48E1,3.4923534E-5,1.2164198E-4,8.824209E-4,-1.143359E-5,8.3833336E1,3.883129E-5,2.4283393E-6,2.2608014E-5],"split_indices":[77,59,20,0,0,0,0,66,0,29,0,0,0],"split_type":[0,0,0,0,0,0,0,0,0,0,0,0,0],"sum_hessian":[4.48E2,4.43E2,5E0,2.14E2,2.29E2,3E0,2E0,2.08E2,2.1E1,1.97E2,1.1E1,1.76E2,2.1E1],"tree_param":{"num_deleted":"0","num_feature":"89","num_nodes":"13","size_leaf_vector":"1"}},{"base_weights":[8.988998E-6,-4.332514E-6,7.946261E-5,-5.620392E-6,4.584754E-6],"categories":[],"categories_nodes":[],"categories_segments":[],"categories_sizes":[],"default_left":[0,0,0,0,0],"id":26,"left_children":[1,3,-1,-1,-1],"loss_changes":[5.8917167E-6,1.8082576E-6,0E0,0E0,0E0],"parents":[2147483647,0,0,1,1],"right_children":[2,4,-1,-1,-1],"split_conditions":[6.933333E-1,1.3E-3,7.946261E-5,-5.620392E-6,4.584754E-6],"split_indices":[77,59,0,0,0],"split_type":[0,0,0,0,0],"sum_hessian":[4.48E2,4.43E2,5E0,2.14E2,2.29E2],"tree_param":{"num_deleted":"0","num_feature":"89","num_nodes":"5","size_leaf_vector":"1"}},{"base_weights":[8.444556E-6,-2.991447E-6,8.19648E-5,-2.752591E-6,1.2130929E-4,-2.7974072E-6,1.6002441E-5],"categories":[],"categories_nodes":[],"categories_segments":[],"categories_sizes":[],"default_left":[0,0,0,0,0,0,0],"id":27,"left_children":[1,3,-1,-1,5,-1,-1],"loss_changes":[5.2205796E-6,1.74191E-6,0E0,0E0,1.1142024E-6,0E0,0E0],"parents":[2147483647,0,0,1,1,4,4],"right_children":[2,4,-1,-1,6,-1,-1],"split_conditions":[7.3333335E-1,5.1E-1,8.19648E-5,-2.752591E-6,4.336412E-3,-2.7974072E-6,1.6002441E-5],"split_indices":[77,71,0,0,56,0,0],"split_type":[0,0,0,0,0,0,0],"sum_hessian":[4.48E2,4.44E2,4E0,3.55E2,8.9E1,3E1,5.9E1],"tree_param":{"num_deleted":"0","num_feature":"89","num_nodes":"7","size_leaf_vector":"1"}},{"base_weights":[7.974849E-6,-2.7286153E-6,7.671905E-5,-2.9066077E-6,1.0376183E-4,3.5120474E-4,3.1828597E-5,8.917925E-6,4.653167E-5,5.872913E-6,-2.0064308E-5],"categories":[],"categories_nodes":[],"categories_segments":[],"categories_sizes":[],"default_left":[0,0,0,0,0,0,0,0,0,0,0],"id":28,"left_children":[1,3,-1,-1,5,7,9,-1,-1,-1,-1],"loss_changes":[4.5730494E-6,1.5962037E-6,0E0,0E0,1.893354E-6,1.261013E-6,1.0056348E-6,0E0,0E0,0E0,0E0],"parents":[2147483647,0,0,1,1,4,4,5,5,6,6],"right_children":[2,4,-1,-1,6,8,10,-1,-1,-1,-1],"split_conditions":[7.3333335E-1,1.7333333E-3,7.671905E-5,-2.9066077E-6,3.2093613E0,4.604346E-4,6.91E-2,8.917925E-6,4.653167E-5,5.872913E-6,-2.0064308E-5],"split_indices":[77,65,0,0,18,66,40,0,0,0,0],"split_type":[0,0,0,0,0,0,0,0,0,0,0],"sum_hessian":[4.48E2,4.44E2,4E0,3.38E2,1.06E2,2.3E1,8.3E1,1.2E1,1.1E1,7.3E1,1E1],"tree_param":{"num_deleted":"0","num_feature":"89","num_nodes":"11","size_leaf_vector":"1"}},{"base_weights":[7.593173E-6,-2.4241137E-6,8.9761306E-4,-4.9134355E-6,5.4501317E-5,1.7228462E-5,1.02453276E-4,-6.833393E-6,9.553128E-5,4.150808E-5,5.782784E-6],"categories":[],"categories_nodes":[],"categories_segments":[],"categories_sizes":[],"default_left":[0,0,0,0,0,0,0,0,0,0,0],"id":29,"left_children":[1,3,5,-1,7,-1,-1,-1,9,-1,-1],"loss_changes":[4.005273E-6,1.4977683E-6,1.030905E-6,0E0,1.3113354E-6,0E0,0E0,0E0,1.6944568E-6,0E0,0E0],"parents":[2147483647,0,0,1,1,2,2,4,4,8,8],"right_children":[2,4,6,-1,8,-1,-1,-1,10,-1,-1],"split_conditions":[7.3333335E-1,2.854295E-3,1.018E3,-4.9134355E-6,7.7E-3,1.7228462E-5,1.02453276E-4,-6.833393E-6,2.6E-1,4.150808E-5,5.782784E-6],"split_indices":[77,54,2,0,47,0,0,0,73,0,0],"split_type":[0,0,0,0,0,0,0,0,0,0,0],"sum_hessian":[4.48E2,4.44E2,4E0,2.18E2,2.26E2,2E0,2E0,5.1E1,1.75E2,8E0,1.67E2],"tree_param":{"num_deleted":"0","num_feature":"89","num_nodes":"11","size_leaf_vector":"1"}},{"base_weights":[7.3314154E-6,-4.7769267E-6,6.754009E-4,-1.8126174E-6,1.1971674E-5,8.78819E-5,1.6145796E-5],"categories":[],"categories_nodes":[],"categories_segments":[],"categories_sizes":[],"default_left":[0,0,0,0,0,0,0],"id":30,"left_children":[1,3,5,-1,-1,-1,-1],"loss_changes":[3.6352833E-6,1.2238423E-6,1.381348E-6,0E0,0E0,0E0,0E0],"parents":[2147483647,0,0,1,1,2,2],"right_children":[2,4,6,-1,-1,-1,-1],"split_conditions":[6.566667E-1,2.3E-3,9.1E1,-1.8126174E-6,1.1971674E-5,8.78819E-5,1.6145796E-5],"split_indices":[77,59,25,0,0,0,0],"split_type":[0,0,0,0,0,0,0],"sum_hessian":[4.48E2,4.41E2,7E0,3.96E2,4.5E1,3E0,4E0],"tree_param":{"num_deleted":"0","num_feature":"89","num_nodes":"7","size_leaf_vector":"1"}},{"base_weights":[6.9991984E-6,-7.337281E-6,5.2969746E-4,-4.7551466E-6,3.4899479E-6,6.5726413E-6,6.701052E-5],"categories":[],"categories_nodes":[],"categories_segments":[],"categories_sizes":[],"default_left":[0,0,0,0,0,0,0],"id":31,"left_children":[1,3,5,-1,-1,-1,-1],"loss_changes":[3.3685365E-6,1.165573E-6,1.5849344E-6,0E0,0E0,0E0,0E0],"parents":[2147483647,0,0,1,1,2,2],"right_children":[2,4,6,-1,-1,-1,-1],"split_conditions":[7.2E-1,1.3E-3,1.45E-2,-4.7551466E-6,3.4899479E-6,6.5726413E-6,6.701052E-5],"split_indices":[71,65,52,0,0,0,0],"split_type":[0,0,0,0,0,0,0],"sum_hessian":[4.48E2,4.37E2,1.1E1,2.16E2,2.21E2,5E0,6E0],"tree_param":{"num_deleted":"0","num_feature":"89","num_nodes":"7","size_leaf_vector":"1"}},{"base_weights":[6.6003377E-6,-2.0966568E-6,6.234502E-5,-7.4885083E-6,2.7868118E-5,2.5367743E-7,2.158651E-4,3.1421234E-5,-5.03816E-6],"categories":[],"categories_nodes":[],"categories_segments":[],"categories_sizes":[],"default_left":[0,0,0,0,0,0,0,0,0],"id":32,"left_children":[1,3,-1,-1,5,-1,7,-1,-1],"loss_changes":[3.0190374E-6,1.2228287E-6,0E0,0E0,1.5593602E-6,0E0,1.9484985E-6,0E0,0E0],"parents":[2147483647,0,0,1,1,4,4,6,6],"right_children":[2,4,-1,-1,6,-1,8,-1,-1],"split_conditions":[7.3333335E-1,7.7E-3,6.234502E-5,-7.4885083E-6,6.4627134E-4,2.5367743E-7,1.16E-2,3.1421234E-5,-5.03816E-6],"split_indices":[77,47,0,0,66,0,50,0,0],"split_type":[0,0,0,0,0,0,0,0,0],"sum_hessian":[4.48E2,4.44E2,4E0,1.09E2,3.35E2,2.97E2,3.8E1,2.3E1,1.5E1],"tree_param":{"num_deleted":"0","num_feature":"89","num_nodes":"9","size_leaf_vector":"1"}},{"base_weights":[6.253812E-6,-2.7540289E-6,5.3743337E-5,-4.1394374E-6,3.5783787E-6],"categories":[],"categories_nodes":[],"categories_segments":[],"categories_sizes":[],"default_left":[0,0,0,0,0],"id":33,"left_children":[1,3,-1,-1,-1],"loss_changes":[2.693632E-6,1.035138E-6,0E0,0E0,0E0],"parents":[2147483647,0,0,1,1],"right_children":[2,4,-1,-1,-1],"split_conditions":[2.6485726E-2,2.854295E-3,5.3743337E-5,-4.1394374E-6,3.5783787E-6],"split_indices":[42,54,0,0,0],"split_type":[0,0,0,0,0],"sum_hessian":[4.48E2,4.43E2,5E0,2.18E2,2.25E2],"tree_param":{"num_deleted":"0","num_feature":"89","num_nodes":"5","size_leaf_vector":"1"}},{"base_weights":[5.8719397E-6,-5.111988E-7,4.5294286E-4,4.3822392E-6,5.836167E-5],"categories":[],"categories_nodes":[],"categories_segments":[],"categories_sizes":[],"default_left":[0,0,0,0,0],"id":34,"left_children":[1,-1,3,-1,-1],"loss_changes":[2.4642898E-6,0E0,1.2815219E-6,0E0,0E0],"parents":[2147483647,0,0,2,2],"right_children":[2,-1,4,-1,-1],"split_conditions":[7.2E-1,-5.111988E-7,1.45E-2,4.3822392E-6,5.836167E-5],"split_indices":[71,0,52,0,0],"split_type":[0,0,0,0,0],"sum_hessian":[4.48E2,4.37E2,1.1E1,5E0,6E0],"tree_param":{"num_deleted":"0","num_feature":"89","num_nodes":"5","size_leaf_vector":"1"}},{"base_weights":[5.540786E-6,-1.963978E-6,5.3788524E-5,-6.812467E-6,2.5277297E-5,-2.0788772E-7,1.561963E-4,3.377376E-5,4.4742364E-6],"categories":[],"categories_nodes":[],"categories_segments":[],"categories_sizes":[],"default_left":[0,0,0,0,0,0,0,0,0],"id":35,"left_children":[1,3,-1,-1,5,-1,7,-1,-1],"loss_changes":[2.2482488E-6,1.0106348E-6,0E0,0E0,1.2266327E-6,0E0,1.5498564E-6,0E0,0E0],"parents":[2147483647,0,0,1,1,4,4,6,6],"right_children":[2,4,-1,-1,6,-1,8,-1,-1],"split_conditions":[7.3333335E-1,7.7E-3,5.3788524E-5,-6.812467E-6,5.089204E-4,-2.0788772E-7,3.2093613E0,3.377376E-5,4.4742364E-6],"split_indices":[77,47,0,0,66,0,18,0,0],"split_type":[0,0,0,0,0,0,0,0,0],"sum_hessian":[4.48E2,4.44E2,4E0,1.09E2,3.35E2,2.77E2,5.8E1,1.5E1,4.3E1],"tree_param":{"num_deleted":"0","num_feature":"89","num_nodes":"9","size_leaf_vector":"1"}},{"base_weights":[5.2868877E-6,-1.3893325E-7,5.0346058E-5],"categories":[],"categories_nodes":[],"categories_segments":[],"categories_sizes":[],"default_left":[0,0,0],"id":36,"left_children":[1,-1,-1],"loss_changes":[1.9690467E-6,0E0,0E0],"parents":[2147483647,0,0],"right_children":[2,-1,-1],"split_conditions":[7.3333335E-1,-1.3893325E-7,5.0346058E-5],"split_indices":[77,0,0],"split_type":[0,0,0],"sum_hessian":[4.48E2,4.44E2,4E0],"tree_param":{"num_deleted":"0","num_feature":"89","num_nodes":"3","size_leaf_vector":"1"}},{"base_weights":[4.975734E-6,-4.4349326E-7,3.8851917E-4,1.7515197E-6,5.1781324E-5],"categories":[],"categories_nodes":[],"categories_segments":[],"categories_sizes":[],"default_left":[0,0,0,0,0],"id":37,"left_children":[1,-1,3,-1,-1],"loss_changes":[1.8137104E-6,0E0,1.1241885E-6,0E0,0E0],"parents":[2147483647,0,0,2,2],"right_children":[2,-1,4,-1,-1],"split_conditions":[7.2E-1,-4.4349326E-7,1.45E-2,1.7515197E-6,5.1781324E-5],"split_indices":[71,0,52,0,0],"split_type":[0,0,0,0,0],"sum_hessian":[4.48E2,4.37E2,1.1E1,5E0,6E0],"tree_param":{"num_deleted":"0","num_feature":"89","num_nodes":"5","size_leaf_vector":"1"}},{"base_weights":[4.6959503E-6,-2.751362E-7,4.5357615E-4,6.587657E-5,5.3564904E-6],"categories":[],"categories_nodes":[],"categories_segments":[],"categories_sizes":[],"default_left":[0,0,0,0,0],"id":38,"left_children":[1,-1,3,-1,-1],"loss_changes":[1.6411773E-6,0E0,1.0888917E-6,0E0,0E0],"parents":[2147483647,0,0,2,2],"right_children":[2,-1,4,-1,-1],"split_conditions":[7.7E-1,-2.751362E-7,2.7E1,6.587657E-5,5.3564904E-6],"split_indices":[73,0,15,0,0],"split_type":[0,0,0,0,0],"sum_hessian":[4.48E2,4.41E2,7E0,3E0,4E0],"tree_param":{"num_deleted":"0","num_feature":"89","num_nodes":"5","size_leaf_vector":"1"}},{"base_weights":[4.4782923E-6,-5.618972E-7,2.9717776E-4,1.3425049E-5,6.759534E-5],"categories":[],"categories_nodes":[],"categories_segments":[],"categories_sizes":[],"default_left":[0,0,0,0,0],"id":39,"left_children":[1,-1,3,-1,-1],"loss_changes":[1.5137048E-6,0E0,1.0628498E-6,0E0,0E0],"parents":[2147483647,0,0,2,2],"right_children":[2,-1,4,-1,-1],"split_conditions":[6.6E-1,-5.618972E-7,1.8051064E1,1.3425049E-5,6.759534E-5],"split_indices":[71,0,20,0,0],"split_type":[0,0,0,0,0],"sum_hessian":[4.48E2,4.32E2,1.6E1,1.4E1,2E0],"tree_param":{"num_deleted":"0","num_feature":"89","num_nodes":"5","size_leaf_vector":"1"}},{"base_weights":[4.2992388E-6,-1.3432236E-6,1.5568228E-4,6.399026E-5,9.302476E-6],"categories":[],"categories_nodes":[],"categories_segments":[],"categories_sizes":[],"default_left":[0,0,0,0,0],"id":40,"left_children":[1,-1,3,-1,-1],"loss_changes":[1.4360903E-6,0E0,1.3030088E-6,0E0,0E0],"parents":[2147483647,0,0,2,2],"right_children":[2,-1,4,-1,-1],"split_conditions":[1.975E-3,-1.3432236E-6,7.6E-3,6.399026E-5,9.302476E-6],"split_indices":[67,0,38,0,0],"split_type":[0,0,0,0,0],"sum_hessian":[4.48E2,3.94E2,5.4E1,2E0,5.2E1],"tree_param":{"num_deleted":"0","num_feature":"89","num_nodes":"5","size_leaf_vector":"1"}},{"base_weights":[4.1155185E-6,2.8292163E-5,-3.0702776E-7],"categories":[],"categories_nodes":[],"categories_segments":[],"categories_sizes":[],"default_left":[0,0,0],"id":41,"left_children":[1,-1,-1],"loss_changes":[1.2495736E-6,0E0,0E0],"parents":[2147483647,0,0],"right_children":[2,-1,-1],"split_conditions":[7.6E-3,2.8292163E-5,-3.0702776E-7],"split_indices":[38,0,0],"split_type":[0,0,0],"sum_hessian":[4.48E2,9E0,4.39E2],"tree_param":{"num_deleted":"0","num_feature":"89","num_nodes":"3","size_leaf_vector":"1"}},{"base_weights":[3.848593E-6,-1.2520866E-6,1.4382176E-4,5.9068552E-5,8.596417E-6],"categories":[],"categories_nodes":[],"categories_segments":[],"categories_sizes":[],"default_left":[0,0,0,0,0],"id":42,"left_children":[1,-1,3,-1,-1],"loss_changes":[1.2277658E-6,0E0,1.1098251E-6,0E0,0E0],"parents":[2147483647,0,0,2,2],"right_children":[2,-1,4,-1,-1],"split_conditions":[1.975E-3,-1.2520866E-6,7.6E-3,5.9068552E-5,8.596417E-6],"split_indices":[67,0,38,0,0],"split_type":[0,0,0,0,0],"sum_hessian":[4.48E2,3.94E2,5.4E1,2E0,5.2E1],"tree_param":{"num_deleted":"0","num_feature":"89","num_nodes":"5","size_leaf_vector":"1"}},{"base_weights":[3.6886076E-6,1.03557606E-4,-1.7870415E-6,6.329878E-6,5.0194896E-5],"categories":[],"categories_nodes":[],"categories_segments":[],"categories_sizes":[],"default_left":[0,0,0,0,0],"id":43,"left_children":[1,3,-1,-1,-1],"loss_changes":[1.169378E-6,1.1408034E-6,0E0,0E0,0E0],"parents":[2147483647,0,0,1,1],"right_children":[2,4,-1,-1,-1],"split_conditions":[5E0,4E-3,-1.7870415E-6,6.329878E-6,5.0194896E-5],"split_indices":[3,59,0,0,0],"split_type":[0,0,0,0,0],"sum_hessian":[4.48E2,9.2E1,3.56E2,8.9E1,3E0],"tree_param":{"num_deleted":"0","num_feature":"89","num_nodes":"5","size_leaf_vector":"1"}},{"base_weights":[3.5154503E-6,-4.206247E-7,2.2119097E-5],"categories":[],"categories_nodes":[],"categories_segments":[],"categories_sizes":[],"default_left":[0,0,0],"id":44,"left_children":[1,-1,-1],"loss_changes":[1.0767482E-6,0E0,0E0],"parents":[2147483647,0,0],"right_children":[2,-1,-1],"split_conditions":[9.8666664E1,-4.206247E-7,2.2119097E-5],"split_indices":[29,0,0],"split_type":[0,0,0],"sum_hessian":[4.48E2,4.35E2,1.3E1],"tree_param":{"num_deleted":"0","num_feature":"89","num_nodes":"3","size_leaf_vector":"1"}},{"base_weights":[3.282541E-6],"categories":[],"categories_nodes":[],"categories_segments":[],"categories_sizes":[],"default_left":[0],"id":45,"left_children":[-1],"loss_changes":[0E0],"parents":[2147483647],"right_children":[-1],"split_conditions":[2.6260327E-7],"split_indices":[0],"split_type":[0],"sum_hessian":[4.48E2],"tree_param":{"num_deleted":"0","num_feature":"89","num_nodes":"1","size_leaf_vector":"1"}},{"base_weights":[3.0205028E-6],"categories":[],"categories_nodes":[],"categories_segments":[],"categories_sizes":[],"default_left":[0],"id":46,"left_children":[-1],"loss_changes":[0E0],"parents":[2147483647],"right_children":[-1],"split_conditions":[2.416402E-7],"split_indices":[0],"split_type":[0],"sum_hessian":[4.48E2],"tree_param":{"num_deleted":"0","num_feature":"89","num_nodes":"1","size_leaf_vector":"1"}},{"base_weights":[2.7793747E-6],"categories":[],"categories_nodes":[],"categories_segments":[],"categories_sizes":[],"default_left":[0],"id":47,"left_children":[-1],"loss_changes":[0E0],"parents":[2147483647],"right_children":[-1],"split_conditions":[2.2234997E-7],"split_indices":[0],"split_type":[0],"sum_hessian":[4.48E2],"tree_param":{"num_deleted":"0","num_feature":"89","num_nodes":"1","size_leaf_vector":"1"}},{"base_weights":[2.557517E-6],"categories":[],"categories_nodes":[],"categories_segments":[],"categories_sizes":[],"default_left":[0],"id":48,"left_children":[-1],"loss_changes":[0E0],"parents":[2147483647],"right_children":[-1],"split_conditions":[2.0460136E-7],"split_indices":[0],"split_type":[0],"sum_hessian":[4.48E2],"tree_param":{"num_deleted":"0","num_feature":"89","num_nodes":"1","size_leaf_vector":"1"}},{"base_weights":[2.353325E-6],"categories":[],"categories_nodes":[],"categories_segments":[],"categories_sizes":[],"default_left":[0],"id":49,"left_children":[-1],"loss_changes":[0E0],"parents":[2147483647],"right_children":[-1],"split_conditions":[1.88266E-7],"split_indices":[0],"split_type":[0],"sum_hessian":[4.48E2],"tree_param":{"num_deleted":"0","num_feature":"89","num_nodes":"1","size_leaf_vector":"1"}},{"base_weights":[2.1654841E-6],"categories":[],"categories_nodes":[],"categories_segments":[],"categories_sizes":[],"default_left":[0],"id":50,"left_children":[-1],"loss_changes":[0E0],"parents":[2147483647],"right_children":[-1],"split_conditions":[1.7323873E-7],"split_indices":[0],"split_type":[0],"sum_hessian":[4.48E2],"tree_param":{"num_deleted":"0","num_feature":"89","num_nodes":"1","size_leaf_vector":"1"}},{"base_weights":[1.9926438E-6],"categories":[],"categories_nodes":[],"categories_segments":[],"categories_sizes":[],"default_left":[0],"id":51,"left_children":[-1],"loss_changes":[0E0],"parents":[2147483647],"right_children":[-1],"split_conditions":[1.594115E-7],"split_indices":[0],"split_type":[0],"sum_hessian":[4.48E2],"tree_param":{"num_deleted":"0","num_feature":"89","num_nodes":"1","size_leaf_vector":"1"}},{"base_weights":[1.8335999E-6],"categories":[],"categories_nodes":[],"categories_segments":[],"categories_sizes":[],"default_left":[0],"id":52,"left_children":[-1],"loss_changes":[0E0],"parents":[2147483647],"right_children":[-1],"split_conditions":[1.4668798E-7],"split_indices":[0],"split_type":[0],"sum_hessian":[4.48E2],"tree_param":{"num_deleted":"0","num_feature":"89","num_nodes":"1","size_leaf_vector":"1"}},{"base_weights":[1.6872413E-6],"categories":[],"categories_nodes":[],"categories_segments":[],"categories_sizes":[],"default_left":[0],"id":53,"left_children":[-1],"loss_changes":[0E0],"parents":[2147483647],"right_children":[-1],"split_conditions":[1.349793E-7],"split_indices":[0],"split_type":[0],"sum_hessian":[4.48E2],"tree_param":{"num_deleted":"0","num_feature":"89","num_nodes":"1","size_leaf_vector":"1"}},{"base_weights":[1.5525875E-6],"categories":[],"categories_nodes":[],"categories_segments":[],"categories_sizes":[],"default_left":[0],"id":54,"left_children":[-1],"loss_changes":[0E0],"parents":[2147483647],"right_children":[-1],"split_conditions":[1.2420699E-7],"split_indices":[0],"split_type":[0],"sum_hessian":[4.48E2],"tree_param":{"num_deleted":"0","num_feature":"89","num_nodes":"1","size_leaf_vector":"1"}},{"base_weights":[1.4286676E-6],"categories":[],"categories_nodes":[],"categories_segments":[],"categories_sizes":[],"default_left":[0],"id":55,"left_children":[-1],"loss_changes":[0E0],"parents":[2147483647],"right_children":[-1],"split_conditions":[1.1429341E-7],"split_indices":[0],"split_type":[0],"sum_hessian":[4.48E2],"tree_param":{"num_deleted":"0","num_feature":"89","num_nodes":"1","size_leaf_vector":"1"}},{"base_weights":[1.3146029E-6],"categories":[],"categories_nodes":[],"categories_segments":[],"categories_sizes":[],"default_left":[0],"id":56,"left_children":[-1],"loss_changes":[0E0],"parents":[2147483647],"right_children":[-1],"split_conditions":[1.05168226E-7],"split_indices":[0],"split_type":[0],"sum_hessian":[4.48E2],"tree_param":{"num_deleted":"0","num_feature":"89","num_nodes":"1","size_leaf_vector":"1"}},{"base_weights":[1.2096851E-6],"categories":[],"categories_nodes":[],"categories_segments":[],"categories_sizes":[],"default_left":[0],"id":57,"left_children":[-1],"loss_changes":[0E0],"parents":[2147483647],"right_children":[-1],"split_conditions":[9.677481E-8],"split_indices":[0],"split_type":[0],"sum_hessian":[4.48E2],"tree_param":{"num_deleted":"0","num_feature":"89","num_nodes":"1","size_leaf_vector":"1"}},{"base_weights":[1.1131306E-6],"categories":[],"categories_nodes":[],"categories_segments":[],"categories_sizes":[],"default_left":[0],"id":58,"left_children":[-1],"loss_changes":[0E0],"parents":[2147483647],"right_children":[-1],"split_conditions":[8.9050445E-8],"split_indices":[0],"split_type":[0],"sum_hessian":[4.48E2],"tree_param":{"num_deleted":"0","num_feature":"89","num_nodes":"1","size_leaf_vector":"1"}},{"base_weights":[1.0242883E-6],"categories":[],"categories_nodes":[],"categories_segments":[],"categories_sizes":[],"default_left":[0],"id":59,"left_children":[-1],"loss_changes":[0E0],"parents":[2147483647],"right_children":[-1],"split_conditions":[8.1943064E-8],"split_indices":[0],"split_type":[0],"sum_hessian":[4.48E2],"tree_param":{"num_deleted":"0","num_feature":"89","num_nodes":"1","size_leaf_vector":"1"}},{"base_weights":[9.425144E-7],"categories":[],"categories_nodes":[],"categories_segments":[],"categories_sizes":[],"default_left":[0],"id":60,"left_children":[-1],"loss_changes":[0E0],"parents":[2147483647],"right_children":[-1],"split_conditions":[7.5401154E-8],"split_indices":[0],"split_type":[0],"sum_hessian":[4.48E2],"tree_param":{"num_deleted":"0","num_feature":"89","num_nodes":"1","size_leaf_vector":"1"}},{"base_weights":[8.67255E-7],"categories":[],"categories_nodes":[],"categories_segments":[],"categories_sizes":[],"default_left":[0],"id":61,"left_children":[-1],"loss_changes":[0E0],"parents":[2147483647],"right_children":[-1],"split_conditions":[6.93804E-8],"split_indices":[0],"split_type":[0],"sum_hessian":[4.48E2],"tree_param":{"num_deleted":"0","num_feature":"89","num_nodes":"1","size_leaf_vector":"1"}},{"base_weights":[7.9802805E-7],"categories":[],"categories_nodes":[],"categories_segments":[],"categories_sizes":[],"default_left":[0],"id":62,"left_children":[-1],"loss_changes":[0E0],"parents":[2147483647],"right_children":[-1],"split_conditions":[6.384224E-8],"split_indices":[0],"split_type":[0],"sum_hessian":[4.48E2],"tree_param":{"num_deleted":"0","num_feature":"89","num_nodes":"1","size_leaf_vector":"1"}},{"base_weights":[7.3436274E-7],"categories":[],"categories_nodes":[],"categories_segments":[],"categories_sizes":[],"default_left":[0],"id":63,"left_children":[-1],"loss_changes":[0E0],"parents":[2147483647],"right_children":[-1],"split_conditions":[5.874902E-8],"split_indices":[0],"split_type":[0],"sum_hessian":[4.48E2],"tree_param":{"num_deleted":"0","num_feature":"89","num_nodes":"1","size_leaf_vector":"1"}},{"base_weights":[6.7573285E-7],"categories":[],"categories_nodes":[],"categories_segments":[],"categories_sizes":[],"default_left":[0],"id":64,"left_children":[-1],"loss_changes":[0E0],"parents":[2147483647],"right_children":[-1],"split_conditions":[5.4058628E-8],"split_indices":[0],"split_type":[0],"sum_hessian":[4.48E2],"tree_param":{"num_deleted":"0","num_feature":"89","num_nodes":"1","size_leaf_vector":"1"}},{"base_weights":[6.2182676E-7],"categories":[],"categories_nodes":[],"categories_segments":[],"categories_sizes":[],"default_left":[0],"id":65,"left_children":[-1],"loss_changes":[0E0],"parents":[2147483647],"right_children":[-1],"split_conditions":[4.9746138E-8],"split_indices":[0],"split_type":[0],"sum_hessian":[4.48E2],"tree_param":{"num_deleted":"0","num_feature":"89","num_nodes":"1","size_leaf_vector":"1"}},{"base_weights":[5.7220126E-7],"categories":[],"categories_nodes":[],"categories_segments":[],"categories_sizes":[],"default_left":[0],"id":66,"left_children":[-1],"loss_changes":[0E0],"parents":[2147483647],"right_children":[-1],"split_conditions":[4.57761E-8],"split_indices":[0],"split_type":[0],"sum_hessian":[4.48E2],"tree_param":{"num_deleted":"0","num_feature":"89","num_nodes":"1","size_leaf_vector":"1"}},{"base_weights":[5.2653536E-7],"categories":[],"categories_nodes":[],"categories_segments":[],"categories_sizes":[],"default_left":[0],"id":67,"left_children":[-1],"loss_changes":[0E0],"parents":[2147483647],"right_children":[-1],"split_conditions":[4.2122828E-8],"split_indices":[0],"split_type":[0],"sum_hessian":[4.48E2],"tree_param":{"num_deleted":"0","num_feature":"89","num_nodes":"1","size_leaf_vector":"1"}},{"base_weights":[4.844895E-7],"categories":[],"categories_nodes":[],"categories_segments":[],"categories_sizes":[],"default_left":[0],"id":68,"left_children":[-1],"loss_changes":[0E0],"parents":[2147483647],"right_children":[-1],"split_conditions":[3.8759158E-8],"split_indices":[0],"split_type":[0],"sum_hessian":[4.48E2],"tree_param":{"num_deleted":"0","num_feature":"89","num_nodes":"1","size_leaf_vector":"1"}},{"base_weights":[4.458266E-7],"categories":[],"categories_nodes":[],"categories_segments":[],"categories_sizes":[],"default_left":[0],"id":69,"left_children":[-1],"loss_changes":[0E0],"parents":[2147483647],"right_children":[-1],"split_conditions":[3.5666126E-8],"split_indices":[0],"split_type":[0],"sum_hessian":[4.48E2],"tree_param":{"num_deleted":"0","num_feature":"89","num_nodes":"1","size_leaf_vector":"1"}},{"base_weights":[4.102726E-7],"categories":[],"categories_nodes":[],"categories_segments":[],"categories_sizes":[],"default_left":[0],"id":70,"left_children":[-1],"loss_changes":[0E0],"parents":[2147483647],"right_children":[-1],"split_conditions":[3.282181E-8],"split_indices":[0],"split_type":[0],"sum_hessian":[4.48E2],"tree_param":{"num_deleted":"0","num_feature":"89","num_nodes":"1","size_leaf_vector":"1"}},{"base_weights":[3.775192E-7],"categories":[],"categories_nodes":[],"categories_segments":[],"categories_sizes":[],"default_left":[0],"id":71,"left_children":[-1],"loss_changes":[0E0],"parents":[2147483647],"right_children":[-1],"split_conditions":[3.0201534E-8],"split_indices":[0],"split_type":[0],"sum_hessian":[4.48E2],"tree_param":{"num_deleted":"0","num_feature":"89","num_nodes":"1","size_leaf_vector":"1"}},{"base_weights":[3.4740796E-7],"categories":[],"categories_nodes":[],"categories_segments":[],"categories_sizes":[],"default_left":[0],"id":72,"left_children":[-1],"loss_changes":[0E0],"parents":[2147483647],"right_children":[-1],"split_conditions":[2.7792636E-8],"split_indices":[0],"split_type":[0],"sum_hessian":[4.48E2],"tree_param":{"num_deleted":"0","num_feature":"89","num_nodes":"1","size_leaf_vector":"1"}},{"base_weights":[3.1967298E-7],"categories":[],"categories_nodes":[],"categories_segments":[],"categories_sizes":[],"default_left":[0],"id":73,"left_children":[-1],"loss_changes":[0E0],"parents":[2147483647],"right_children":[-1],"split_conditions":[2.5573838E-8],"split_indices":[0],"split_type":[0],"sum_hessian":[4.48E2],"tree_param":{"num_deleted":"0","num_feature":"89","num_nodes":"1","size_leaf_vector":"1"}},{"base_weights":[2.9413044E-7],"categories":[],"categories_nodes":[],"categories_segments":[],"categories_sizes":[],"default_left":[0],"id":74,"left_children":[-1],"loss_changes":[0E0],"parents":[2147483647],"right_children":[-1],"split_conditions":[2.3530434E-8],"split_indices":[0],"split_type":[0],"sum_hessian":[4.48E2],"tree_param":{"num_deleted":"0","num_feature":"89","num_nodes":"1","size_leaf_vector":"1"}},{"base_weights":[2.706664E-7],"categories":[],"categories_nodes":[],"categories_segments":[],"categories_sizes":[],"default_left":[0],"id":75,"left_children":[-1],"loss_changes":[0E0],"parents":[2147483647],"right_children":[-1],"split_conditions":[2.165331E-8],"split_indices":[0],"split_type":[0],"sum_hessian":[4.48E2],"tree_param":{"num_deleted":"0","num_feature":"89","num_nodes":"1","size_leaf_vector":"1"}},{"base_weights":[2.4906086E-7],"categories":[],"categories_nodes":[],"categories_segments":[],"categories_sizes":[],"default_left":[0],"id":76,"left_children":[-1],"loss_changes":[0E0],"parents":[2147483647],"right_children":[-1],"split_conditions":[1.9924869E-8],"split_indices":[0],"split_type":[0],"sum_hessian":[4.48E2],"tree_param":{"num_deleted":"0","num_feature":"89","num_nodes":"1","size_leaf_vector":"1"}},{"base_weights":[2.2918107E-7],"categories":[],"categories_nodes":[],"categories_segments":[],"categories_sizes":[],"default_left":[0],"id":77,"left_children":[-1],"loss_changes":[0E0],"parents":[2147483647],"right_children":[-1],"split_conditions":[1.8334486E-8],"split_indices":[0],"split_type":[0],"sum_hessian":[4.48E2],"tree_param":{"num_deleted":"0","num_feature":"89","num_nodes":"1","size_leaf_vector":"1"}},{"base_weights":[2.1091617E-7],"categories":[],"categories_nodes":[],"categories_segments":[],"categories_sizes":[],"default_left":[0],"id":78,"left_children":[-1],"loss_changes":[0E0],"parents":[2147483647],"right_children":[-1],"split_conditions":[1.6873294E-8],"split_indices":[0],"split_type":[0],"sum_hessian":[4.48E2],"tree_param":{"num_deleted":"0","num_feature":"89","num_nodes":"1","size_leaf_vector":"1"}},{"base_weights":[1.9409273E-7],"categories":[],"categories_nodes":[],"categories_segments":[],"categories_sizes":[],"default_left":[0],"id":79,"left_children":[-1],"loss_changes":[0E0],"parents":[2147483647],"right_children":[-1],"split_conditions":[1.5527418E-8],"split_indices":[0],"split_type":[0],"sum_hessian":[4.48E2],"tree_param":{"num_deleted":"0","num_feature":"89","num_nodes":"1","size_leaf_vector":"1"}},{"base_weights":[1.786156E-7],"categories":[],"categories_nodes":[],"categories_segments":[],"categories_sizes":[],"default_left":[0],"id":80,"left_children":[-1],"loss_changes":[0E0],"parents":[2147483647],"right_children":[-1],"split_conditions":[1.4289247E-8],"split_indices":[0],"split_type":[0],"sum_hessian":[4.48E2],"tree_param":{"num_deleted":"0","num_feature":"89","num_nodes":"1","size_leaf_vector":"1"}},{"base_weights":[1.6435679E-7],"categories":[],"categories_nodes":[],"categories_segments":[],"categories_sizes":[],"default_left":[0],"id":81,"left_children":[-1],"loss_changes":[0E0],"parents":[2147483647],"right_children":[-1],"split_conditions":[1.3148543E-8],"split_indices":[0],"split_type":[0],"sum_hessian":[4.48E2],"tree_param":{"num_deleted":"0","num_feature":"89","num_nodes":"1","size_leaf_vector":"1"}},{"base_weights":[1.5125033E-7],"categories":[],"categories_nodes":[],"categories_segments":[],"categories_sizes":[],"default_left":[0],"id":82,"left_children":[-1],"loss_changes":[0E0],"parents":[2147483647],"right_children":[-1],"split_conditions":[1.2100027E-8],"split_indices":[0],"split_type":[0],"sum_hessian":[4.48E2],"tree_param":{"num_deleted":"0","num_feature":"89","num_nodes":"1","size_leaf_vector":"1"}},{"base_weights":[1.3917011E-7],"categories":[],"categories_nodes":[],"categories_segments":[],"categories_sizes":[],"default_left":[0],"id":83,"left_children":[-1],"loss_changes":[0E0],"parents":[2147483647],"right_children":[-1],"split_conditions":[1.1133609E-8],"split_indices":[0],"split_type":[0],"sum_hessian":[4.48E2],"tree_param":{"num_deleted":"0","num_feature":"89","num_nodes":"1","size_leaf_vector":"1"}},{"base_weights":[1.2802886E-7],"categories":[],"categories_nodes":[],"categories_segments":[],"categories_sizes":[],"default_left":[0],"id":84,"left_children":[-1],"loss_changes":[0E0],"parents":[2147483647],"right_children":[-1],"split_conditions":[1.0242308E-8],"split_indices":[0],"split_type":[0],"sum_hessian":[4.48E2],"tree_param":{"num_deleted":"0","num_feature":"89","num_nodes":"1","size_leaf_vector":"1"}},{"base_weights":[1.1780712E-7],"categories":[],"categories_nodes":[],"categories_segments":[],"categories_sizes":[],"default_left":[0],"id":85,"left_children":[-1],"loss_changes":[0E0],"parents":[2147483647],"right_children":[-1],"split_conditions":[9.42457E-9],"split_indices":[0],"split_type":[0],"sum_hessian":[4.48E2],"tree_param":{"num_deleted":"0","num_feature":"89","num_nodes":"1","size_leaf_vector":"1"}},{"base_weights":[1.08417666E-7],"categories":[],"categories_nodes":[],"categories_segments":[],"categories_sizes":[],"default_left":[0],"id":86,"left_children":[-1],"loss_changes":[0E0],"parents":[2147483647],"right_children":[-1],"split_conditions":[8.673413E-9],"split_indices":[0],"split_type":[0],"sum_hessian":[4.48E2],"tree_param":{"num_deleted":"0","num_feature":"89","num_nodes":"1","size_leaf_vector":"1"}},{"base_weights":[9.973436E-8],"categories":[],"categories_nodes":[],"categories_segments":[],"categories_sizes":[],"default_left":[0],"id":87,"left_children":[-1],"loss_changes":[0E0],"parents":[2147483647],"right_children":[-1],"split_conditions":[7.978748E-9],"split_indices":[0],"split_type":[0],"sum_hessian":[4.48E2],"tree_param":{"num_deleted":"0","num_feature":"89","num_nodes":"1","size_leaf_vector":"1"}},{"base_weights":[9.174642E-8],"categories":[],"categories_nodes":[],"categories_segments":[],"categories_sizes":[],"default_left":[0],"id":88,"left_children":[-1],"loss_changes":[0E0],"parents":[2147483647],"right_children":[-1],"split_conditions":[7.3397137E-9],"split_indices":[0],"split_type":[0],"sum_hessian":[4.48E2],"tree_param":{"num_deleted":"0","num_feature":"89","num_nodes":"1","size_leaf_vector":"1"}},{"base_weights":[8.440941E-8],"categories":[],"categories_nodes":[],"categories_segments":[],"categories_sizes":[],"default_left":[0],"id":89,"left_children":[-1],"loss_changes":[0E0],"parents":[2147483647],"right_children":[-1],"split_conditions":[6.7527526E-9],"split_indices":[0],"split_type":[0],"sum_hessian":[4.48E2],"tree_param":{"num_deleted":"0","num_feature":"89","num_nodes":"1","size_leaf_vector":"1"}},{"base_weights":[7.7671835E-8],"categories":[],"categories_nodes":[],"categories_segments":[],"categories_sizes":[],"default_left":[0],"id":90,"left_children":[-1],"loss_changes":[0E0],"parents":[2147483647],"right_children":[-1],"split_conditions":[6.213747E-9],"split_indices":[0],"split_type":[0],"sum_hessian":[4.48E2],"tree_param":{"num_deleted":"0","num_feature":"89","num_nodes":"1","size_leaf_vector":"1"}},{"base_weights":[7.148717E-8],"categories":[],"categories_nodes":[],"categories_segments":[],"categories_sizes":[],"default_left":[0],"id":91,"left_children":[-1],"loss_changes":[0E0],"parents":[2147483647],"right_children":[-1],"split_conditions":[5.7189737E-9],"split_indices":[0],"split_type":[0],"sum_hessian":[4.48E2],"tree_param":{"num_deleted":"0","num_feature":"89","num_nodes":"1","size_leaf_vector":"1"}},{"base_weights":[6.5778934E-8],"categories":[],"categories_nodes":[],"categories_segments":[],"categories_sizes":[],"default_left":[0],"id":92,"left_children":[-1],"loss_changes":[0E0],"parents":[2147483647],"right_children":[-1],"split_conditions":[5.2623146E-9],"split_indices":[0],"split_type":[0],"sum_hessian":[4.48E2],"tree_param":{"num_deleted":"0","num_feature":"89","num_nodes":"1","size_leaf_vector":"1"}},{"base_weights":[6.0533246E-8],"categories":[],"categories_nodes":[],"categories_segments":[],"categories_sizes":[],"default_left":[0],"id":93,"left_children":[-1],"loss_changes":[0E0],"parents":[2147483647],"right_children":[-1],"split_conditions":[4.8426596E-9],"split_indices":[0],"split_type":[0],"sum_hessian":[4.48E2],"tree_param":{"num_deleted":"0","num_feature":"89","num_nodes":"1","size_leaf_vector":"1"}},{"base_weights":[5.5667005E-8],"categories":[],"categories_nodes":[],"categories_segments":[],"categories_sizes":[],"default_left":[0],"id":94,"left_children":[-1],"loss_changes":[0E0],"parents":[2147483647],"right_children":[-1],"split_conditions":[4.4533603E-9],"split_indices":[0],"split_type":[0],"sum_hessian":[4.48E2],"tree_param":{"num_deleted":"0","num_feature":"89","num_nodes":"1","size_leaf_vector":"1"}},{"base_weights":[5.124076E-8],"categories":[],"categories_nodes":[],"categories_segments":[],"categories_sizes":[],"default_left":[0],"id":95,"left_children":[-1],"loss_changes":[0E0],"parents":[2147483647],"right_children":[-1],"split_conditions":[4.099261E-9],"split_indices":[0],"split_type":[0],"sum_hessian":[4.48E2],"tree_param":{"num_deleted":"0","num_feature":"89","num_nodes":"1","size_leaf_vector":"1"}},{"base_weights":[4.715819E-8],"categories":[],"categories_nodes":[],"categories_segments":[],"categories_sizes":[],"default_left":[0],"id":96,"left_children":[-1],"loss_changes":[0E0],"parents":[2147483647],"right_children":[-1],"split_conditions":[3.772655E-9],"split_indices":[0],"split_type":[0],"sum_hessian":[4.48E2],"tree_param":{"num_deleted":"0","num_feature":"89","num_nodes":"1","size_leaf_vector":"1"}},{"base_weights":[4.343147E-8],"categories":[],"categories_nodes":[],"categories_segments":[],"categories_sizes":[],"default_left":[0],"id":97,"left_children":[-1],"loss_changes":[0E0],"parents":[2147483647],"right_children":[-1],"split_conditions":[3.4745176E-9],"split_indices":[0],"split_type":[0],"sum_hessian":[4.48E2],"tree_param":{"num_deleted":"0","num_feature":"89","num_nodes":"1","size_leaf_vector":"1"}},{"base_weights":[3.994731E-8],"categories":[],"categories_nodes":[],"categories_segments":[],"categories_sizes":[],"default_left":[0],"id":98,"left_children":[-1],"loss_changes":[0E0],"parents":[2147483647],"right_children":[-1],"split_conditions":[3.1957847E-9],"split_indices":[0],"split_type":[0],"sum_hessian":[4.48E2],"tree_param":{"num_deleted":"0","num_feature":"89","num_nodes":"1","size_leaf_vector":"1"}},{"base_weights":[3.678426E-8],"categories":[],"categories_nodes":[],"categories_segments":[],"categories_sizes":[],"default_left":[0],"id":99,"left_children":[-1],"loss_changes":[0E0],"parents":[2147483647],"right_children":[-1],"split_conditions":[2.9427407E-9],"split_indices":[0],"split_type":[0],"sum_hessian":[4.48E2],"tree_param":{"num_deleted":"0","num_feature":"89","num_nodes":"1","size_leaf_vector":"1"}},{"base_weights":[3.3854043E-8],"categories":[],"categories_nodes":[],"categories_segments":[],"categories_sizes":[],"default_left":[0],"id":100,"left_children":[-1],"loss_changes":[0E0],"parents":[2147483647],"right_children":[-1],"split_conditions":[2.7083233E-9],"split_indices":[0],"split_type":[0],"sum_hessian":[4.48E2],"tree_param":{"num_deleted":"0","num_feature":"89","num_nodes":"1","size_leaf_vector":"1"}},{"base_weights":[3.1153544E-8],"categories":[],"categories_nodes":[],"categories_segments":[],"categories_sizes":[],"default_left":[0],"id":101,"left_children":[-1],"loss_changes":[0E0],"parents":[2147483647],"right_children":[-1],"split_conditions":[2.4922835E-9],"split_indices":[0],"split_type":[0],"sum_hessian":[4.48E2],"tree_param":{"num_deleted":"0","num_feature":"89","num_nodes":"1","size_leaf_vector":"1"}},{"base_weights":[2.8685877E-8],"categories":[],"categories_nodes":[],"categories_segments":[],"categories_sizes":[],"default_left":[0],"id":102,"left_children":[-1],"loss_changes":[0E0],"parents":[2147483647],"right_children":[-1],"split_conditions":[2.29487E-9],"split_indices":[0],"split_type":[0],"sum_hessian":[4.48E2],"tree_param":{"num_deleted":"0","num_feature":"89","num_nodes":"1","size_leaf_vector":"1"}},{"base_weights":[2.6374552E-8],"categories":[],"categories_nodes":[],"categories_segments":[],"categories_sizes":[],"default_left":[0],"id":103,"left_children":[-1],"loss_changes":[0E0],"parents":[2147483647],"right_children":[-1],"split_conditions":[2.1099642E-9],"split_indices":[0],"split_type":[0],"sum_hessian":[4.48E2],"tree_param":{"num_deleted":"0","num_feature":"89","num_nodes":"1","size_leaf_vector":"1"}},{"base_weights":[2.4283224E-8],"categories":[],"categories_nodes":[],"categories_segments":[],"categories_sizes":[],"default_left":[0],"id":104,"left_children":[-1],"loss_changes":[0E0],"parents":[2147483647],"right_children":[-1],"split_conditions":[1.9426578E-9],"split_indices":[0],"split_type":[0],"sum_hessian":[4.48E2],"tree_param":{"num_deleted":"0","num_feature":"89","num_nodes":"1","size_leaf_vector":"1"}},{"base_weights":[2.2337481E-8],"categories":[],"categories_nodes":[],"categories_segments":[],"categories_sizes":[],"default_left":[0],"id":105,"left_children":[-1],"loss_changes":[0E0],"parents":[2147483647],"right_children":[-1],"split_conditions":[1.7869984E-9],"split_indices":[0],"split_type":[0],"sum_hessian":[4.48E2],"tree_param":{"num_deleted":"0","num_feature":"89","num_nodes":"1","size_leaf_vector":"1"}},{"base_weights":[2.0566231E-8],"categories":[],"categories_nodes":[],"categories_segments":[],"categories_sizes":[],"default_left":[0],"id":106,"left_children":[-1],"loss_changes":[0E0],"parents":[2147483647],"right_children":[-1],"split_conditions":[1.6452985E-9],"split_indices":[0],"split_type":[0],"sum_hessian":[4.48E2],"tree_param":{"num_deleted":"0","num_feature":"89","num_nodes":"1","size_leaf_vector":"1"}},{"base_weights":[1.8937454E-8],"categories":[],"categories_nodes":[],"categories_segments":[],"categories_sizes":[],"default_left":[0],"id":107,"left_children":[-1],"loss_changes":[0E0],"parents":[2147483647],"right_children":[-1],"split_conditions":[1.5149964E-9],"split_indices":[0],"split_type":[0],"sum_hessian":[4.48E2],"tree_param":{"num_deleted":"0","num_feature":"89","num_nodes":"1","size_leaf_vector":"1"}},{"base_weights":[1.7408757E-8],"categories":[],"categories_nodes":[],"categories_segments":[],"categories_sizes":[],"default_left":[0],"id":108,"left_children":[-1],"loss_changes":[0E0],"parents":[2147483647],"right_children":[-1],"split_conditions":[1.3927005E-9],"split_indices":[0],"split_type":[0],"sum_hessian":[4.48E2],"tree_param":{"num_deleted":"0","num_feature":"89","num_nodes":"1","size_leaf_vector":"1"}},{"base_weights":[1.6016958E-8],"categories":[],"categories_nodes":[],"categories_segments":[],"categories_sizes":[],"default_left":[0],"id":109,"left_children":[-1],"loss_changes":[0E0],"parents":[2147483647],"right_children":[-1],"split_conditions":[1.2813567E-9],"split_indices":[0],"split_type":[0],"sum_hessian":[4.48E2],"tree_param":{"num_deleted":"0","num_feature":"89","num_nodes":"1","size_leaf_vector":"1"}},{"base_weights":[1.472213E-8],"categories":[],"categories_nodes":[],"categories_segments":[],"categories_sizes":[],"default_left":[0],"id":110,"left_children":[-1],"loss_changes":[0E0],"parents":[2147483647],"right_children":[-1],"split_conditions":[1.1777704E-9],"split_indices":[0],"split_type":[0],"sum_hessian":[4.48E2],"tree_param":{"num_deleted":"0","num_feature":"89","num_nodes":"1","size_leaf_vector":"1"}},{"base_weights":[1.3560052E-8],"categories":[],"categories_nodes":[],"categories_segments":[],"categories_sizes":[],"default_left":[0],"id":111,"left_children":[-1],"loss_changes":[0E0],"parents":[2147483647],"right_children":[-1],"split_conditions":[1.0848041E-9],"split_indices":[0],"split_type":[0],"sum_hessian":[4.48E2],"tree_param":{"num_deleted":"0","num_feature":"89","num_nodes":"1","size_leaf_vector":"1"}},{"base_weights":[1.248833E-8],"categories":[],"categories_nodes":[],"categories_segments":[],"categories_sizes":[],"default_left":[0],"id":112,"left_children":[-1],"loss_changes":[0E0],"parents":[2147483647],"right_children":[-1],"split_conditions":[9.990664E-10],"split_indices":[0],"split_type":[0],"sum_hessian":[4.48E2],"tree_param":{"num_deleted":"0","num_feature":"89","num_nodes":"1","size_leaf_vector":"1"}},{"base_weights":[1.1471835E-8],"categories":[],"categories_nodes":[],"categories_segments":[],"categories_sizes":[],"default_left":[0],"id":113,"left_children":[-1],"loss_changes":[0E0],"parents":[2147483647],"right_children":[-1],"split_conditions":[9.1774677E-10],"split_indices":[0],"split_type":[0],"sum_hessian":[4.48E2],"tree_param":{"num_deleted":"0","num_feature":"89","num_nodes":"1","size_leaf_vector":"1"}},{"base_weights":[1.0542587E-8],"categories":[],"categories_nodes":[],"categories_segments":[],"categories_sizes":[],"default_left":[0],"id":114,"left_children":[-1],"loss_changes":[0E0],"parents":[2147483647],"right_children":[-1],"split_conditions":[8.4340696E-10],"split_indices":[0],"split_type":[0],"sum_hessian":[4.48E2],"tree_param":{"num_deleted":"0","num_feature":"89","num_nodes":"1","size_leaf_vector":"1"}},{"base_weights":[9.710308E-9],"categories":[],"categories_nodes":[],"categories_segments":[],"categories_sizes":[],"default_left":[0],"id":115,"left_children":[-1],"loss_changes":[0E0],"parents":[2147483647],"right_children":[-1],"split_conditions":[7.768246E-10],"split_indices":[0],"split_type":[0],"sum_hessian":[4.48E2],"tree_param":{"num_deleted":"0","num_feature":"89","num_nodes":"1","size_leaf_vector":"1"}},{"base_weights":[8.923533E-9],"categories":[],"categories_nodes":[],"categories_segments":[],"categories_sizes":[],"default_left":[0],"id":116,"left_children":[-1],"loss_changes":[0E0],"parents":[2147483647],"right_children":[-1],"split_conditions":[7.138826E-10],"split_indices":[0],"split_type":[0],"sum_hessian":[4.48E2],"tree_param":{"num_deleted":"0","num_feature":"89","num_nodes":"1","size_leaf_vector":"1"}},{"base_weights":[8.224004E-9],"categories":[],"categories_nodes":[],"categories_segments":[],"categories_sizes":[],"default_left":[0],"id":117,"left_children":[-1],"loss_changes":[0E0],"parents":[2147483647],"right_children":[-1],"split_conditions":[6.579203E-10],"split_indices":[0],"split_type":[0],"sum_hessian":[4.48E2],"tree_param":{"num_deleted":"0","num_feature":"89","num_nodes":"1","size_leaf_vector":"1"}},{"base_weights":[7.5373086E-9],"categories":[],"categories_nodes":[],"categories_segments":[],"categories_sizes":[],"default_left":[0],"id":118,"left_children":[-1],"loss_changes":[0E0],"parents":[2147483647],"right_children":[-1],"split_conditions":[6.0298466E-10],"split_indices":[0],"split_type":[0],"sum_hessian":[4.48E2],"tree_param":{"num_deleted":"0","num_feature":"89","num_nodes":"1","size_leaf_vector":"1"}},{"base_weights":[6.9378605E-9],"categories":[],"categories_nodes":[],"categories_segments":[],"categories_sizes":[],"default_left":[0],"id":119,"left_children":[-1],"loss_changes":[0E0],"parents":[2147483647],"right_children":[-1],"split_conditions":[5.550288E-10],"split_indices":[0],"split_type":[0],"sum_hessian":[4.48E2],"tree_param":{"num_deleted":"0","num_feature":"89","num_nodes":"1","size_leaf_vector":"1"}},{"base_weights":[6.3741927E-9],"categories":[],"categories_nodes":[],"categories_segments":[],"categories_sizes":[],"default_left":[0],"id":120,"left_children":[-1],"loss_changes":[0E0],"parents":[2147483647],"right_children":[-1],"split_conditions":[5.099354E-10],"split_indices":[0],"split_type":[0],"sum_hessian":[4.48E2],"tree_param":{"num_deleted":"0","num_feature":"89","num_nodes":"1","size_leaf_vector":"1"}},{"base_weights":[5.897771E-9],"categories":[],"categories_nodes":[],"categories_segments":[],"categories_sizes":[],"default_left":[0],"id":121,"left_children":[-1],"loss_changes":[0E0],"parents":[2147483647],"right_children":[-1],"split_conditions":[4.718217E-10],"split_indices":[0],"split_type":[0],"sum_hessian":[4.48E2],"tree_param":{"num_deleted":"0","num_feature":"89","num_nodes":"1","size_leaf_vector":"1"}},{"base_weights":[5.431073E-9],"categories":[],"categories_nodes":[],"categories_segments":[],"categories_sizes":[],"default_left":[0],"id":122,"left_children":[-1],"loss_changes":[0E0],"parents":[2147483647],"right_children":[-1],"split_conditions":[4.3448584E-10],"split_indices":[0],"split_type":[0],"sum_hessian":[4.48E2],"tree_param":{"num_deleted":"0","num_feature":"89","num_nodes":"1","size_leaf_vector":"1"}},{"base_weights":[4.978246E-9],"categories":[],"categories_nodes":[],"categories_segments":[],"categories_sizes":[],"default_left":[0],"id":123,"left_children":[-1],"loss_changes":[0E0],"parents":[2147483647],"right_children":[-1],"split_conditions":[3.9825965E-10],"split_indices":[0],"split_type":[0],"sum_hessian":[4.48E2],"tree_param":{"num_deleted":"0","num_feature":"89","num_nodes":"1","size_leaf_vector":"1"}},{"base_weights":[4.6029425E-9],"categories":[],"categories_nodes":[],"categories_segments":[],"categories_sizes":[],"default_left":[0],"id":124,"left_children":[-1],"loss_changes":[0E0],"parents":[2147483647],"right_children":[-1],"split_conditions":[3.682354E-10],"split_indices":[0],"split_type":[0],"sum_hessian":[4.48E2],"tree_param":{"num_deleted":"0","num_feature":"89","num_nodes":"1","size_leaf_vector":"1"}},{"base_weights":[4.237362E-9],"categories":[],"categories_nodes":[],"categories_segments":[],"categories_sizes":[],"default_left":[0],"id":125,"left_children":[-1],"loss_changes":[0E0],"parents":[2147483647],"right_children":[-1],"split_conditions":[3.3898895E-10],"split_indices":[0],"split_type":[0],"sum_hessian":[4.48E2],"tree_param":{"num_deleted":"0","num_feature":"89","num_nodes":"1","size_leaf_vector":"1"}},{"base_weights":[3.907562E-9],"categories":[],"categories_nodes":[],"categories_segments":[],"categories_sizes":[],"default_left":[0],"id":126,"left_children":[-1],"loss_changes":[0E0],"parents":[2147483647],"right_children":[-1],"split_conditions":[3.1260494E-10],"split_indices":[0],"split_type":[0],"sum_hessian":[4.48E2],"tree_param":{"num_deleted":"0","num_feature":"89","num_nodes":"1","size_leaf_vector":"1"}},{"base_weights":[3.5874845E-9],"categories":[],"categories_nodes":[],"categories_segments":[],"categories_sizes":[],"default_left":[0],"id":127,"left_children":[-1],"loss_changes":[0E0],"parents":[2147483647],"right_children":[-1],"split_conditions":[2.8699876E-10],"split_indices":[0],"split_type":[0],"sum_hessian":[4.48E2],"tree_param":{"num_deleted":"0","num_feature":"89","num_nodes":"1","size_leaf_vector":"1"}},{"base_weights":[3.344931E-9],"categories":[],"categories_nodes":[],"categories_segments":[],"categories_sizes":[],"default_left":[0],"id":128,"left_children":[-1],"loss_changes":[0E0],"parents":[2147483647],"right_children":[-1],"split_conditions":[2.6759447E-10],"split_indices":[0],"split_type":[0],"sum_hessian":[4.48E2],"tree_param":{"num_deleted":"0","num_feature":"89","num_nodes":"1","size_leaf_vector":"1"}},{"base_weights":[3.1023777E-9],"categories":[],"categories_nodes":[],"categories_segments":[],"categories_sizes":[],"default_left":[0],"id":129,"left_children":[-1],"loss_changes":[0E0],"parents":[2147483647],"right_children":[-1],"split_conditions":[2.4819022E-10],"split_indices":[0],"split_type":[0],"sum_hessian":[4.48E2],"tree_param":{"num_deleted":"0","num_feature":"89","num_nodes":"1","size_leaf_vector":"1"}},{"base_weights":[2.869547E-9],"categories":[],"categories_nodes":[],"categories_segments":[],"categories_sizes":[],"default_left":[0],"id":130,"left_children":[-1],"loss_changes":[0E0],"parents":[2147483647],"right_children":[-1],"split_conditions":[2.2956376E-10],"split_indices":[0],"split_type":[0],"sum_hessian":[4.48E2],"tree_param":{"num_deleted":"0","num_feature":"89","num_nodes":"1","size_leaf_vector":"1"}},{"base_weights":[2.6398277E-9],"categories":[],"categories_nodes":[],"categories_segments":[],"categories_sizes":[],"default_left":[0],"id":131,"left_children":[-1],"loss_changes":[0E0],"parents":[2147483647],"right_children":[-1],"split_conditions":[2.1118621E-10],"split_indices":[0],"split_type":[0],"sum_hessian":[4.48E2],"tree_param":{"num_deleted":"0","num_feature":"89","num_nodes":"1","size_leaf_vector":"1"}},{"base_weights":[2.4101083E-9],"categories":[],"categories_nodes":[],"categories_segments":[],"categories_sizes":[],"default_left":[0],"id":132,"left_children":[-1],"loss_changes":[0E0],"parents":[2147483647],"right_children":[-1],"split_conditions":[1.9280866E-10],"split_indices":[0],"split_type":[0],"sum_hessian":[4.48E2],"tree_param":{"num_deleted":"0","num_feature":"89","num_nodes":"1","size_leaf_vector":"1"}},{"base_weights":[2.1901119E-9],"categories":[],"categories_nodes":[],"categories_segments":[],"categories_sizes":[],"default_left":[0],"id":133,"left_children":[-1],"loss_changes":[0E0],"parents":[2147483647],"right_children":[-1],"split_conditions":[1.7520894E-10],"split_indices":[0],"split_type":[0],"sum_hessian":[4.48E2],"tree_param":{"num_deleted":"0","num_feature":"89","num_nodes":"1","size_leaf_vector":"1"}},{"base_weights":[1.9701154E-9],"categories":[],"categories_nodes":[],"categories_segments":[],"categories_sizes":[],"default_left":[0],"id":134,"left_children":[-1],"loss_changes":[0E0],"parents":[2147483647],"right_children":[-1],"split_conditions":[1.5760923E-10],"split_indices":[0],"split_type":[0],"sum_hessian":[4.48E2],"tree_param":{"num_deleted":"0","num_feature":"89","num_nodes":"1","size_leaf_vector":"1"}},{"base_weights":[1.8276428E-9],"categories":[],"categories_nodes":[],"categories_segments":[],"categories_sizes":[],"default_left":[0],"id":135,"left_children":[-1],"loss_changes":[0E0],"parents":[2147483647],"right_children":[-1],"split_conditions":[1.4621142E-10],"split_indices":[0],"split_type":[0],"sum_hessian":[4.48E2],"tree_param":{"num_deleted":"0","num_feature":"89","num_nodes":"1","size_leaf_vector":"1"}},{"base_weights":[1.6851701E-9],"categories":[],"categories_nodes":[],"categories_segments":[],"categories_sizes":[],"default_left":[0],"id":136,"left_children":[-1],"loss_changes":[0E0],"parents":[2147483647],"right_children":[-1],"split_conditions":[1.348136E-10],"split_indices":[0],"split_type":[0],"sum_hessian":[4.48E2],"tree_param":{"num_deleted":"0","num_feature":"89","num_nodes":"1","size_leaf_vector":"1"}},{"base_weights":[1.5524203E-9],"categories":[],"categories_nodes":[],"categories_segments":[],"categories_sizes":[],"default_left":[0],"id":137,"left_children":[-1],"loss_changes":[0E0],"parents":[2147483647],"right_children":[-1],"split_conditions":[1.2419363E-10],"split_indices":[0],"split_type":[0],"sum_hessian":[4.48E2],"tree_param":{"num_deleted":"0","num_feature":"89","num_nodes":"1","size_leaf_vector":"1"}},{"base_weights":[1.4196706E-9],"categories":[],"categories_nodes":[],"categories_segments":[],"categories_sizes":[],"default_left":[0],"id":138,"left_children":[-1],"loss_changes":[0E0],"parents":[2147483647],"right_children":[-1],"split_conditions":[1.13573644E-10],"split_indices":[0],"split_type":[0],"sum_hessian":[4.48E2],"tree_param":{"num_deleted":"0","num_feature":"89","num_nodes":"1","size_leaf_vector":"1"}},{"base_weights":[1.3227011E-9],"categories":[],"categories_nodes":[],"categories_segments":[],"categories_sizes":[],"default_left":[0],"id":139,"left_children":[-1],"loss_changes":[0E0],"parents":[2147483647],"right_children":[-1],"split_conditions":[1.05816085E-10],"split_indices":[0],"split_type":[0],"sum_hessian":[4.48E2],"tree_param":{"num_deleted":"0","num_feature":"89","num_nodes":"1","size_leaf_vector":"1"}},{"base_weights":[1.2257315E-9],"categories":[],"categories_nodes":[],"categories_segments":[],"categories_sizes":[],"default_left":[0],"id":140,"left_children":[-1],"loss_changes":[0E0],"parents":[2147483647],"right_children":[-1],"split_conditions":[9.805852E-11],"split_indices":[0],"split_type":[0],"sum_hessian":[4.48E2],"tree_param":{"num_deleted":"0","num_feature":"89","num_nodes":"1","size_leaf_vector":"1"}},{"base_weights":[1.128762E-9],"categories":[],"categories_nodes":[],"categories_segments":[],"categories_sizes":[],"default_left":[0],"id":141,"left_children":[-1],"loss_changes":[0E0],"parents":[2147483647],"right_children":[-1],"split_conditions":[9.0300954E-11],"split_indices":[0],"split_type":[0],"sum_hessian":[4.48E2],"tree_param":{"num_deleted":"0","num_feature":"89","num_nodes":"1","size_leaf_vector":"1"}},{"base_weights":[1.0317923E-9],"categories":[],"categories_nodes":[],"categories_segments":[],"categories_sizes":[],"default_left":[0],"id":142,"left_children":[-1],"loss_changes":[0E0],"parents":[2147483647],"right_children":[-1],"split_conditions":[8.254338E-11],"split_indices":[0],"split_type":[0],"sum_hessian":[4.48E2],"tree_param":{"num_deleted":"0","num_feature":"89","num_nodes":"1","size_leaf_vector":"1"}},{"base_weights":[9.445457E-10],"categories":[],"categories_nodes":[],"categories_segments":[],"categories_sizes":[],"default_left":[0],"id":143,"left_children":[-1],"loss_changes":[0E0],"parents":[2147483647],"right_children":[-1],"split_conditions":[7.556365E-11],"split_indices":[0],"split_type":[0],"sum_hessian":[4.48E2],"tree_param":{"num_deleted":"0","num_feature":"89","num_nodes":"1","size_leaf_vector":"1"}},{"base_weights":[8.57299E-10],"categories":[],"categories_nodes":[],"categories_segments":[],"categories_sizes":[],"default_left":[0],"id":144,"left_children":[-1],"loss_changes":[0E0],"parents":[2147483647],"right_children":[-1],"split_conditions":[6.8583916E-11],"split_indices":[0],"split_type":[0],"sum_hessian":[4.48E2],"tree_param":{"num_deleted":"0","num_feature":"89","num_nodes":"1","size_leaf_vector":"1"}},{"base_weights":[7.7005236E-10],"categories":[],"categories_nodes":[],"categories_segments":[],"categories_sizes":[],"default_left":[0],"id":145,"left_children":[-1],"loss_changes":[0E0],"parents":[2147483647],"right_children":[-1],"split_conditions":[6.160419E-11],"split_indices":[0],"split_type":[0],"sum_hessian":[4.48E2],"tree_param":{"num_deleted":"0","num_feature":"89","num_nodes":"1","size_leaf_vector":"1"}},{"base_weights":[6.828057E-10],"categories":[],"categories_nodes":[],"categories_segments":[],"categories_sizes":[],"default_left":[0],"id":146,"left_children":[-1],"loss_changes":[0E0],"parents":[2147483647],"right_children":[-1],"split_conditions":[5.4624454E-11],"split_indices":[0],"split_type":[0],"sum_hessian":[4.48E2],"tree_param":{"num_deleted":"0","num_feature":"89","num_nodes":"1","size_leaf_vector":"1"}},{"base_weights":[6.730828E-10],"categories":[],"categories_nodes":[],"categories_segments":[],"categories_sizes":[],"default_left":[0],"id":147,"left_children":[-1],"loss_changes":[0E0],"parents":[2147483647],"right_children":[-1],"split_conditions":[5.3846625E-11],"split_indices":[0],"split_type":[0],"sum_hessian":[4.48E2],"tree_param":{"num_deleted":"0","num_feature":"89","num_nodes":"1","size_leaf_vector":"1"}},{"base_weights":[6.633599E-10],"categories":[],"categories_nodes":[],"categories_segments":[],"categories_sizes":[],"default_left":[0],"id":148,"left_children":[-1],"loss_changes":[0E0],"parents":[2147483647],"right_children":[-1],"split_conditions":[5.3068792E-11],"split_indices":[0],"split_type":[0],"sum_hessian":[4.48E2],"tree_param":{"num_deleted":"0","num_feature":"89","num_nodes":"1","size_leaf_vector":"1"}},{"base_weights":[6.5363703E-10],"categories":[],"categories_nodes":[],"categories_segments":[],"categories_sizes":[],"default_left":[0],"id":149,"left_children":[-1],"loss_changes":[0E0],"parents":[2147483647],"right_children":[-1],"split_conditions":[5.2290963E-11],"split_indices":[0],"split_type":[0],"sum_hessian":[4.48E2],"tree_param":{"num_deleted":"0","num_feature":"89","num_nodes":"1","size_leaf_vector":"1"}}]},"name":"gbtree"},"learner_model_param":{"base_score":"1.4665179E-3","boost_from_average":"1","num_class":"0","num_feature":"89","num_target":"1"},"objective":{"name":"reg:squarederror","reg_loss_param":{"scale_pos_weight":"1"}}},"version":[3,0,5]}